{
    "1": {
        "biases": [
            -0.005880125613078514,
            -0.09442454966590198,
            0.046257519798469704,
            0.07314996416164993,
            0.11076265993575374,
            0.03484015549885281,
            0.01639232722139998,
            0.06853476053812911,
            -0.0015549309470323154,
            -0.2864822006875417,
            -0.0374973849703187,
            0.11043768710644992,
            -0.010755800794858736,
            -0.007705683604576422,
            -0.058296175528696585,
            0.15804772865700273,
            0.07242092472251443,
            0.007180620946786339,
            0.08945439242447194,
            -0.20228024625872068,
            -0.06243721927584583,
            0.02731998809481724,
            -0.007465050600350007,
            0.049283951107924766,
            0.03533406207009156,
            0.11935102291408804,
            0.28146120372850353,
            -0.0550261684997095,
            0.012900457621613364,
            0.0036937471170365673,
            -0.16897004287974318,
            0.06008912225698921,
            0.06029779693368384,
            -0.027731887795673347,
            -0.039284177371278345,
            -0.15063147175449704,
            0.07980555345450752,
            0.01740175439926464,
            0.15500857340155283,
            -0.1402428984392936,
            -0.03269461220070977,
            -0.0029014185029410887,
            -0.2864859197123411,
            0.1320764597022306,
            0.011937789719648947,
            -0.19308535038295682,
            -0.009295959159429866,
            0.09889778528563223,
            0.10404029840933082,
            -0.12637527492470285,
            0.001304741989856955,
            0.04136479231812671,
            0.030887621423751954,
            -0.013566296165763705,
            -0.14663570789433036,
            -0.09407166817823664,
            0.01719389859184965,
            0.1564892405473628,
            -0.003469037922630111,
            0.05288769005152738,
            -0.09649240056283012,
            -0.013899004423821392,
            0.03201817337432434,
            0.030621551340606002,
            0.06907582023199983,
            -0.10763238395071026,
            0.16315459869947038,
            0.08835435438419119,
            0.033485762330292115,
            0.34443843700564886,
            -0.4102156801667281,
            -0.352792599044241,
            0.08602511644462975,
            0.047823024915811724,
            -0.05745873265962966,
            0.028847444922326233,
            0.08390048256433826,
            -0.146485945466213,
            0.0036515526454705795,
            -0.04533865221955806,
            -0.1635552844365676,
            -0.07720435270178853,
            0.03431112104812292,
            -0.020847922691844604,
            0.1322995764451121,
            -0.12858362227398767,
            0.07740831007620695,
            -0.1599104307106117,
            -0.00581950240539296,
            0.0326137922223419,
            0.03428392139410792,
            -0.05587921096299665,
            0.07216360009258499,
            0.11711676560270719,
            -0.034655313362858,
            -0.18306744972373984,
            0.16983554291840275,
            0.12593852310903839,
            -0.06879911225212676,
            0.021595322704597904
        ],
        "weights": [
            [
                -0.0005840694688760266,
                -0.001953271883821011,
                -0.006867974194727831,
                -0.009417093967072559,
                -0.013907698630171737,
                -0.01934475787820635,
                -0.029772092351780115,
                -0.03432757843806711,
                -0.03467822332548069,
                -0.037998128342510616,
                -0.0371673028084744,
                -0.03567531364946902,
                -0.03431667223704932,
                -0.029579747951860278,
                -0.02669548554415946,
                -0.029188982125092897,
                -0.02859941513449765,
                -0.030444149465219766,
                -0.025907326276358923,
                -0.027581010248334637,
                -0.027190428398453117,
                -0.025002112085426086,
                -0.024814352086921485,
                -0.027128549314631017,
                -0.023394738809297072,
                -0.019113393648793085,
                -0.015972026714469654,
                -0.017226036750891315,
                -0.000988015735116332,
                -0.0031765598106515244,
                -0.013005300496820646,
                -0.025107534461723275,
                -0.03584022824590369,
                -0.055290315711359526,
                -0.06885814292603964,
                -0.07064268104147158,
                -0.06902675598216289,
                -0.07012323689927227,
                -0.07208618992083718,
                -0.06904175640648527,
                -0.06711125615919192,
                -0.061596699145667906,
                -0.0606505138559789,
                -0.06343832034246849,
                -0.057829092490970777,
                -0.06009183518268006,
                -0.05819608471737497,
                -0.053496169612114466,
                -0.051725403394817446,
                -0.05254781097441901,
                -0.057874455731011375,
                -0.05514881302377493,
                -0.05222914480631181,
                -0.04997516407092586,
                -0.04075488621935745,
                -0.033748958885532754,
                -0.0024252131719241033,
                -0.00904224800076764,
                -0.02594656572734695,
                -0.04382286723720279,
                -0.05752041943281894,
                -0.07498317156685837,
                -0.09033106871939818,
                -0.09080964704651279,
                -0.08796969818814014,
                -0.095881074558165,
                -0.10260851870629072,
                -0.09462291111758393,
                -0.1021417314783169,
                -0.09441778736677321,
                -0.08913376046168413,
                -0.09051645066328512,
                -0.08941698143231494,
                -0.08979077493443656,
                -0.08348677279685317,
                -0.08442853130619832,
                -0.07985126547253739,
                -0.08510052687047742,
                -0.08679137352439917,
                -0.08632157841495776,
                -0.08580599291349025,
                -0.07356710694421148,
                -0.06441160282698329,
                -0.05378200454607413,
                -0.0017947113233904876,
                -0.010376302101461121,
                -0.03523392365762232,
                -0.060973300666473114,
                -0.07226851180073127,
                -0.08504985691033089,
                -0.09306395501375472,
                -0.09961584613336248,
                -0.10996581923073408,
                -0.11453182337954443,
                -0.11322156641830775,
                -0.11986331236003503,
                -0.1173229235215407,
                -0.11573877633850872,
                -0.12090752163404048,
                -0.12966180148401643,
                -0.13170923908189167,
                -0.13228834067677447,
                -0.11907156000083334,
                -0.11024964207221663,
                -0.10506174358337438,
                -0.11222603426045251,
                -0.10947790408573288,
                -0.09777054292529938,
                -0.09371737487843915,
                -0.08243012224020209,
                -0.06887508348471409,
                -0.05819704245318022,
                -0.0032501341258365343,
                -0.02234206976258547,
                -0.04768085126045271,
                -0.05924069926921185,
                -0.06855855150251916,
                -0.07422218773130479,
                -0.07728362887002352,
                -0.08335585727736294,
                -0.08038317753312445,
                -0.08651055191577313,
                -0.08365910324260503,
                -0.07999441469407549,
                -0.08493783383916409,
                -0.07342661565710473,
                -0.07470725656508374,
                -0.07412191108669948,
                -0.07972637103887335,
                -0.09017664854275026,
                -0.07189284973564405,
                -0.07700984148347446,
                -0.07019397087892489,
                -0.06928354742523564,
                -0.06002337643515086,
                -0.05761592522290858,
                -0.05517677637511274,
                -0.05164043526216209,
                -0.058160942986323835,
                -0.046411742774244674,
                0.0006018273461780099,
                -0.019089866734080366,
                -0.038773817099936,
                -0.0458959989845557,
                -0.04716547256462244,
                -0.041833679581504954,
                -0.029037527596300964,
                -0.028350367268183664,
                -0.037167259094302366,
                -0.033465809839949345,
                -0.029415409078943185,
                -0.01858052516108601,
                -0.01440925782518759,
                -0.008029798657829653,
                -0.005886026538002858,
                -0.009304640278672024,
                -0.0018539661226845401,
                -0.017139250059267086,
                -0.023180981722720772,
                -0.023512650391936434,
                -0.005205218294951206,
                0.011795716407727846,
                0.005757407209387411,
                0.004656337111819391,
                -5.35361028966633e-05,
                -0.013193261903131128,
                -0.030217846031870933,
                -0.030229200047704085,
                -0.00018681829320267226,
                -0.023055603265074182,
                -0.036428271106211815,
                -0.030563159679017647,
                -0.019470920126015905,
                -0.006861020770738085,
                -0.0016582732797663668,
                -0.004504383406613424,
                -0.013977656360809203,
                0.0016753860118278445,
                0.00879343377636009,
                0.013480949662870933,
                0.020833675583769754,
                0.036315112035173444,
                0.02968871477630072,
                0.04024691970223209,
                0.0316564020984641,
                0.02457788632281888,
                0.009387555429132855,
                0.012063437577658438,
                0.03274844041040675,
                0.038319276048630106,
                0.03874567295556188,
                0.03543032032360414,
                0.01902642761726948,
                0.0005315344685953874,
                -0.000617413613140976,
                -0.006733343999542396,
                -0.006922214746534644,
                -0.02700551841022932,
                -0.024640772790272488,
                -0.02398363847004573,
                -0.010965832061053409,
                0.000754697349269343,
                0.0040054160924581465,
                0.001399201195944281,
                -0.0035759486711223498,
                0.018336089946628453,
                0.012389087687060785,
                0.03181133306328878,
                0.030877636161558246,
                0.04095533248389908,
                0.028519969296582962,
                0.028762873087243637,
                0.028143795741684116,
                0.027485803930711334,
                0.03180248940825648,
                0.020059769125308963,
                0.03507305117164923,
                0.029004341191307015,
                0.03213121431440513,
                0.03393277720591923,
                0.01843718609169213,
                0.0054642773515823,
                0.007251416153353579,
                0.0018550944957452268,
                -0.0055490789702855575,
                -0.018673581241329926,
                -0.011592102626973248,
                -0.006727185238493252,
                0.007999257719388015,
                0.02318912758205008,
                0.0264021209689365,
                0.025361100750997786,
                0.031398192865818,
                0.02985227079712,
                0.021640106136135998,
                0.01934080721144727,
                0.03163718806928877,
                0.03121488055436066,
                0.030301428126755188,
                0.024947096170170557,
                0.023050355157563766,
                0.022694054072759953,
                0.018918988759291547,
                0.000622429161393816,
                0.009437383948181305,
                0.011579374419914414,
                0.03208192081616051,
                0.02932499921017823,
                0.03125243949546497,
                0.020929015670178176,
                0.010086780570087368,
                0.018870943363427112,
                -0.011070319569984296,
                -0.01170554541486137,
                -0.009973529347321588,
                0.010785471494144744,
                0.02228603336743048,
                0.03037418316159792,
                0.027064631511703675,
                0.018814943567274235,
                0.026846612499446736,
                0.012491710801798596,
                0.02154769540750209,
                0.022548924589137504,
                0.021381060405936052,
                0.01816046389083509,
                0.025246760174656477,
                0.017515808525298063,
                0.016626406633550306,
                0.011668991402918157,
                0.0007714647300162578,
                0.0022550900613659865,
                0.0010112182619847272,
                0.003580463982943499,
                0.02021722859109053,
                0.012695342836289897,
                0.01899172738040231,
                0.02851896892727045,
                0.01513426638036356,
                0.023725295712628693,
                -0.0068695395890566065,
                -0.011899512405904812,
                -0.000978098665323859,
                0.017600929884851478,
                0.014300691946218188,
                0.015281314488602784,
                0.009905857064255206,
                0.014168425275518239,
                0.013333054916558526,
                0.008387929228389226,
                0.00332795162413101,
                0.01086674988252735,
                0.011565926822746583,
                0.004928165336021304,
                0.01405444495905785,
                0.01576587705322026,
                0.013908964473514791,
                0.0017147843836021266,
                0.0017609612615645796,
                -0.0078268937131588,
                -0.0047679391660142515,
                -0.006750385332583786,
                0.009010774198803684,
                0.007975505856056445,
                0.01715802070888095,
                0.015979216105809036,
                0.013806637189858929,
                0.01934032591588005,
                0.002119095337730313,
                0.012889040652555993,
                0.01950276182770332,
                0.025489734699944467,
                0.01983147278980294,
                0.017393241440112315,
                0.010571408855856845,
                0.007528383209102392,
                0.012875588697030944,
                0.0021738808290151304,
                0.0073571136839987,
                0.008393920115343604,
                0.022544252825102872,
                0.029414179066985263,
                0.03369893100766706,
                0.03907424380017593,
                0.030589292495871123,
                0.00450299029620623,
                0.005739763572086001,
                -0.017306912438660782,
                -0.019366953568268203,
                -0.013282720207294789,
                -0.0028686087696747934,
                -0.0016275946075404244,
                0.003371852298176,
                0.011781633563245322,
                0.012201997309012802,
                0.012770831504408532,
                0.014595922675142248,
                0.03737617035704977,
                0.0331629633962535,
                0.02297630530996085,
                0.02580201572946579,
                0.016082794462930653,
                0.013608191289052947,
                0.014474158526788544,
                0.011263289075049109,
                0.0036431041589991145,
                0.0012495250614299577,
                -0.006593719645114809,
                0.013861496645020769,
                0.025328358466296726,
                0.03180134255567792,
                0.03961489017264281,
                0.03081109427247395,
                0.006902164052947104,
                0.004193343019122444,
                -0.017662602052712528,
                -0.004492952145713728,
                -0.005926364678269911,
                -0.01103254709859377,
                -0.007526437323417922,
                -0.008965479182422966,
                0.005489099520431028,
                0.006517575440587996,
                0.01608159005144498,
                0.021994183004917452,
                0.05552507845569016,
                0.054242281312803495,
                0.0322241483054126,
                0.02960033975491606,
                0.015339399845001407,
                0.007442933801459758,
                0.010712163041112865,
                -0.003916970464020339,
                -0.010723481487281954,
                -0.010518814292077162,
                -0.0032610063947168385,
                -0.003253768394694278,
                0.0028672366032892384,
                0.009424109410887194,
                0.006770653539328787,
                0.009048940712163217,
                0.010128404879698264,
                0.016329865728847318,
                -0.004007267087987062,
                -0.010300302819334074,
                -0.009379005836090738,
                -0.005095252550317439,
                -0.013876627492593736,
                -0.011523986128998744,
                0.00996027387598656,
                0.018584345463037888,
                0.016906804727092016,
                0.02501160211785186,
                0.05325257202575414,
                0.05681370797954961,
                0.046788296432226234,
                0.04136617956865565,
                0.01813908701578664,
                0.01811950003029383,
                0.0008261034350909559,
                -0.01927879128187549,
                -0.013957787853464972,
                -0.008574835407663291,
                -0.01368891595515309,
                -0.007187325946095798,
                -0.006896563850663566,
                -0.0076135827941335036,
                0.004489663155773942,
                -0.0024845616956162813,
                0.00348664654120375,
                0.008863968384500655,
                -0.005878795577106892,
                -0.0029153013428204113,
                -0.006054824594569648,
                -0.0012128526557963993,
                -0.003694802756601629,
                0.003225976171974196,
                0.018260111351702756,
                0.018479896550178797,
                0.01469913764995957,
                0.02230690858427694,
                0.04685033829740554,
                0.041974936588710286,
                0.045921786701603,
                0.03976577056083885,
                0.026062793167690244,
                0.016816985380875817,
                0.010724933886860263,
                -0.002451231738712188,
                -0.0017280246327501625,
                -0.0022221126603882337,
                -0.004483599737833759,
                0.00694155761738085,
                0.0053619387897465036,
                0.002110358814615656,
                0.007905074618451972,
                0.007853597026607503,
                0.008751861220838802,
                -0.001894768643249469,
                0.0023645137623556248,
                0.009204013190253381,
                0.0036677511284364467,
                0.004555184188914527,
                0.0056202047065851855,
                0.011122000259670908,
                0.028147938500804832,
                0.025047450379610987,
                -0.0027987299468030056,
                0.012182853480248374,
                0.03240184746425083,
                0.022775290548200967,
                0.025039887703520548,
                0.024958490185886684,
                0.017608206455182535,
                0.015565601446144064,
                0.022520795368132528,
                0.013690375135910855,
                0.01438615561062202,
                0.010919233341488458,
                0.010244112892246512,
                0.012200769179299445,
                0.006592301695296784,
                0.012691775875360665,
                -7.086997904143737e-05,
                0.0034789293126577135,
                0.006821234147059558,
                0.009758835272101437,
                0.022654318087843447,
                0.017846123853255316,
                -0.0036079516834141173,
                0.008486177452314817,
                0.01198725106031284,
                0.016158136059467892,
                0.03234931748862123,
                0.01599368495219433,
                -0.008950540791370292,
                0.006249903135941458,
                0.019930828586467587,
                0.01784161951226624,
                0.013216894688030986,
                0.0014346992636386645,
                0.0015572543714859378,
                0.004894553603084545,
                0.005970944059197016,
                -0.00113364640345945,
                -0.0025221161502796126,
                0.004297236020569956,
                0.01060468090133983,
                -0.002275149166144722,
                0.006883263229714167,
                0.003780690985283982,
                0.010892007909682191,
                0.012187490990781081,
                0.007991136707688981,
                0.014502711307774925,
                0.01187731378595005,
                -0.005990191749357738,
                -0.0051696345926918056,
                0.00309984296726835,
                0.005615329638055672,
                0.010297561808647314,
                0.015388533093191166,
                0.013423751665854505,
                -0.009956229977584876,
                0.001483110800553175,
                0.002331235105469163,
                0.007471651683921719,
                0.008258120176002894,
                0.010996896980368046,
                0.0036794138820250154,
                0.002358941228825428,
                0.0005092647301763458,
                -0.007530162546503264,
                -0.009755969949063309,
                -0.005224751289546117,
                0.0015110491273116716,
                -0.0020012497316772055,
                0.003976882911672991,
                0.007725667383615797,
                0.007025305739592867,
                0.007224892927124691,
                0.01013458533196807,
                0.01271526456026519,
                -0.001993142065146889,
                -0.005965224845641647,
                -0.003302307811055324,
                0.005835384838818887,
                0.006296456535167942,
                0.019839957286334208,
                0.012882109849280649,
                -0.00021374592636916223,
                -0.011923274196019452,
                -0.0036301989876999573,
                -0.009960345544956554,
                -0.0020515729164327775,
                0.0017338259997347076,
                0.00725612810300499,
                0.008887988787971311,
                0.01009900144846789,
                0.0030270402696994415,
                -0.012388632681170093,
                -0.0160414876204054,
                -0.01586114844386092,
                -0.009979657328481245,
                -0.00039593347030417685,
                0.010668823240205405,
                0.006082914019902145,
                0.014722430228617358,
                0.004884794031321433,
                0.0056817805719922496,
                0.011088979920065271,
                0.004229506135650855,
                0.009036160123156563,
                0.017044263821925372,
                0.01444534100743744,
                -0.0016013964857377213,
                0.010907916373856089,
                0.004580403270949269,
                -0.012128109909545586,
                -0.012720294154317328,
                -0.0077631584250904,
                -0.026372456804249756,
                -0.015043393233935307,
                -0.007159968522249685,
                0.00020950739175723212,
                0.008228603123330321,
                0.01698729575176265,
                0.011174858401468868,
                0.003360710369088228,
                0.006094565039171312,
                0.0011790636448409015,
                0.008063977521209137,
                0.0048446848004199084,
                0.01694474911045742,
                0.015210931952364769,
                0.012039293829465919,
                0.014712222740075864,
                0.013318900156973911,
                0.012453838299747836,
                0.010664406370153858,
                0.005553163962494757,
                0.019740668077305935,
                0.011068997638221134,
                0.0009892361008110278,
                0.00041661598658338444,
                -0.010531635227745624,
                -0.022680050811294466,
                -0.013113679040813456,
                -0.01028524529441614,
                -0.027415898166254782,
                -0.022616018101630882,
                -0.017474311686719108,
                -0.011228226808069989,
                -0.004595222205550033,
                -0.013379640525679226,
                -0.020513528781660312,
                -0.0031398237710324175,
                0.0008400666798660922,
                -0.012320133944796918,
                -0.012995992598168608,
                -0.004465620058272464,
                -0.007539339170974584,
                -0.016816749974906255,
                -0.017190162416569725,
                -0.014148110053502473,
                -0.006517801287523941,
                -0.004220207876294857,
                0.010125170548857726,
                0.004631871390502336,
                0.007559313492510082,
                0.0043569174886081115,
                -0.0044532480205788,
                -0.016233258376272958,
                -0.015663356687682616,
                -0.02519617176296293,
                -0.010899473644850086,
                -0.008295384928948053,
                -0.015611178034757148,
                -0.023743008069340963,
                -0.021697090456827894,
                -0.01562642290502444,
                -0.021494453326665667,
                -0.028597139696378202,
                -0.03201621393290745,
                -0.026008422550177983,
                -0.02020383543860621,
                -0.029606360671414256,
                -0.02801760405850915,
                -0.027807918641178507,
                -0.03298907418979163,
                -0.04388191340117099,
                -0.04174133479531426,
                -0.035396873881099016,
                -0.03581287112367922,
                -0.030631872250785938,
                -0.01861243960964408,
                -0.012956885154243685,
                0.0004688605842891794,
                -0.0018787664635791814,
                -0.015624570066351463,
                -0.015537751352877195,
                -0.02112103462167253,
                -0.013947548159720677,
                -0.005149830747080817,
                -0.003812799911944448,
                -0.012038621179717858,
                -0.011818711179398911,
                -0.017638517556037552,
                -0.028782003102699506,
                -0.03235757258415795,
                -0.03774072171675277,
                -0.04481431505763889,
                -0.038480996911318864,
                -0.022976909584715013,
                -0.019233018460511904,
                -0.01977030414750273,
                -0.022292145853724812,
                -0.025667526727345753,
                -0.03485746954958118,
                -0.04054128218230059,
                -0.04495589440795716,
                -0.03948981487474632,
                -0.029861652098291225,
                -0.027899981089833232,
                -0.021093724017101426,
                -0.009106765289458961,
                -0.009233214564601574,
                -0.002279975572665772,
                -0.0049030133920969325,
                -0.0029481456247336165,
                -0.0036938402546572045,
                -0.003901947306365452,
                -0.001076902300939366,
                -0.0028791645026498675,
                -0.00836596951951405,
                -0.014566280123980683,
                -0.02861496464503045,
                -0.029787689586445173,
                -0.017720814516093517,
                -0.02217572120032986,
                -0.010759527058562217,
                -0.013452974431877552,
                -0.012790269623426824,
                -0.01319223218072522,
                -0.009447345953879895,
                -0.015102323661546874,
                -0.021641963143086383,
                -0.017641306251953908,
                -0.022843839789874247,
                -0.027166157990093094,
                -0.023800206918725503,
                -0.021529922891602757,
                -0.01592512397994525,
                -0.009337316855157178,
                -0.007149206724826787,
                -0.0044310144427627375,
                -0.010157353283929974,
                0.0022485229460699513,
                0.0010914962831854705,
                0.00221026757641392,
                -0.001483328951221845,
                0.0005358184026145744,
                -0.007142062228966555,
                -0.019359158457064343,
                -0.01808805721930645,
                -0.01388675745021347,
                -0.009563942534629557,
                -0.003171160932392495,
                0.0005139209579428237,
                -0.0055170262169022665,
                -0.0057476293450972665,
                -0.0010166242347660935,
                0.0034711017145357226,
                -0.0004787728801094878,
                -0.005141903100644124,
                -0.010610933394338726,
                -0.007647020525031128,
                -0.0013501314483706482,
                -0.0050540513689317276,
                -0.004197781524189091,
                0.00036869654674584864,
                0.0029754097586540316,
                0.0037306414716222866,
                -0.00017757844212130703,
                0.006621868882494273,
                0.006954686085037343,
                0.008504845513882094,
                0.003797350246177573,
                0.0010797419418814868,
                0.001983489348381362,
                -0.0035406430115795086,
                -0.005726529654978845,
                -0.009375251810035377,
                -0.011488883107029202,
                -0.007643961432519982,
                -0.0035171814243340903,
                -0.00331634299876014,
                0.0022455002181676945,
                0.00195882570968061,
                -0.005565750482963167,
                -0.0017506238819827062,
                -0.001589453772143341,
                -0.0033481446904475944,
                -0.0007917550144256777,
                0.012125535187551734,
                0.01736592633135846,
                0.009089075810172797,
                0.015392961680825872,
                0.017168349752464365,
                0.008816566744114795,
                -0.002091249243720848,
                0.004768129952967686,
                0.004907318404373776,
                0.008560341509765746,
                0.01178321651640171,
                0.007667750790216053,
                0.001114892352945146,
                0.001041932761204557,
                -0.0012870339284341338,
                -0.007899195505033003,
                -0.00886299041186509,
                -0.0042728224128434885,
                0.004079196570803068,
                -0.0009865777919472044,
                0.006475195013894825,
                0.010254244916308723,
                0.010672604324605178,
                0.007909736032266385,
                0.004913225954344665,
                0.0064087883335066,
                0.0014515071530548684,
                0.0018061983572265447,
                0.004988605077752625,
                0.010353353197167564,
                0.007850268295903845,
                0.015468642921557543,
                0.0073129181603359865,
                0.0024663693888420978,
                0.001978487444030218,
                0.00799193207127858,
                0.010326630967755308,
                0.012495100360792844,
                0.008889682171499914,
                0.003498352574521196
            ],
            [
                -0.0027814568966157984,
                0.00227221013618229,
                0.004666024927120794,
                0.0063973707766003,
                0.005935256524303391,
                0.009232305452949377,
                0.0046084560890308135,
                -0.002196343780595072,
                -0.008365671824352643,
                -0.015146892582824766,
                -0.022760870438522606,
                -0.026117142601447183,
                -0.024232311189271664,
                -0.02246246664409939,
                -0.01894455856550975,
                -0.02050897986455884,
                -0.013494571932718852,
                -0.0057578221576973475,
                0.0076352072259643815,
                0.012389481303100762,
                0.011582813000743254,
                0.004793078354142166,
                0.010645279453433411,
                0.008171869794689857,
                0.0046042019849849665,
                -0.002188789863283134,
                -0.0035719660210666738,
                -0.005971477331100965,
                0.00016202710433726075,
                0.0025116649772396736,
                0.007356181429741245,
                0.014043417400116453,
                0.014442654055192608,
                0.012326497287813912,
                0.0036517946972520624,
                -0.006071712386393058,
                -0.02050878347575446,
                -0.032160472754336346,
                -0.03700428407526531,
                -0.03829181205371965,
                -0.0397211622205597,
                -0.03128161359951721,
                -0.02818882047885165,
                -0.021488962610213158,
                -0.011899721947594267,
                0.0037075593115978456,
                0.016651812333921365,
                0.02126990763072032,
                0.023560098800521543,
                0.010003421230160722,
                0.009171458564645008,
                0.0005447064716695593,
                -0.002986149559634942,
                -0.009281262386688036,
                -0.01166991222396525,
                -0.019066826149255076,
                0.0014103492324963596,
                0.006158489308519192,
                0.011973234439163465,
                0.019866777215935737,
                0.016759976032079585,
                0.017972514350707566,
                0.010097842900305638,
                1.9689940715670126e-05,
                -0.009100556503951631,
                -0.024649558005030832,
                -0.03681951770229377,
                -0.040504836211547726,
                -0.03276392619991759,
                -0.023563246953728054,
                -0.025876568221483584,
                -0.018879997580947248,
                -0.007787192512140553,
                0.00689404456876904,
                0.020525087175066868,
                0.03589120576982108,
                0.034684430820200805,
                0.01771116496973865,
                0.009821266807626673,
                0.002888773104428356,
                -0.005991007456670766,
                -0.013041900322399798,
                -0.012433547441421762,
                -0.022171917773348346,
                0.0012230611133900694,
                0.0056684191908511995,
                0.017564704922300618,
                0.017508072603172938,
                0.015486574338816917,
                0.018903754363559507,
                0.01171903167670435,
                0.00322689774062412,
                -0.0005806704254620918,
                -0.017269311823593102,
                -0.0333652829662389,
                -0.026528521239426187,
                -0.017351577848258058,
                -0.018114872532450765,
                -0.020379518518482798,
                -0.01630541974745593,
                -0.008989533876849318,
                0.0018829837837944106,
                0.022941126523743756,
                0.04905210668058096,
                0.05080721047605158,
                0.040422877168117155,
                0.026398998553785184,
                0.016188513241753893,
                0.012703222820433027,
                0.004223306752382568,
                -0.007961658509523196,
                -0.015416099309599435,
                -0.0007249007650507391,
                0.007403026647618394,
                0.015414552522266343,
                0.01820646501655659,
                0.018658995917743396,
                0.015274660680464899,
                0.014788786088578684,
                0.008800707343043154,
                -0.0004129492714021937,
                -0.02410601550734955,
                -0.03199669814491923,
                -0.026055738799397717,
                -0.020399891969566472,
                -0.009075708866627065,
                -0.013198129076072236,
                -0.01280296564799679,
                -0.012979592885563575,
                -0.005149711571569628,
                0.027504320986328573,
                0.06854953138597597,
                0.08319644781678846,
                0.07318000267820841,
                0.049393158464466444,
                0.03635662015098085,
                0.021293875828817806,
                0.008222161352229421,
                -0.0004009747717505067,
                -0.007510779143040993,
                0.0016244011498746697,
                0.006292230765808316,
                0.013078562117721773,
                0.020156090063181597,
                0.024634501677580075,
                0.02933915330009885,
                0.026967359969952993,
                0.020857422655555458,
                0.009270811751847671,
                -0.02069033262465388,
                -0.03660526273640758,
                -0.032294777408525224,
                -0.0212041071542481,
                -0.00913351971545538,
                -0.012028944001051011,
                -0.011674789085817722,
                -0.01239109160022653,
                0.0040330985161910774,
                0.02697658462534349,
                0.06327196109111484,
                0.10295862188620351,
                0.09082774156554944,
                0.06204349102788185,
                0.040663782703848454,
                0.025403474103656537,
                0.01468777557331101,
                0.001791779912595217,
                -0.011152485049754106,
                0.003953993395543488,
                0.003932745284260079,
                0.0046330735303081625,
                0.01314728271940561,
                0.022875241344716215,
                0.0282432374678522,
                0.033869109888658176,
                0.030033526556184763,
                0.008610994612130465,
                -0.02265158329751848,
                -0.02643017472672299,
                -0.02257405536612842,
                -0.02108735071983721,
                -0.013224059668947451,
                -0.02189400629766153,
                -0.03420957123575644,
                -0.04036628087407502,
                -0.025354942949363392,
                0.0003771018712304067,
                0.04372292721570979,
                0.07851277205258173,
                0.09006756845618664,
                0.06331210662546276,
                0.03656152796034317,
                0.020401688866332392,
                0.011326364651023865,
                -0.006531644214315734,
                -0.024993061766038525,
                0.0003985265887104176,
                -0.0005160391592303242,
                0.005983642116901028,
                0.01587583433704887,
                0.02052948167901018,
                0.021728753898748128,
                0.028720918284278325,
                0.023345819323397816,
                0.005723499523909209,
                -0.01257629530796873,
                -0.02059738154848761,
                -0.017314524852688157,
                -0.018337324822457476,
                -0.0219286583847039,
                -0.03334405607293371,
                -0.04179394816055238,
                -0.040885900820187164,
                -0.016058390673833984,
                0.0014629527365279031,
                0.029766913688093817,
                0.05020529523173828,
                0.06648425428332522,
                0.06401344076134925,
                0.04388128468536809,
                0.023857101807510914,
                0.004040790473462693,
                -0.010443036089445839,
                -0.03126439305993208,
                -0.0035947406806889027,
                -0.002953204161025293,
                0.012720353268572984,
                0.021517498285294076,
                0.01819720025682811,
                0.025140493170641456,
                0.026934401007118025,
                0.025068482176996094,
                0.005789978322968542,
                -0.02025339924488175,
                -0.029135675867001005,
                -0.03191580610151841,
                -0.03666172401683723,
                -0.03148159814608431,
                -0.03198929622683786,
                -0.032376655196321595,
                -0.023843977529942526,
                0.004907671675227217,
                0.019208182885798692,
                0.0344472794635255,
                0.05074389275798642,
                0.06488324662362095,
                0.0554377501990401,
                0.04392654467547299,
                0.02616064334293096,
                0.002003558580315344,
                -0.003873528603939497,
                -0.039142787325914315,
                -0.0005548938050277765,
                -0.001576107905880391,
                0.010256920073579577,
                0.013159835952713661,
                0.013652180217677574,
                0.011493233656982559,
                0.005577705402788168,
                0.005753975062900625,
                -0.003550348592168949,
                -0.021937639414300856,
                -0.02144255108876827,
                -0.02816477031542036,
                -0.03359230638208881,
                -0.024058322405020507,
                -0.02286372642396431,
                -0.023147675702081906,
                -0.009473572402800487,
                0.004620696027814888,
                0.01792997585236052,
                0.028898451088276444,
                0.035375429100920085,
                0.03998855324156929,
                0.03629770739643141,
                0.040712950984717326,
                0.02639399087394531,
                0.002498167321304299,
                -0.007738903288357228,
                -0.04063896824372089,
                0.0019433099316710173,
                0.001770617609224817,
                0.007541813753858621,
                -0.001744458225317783,
                0.0012968103273521042,
                -0.007113045190432631,
                -0.005267348433332644,
                0.005254823733280482,
                -0.006623103094908375,
                -0.01413530536275988,
                -0.0013600383844968864,
                -0.006461864202632286,
                -0.015548042360322246,
                -0.016966224300645847,
                -0.022945180223950055,
                -0.017730058305270597,
                -0.011193669879084475,
                0.0017636896165675242,
                0.011645628556697407,
                0.027255230208258343,
                0.03612920192259318,
                0.0384865059334321,
                0.036006690587995306,
                0.03780766225442974,
                0.03750107295044713,
                0.014400524467740676,
                -0.013937248849035782,
                -0.037715701254543765,
                0.0021140576932648053,
                0.0015905590115681185,
                0.004924495214755282,
                -0.009862621542858425,
                -0.00569960381676575,
                -0.010658624333102135,
                -0.006895371257067788,
                0.008122744246946697,
                -0.0002532658527273002,
                -0.00460558337214386,
                0.0043813270448873525,
                -0.0005832095504860956,
                -0.011051049452089531,
                -0.018206731037788915,
                -0.01883693823128835,
                -0.019639080850820622,
                -0.025098094599629812,
                -0.010561882350631135,
                0.008273176410890842,
                0.026993077244410926,
                0.03946010081307906,
                0.04528239078187308,
                0.04887703746244798,
                0.04058922498333716,
                0.04829327057893249,
                0.015807236204429084,
                -0.01621421494679487,
                -0.02780433717675727,
                -0.0006619028410131533,
                -0.007482875531650664,
                -0.008805504454811132,
                -0.00810163352831465,
                -0.009956994309337566,
                -0.002667999022525153,
                0.010017404929521113,
                0.015031885057426858,
                0.020716270703735783,
                0.010445331884870563,
                0.004152285733285671,
                -0.002532139700712482,
                -0.0075632751938313385,
                -0.007400302405248885,
                -0.021011896474177217,
                -0.022194917934262995,
                -0.025706304883801868,
                -0.010382924651167925,
                0.003043368526602521,
                0.02387972354594479,
                0.031115443018893244,
                0.028839053235289885,
                0.03743186873406447,
                0.03741589132032145,
                0.03200365917175376,
                0.010643291869410655,
                -0.012792255302455004,
                -0.020395496494882027,
                -0.0024564581888327584,
                -0.009736173227051967,
                -0.013333023572946833,
                -0.007941835455451612,
                -0.00809642873219479,
                0.0028808477523065345,
                0.01950486088482221,
                0.018522744868192813,
                0.023919656090653794,
                0.01499793194565754,
                0.002175943543193507,
                -0.005780307744530136,
                -0.009110003803423682,
                -0.015832413127167957,
                -0.025317756473643357,
                -0.022223147518773665,
                -0.03172334716083243,
                -0.020468358057726305,
                0.005454032900049999,
                0.02338079366096731,
                0.03616840737114142,
                0.038919248789696534,
                0.029744687754345835,
                0.020081769791409337,
                0.012017994514933135,
                0.0012223901891652946,
                -0.016264400371750014,
                -0.01875737692262868,
                -0.0021515999224417616,
                -0.011050488214290072,
                -0.00969684663752248,
                -0.008482188382528608,
                0.001328889356506018,
                0.009363588809456126,
                0.022485241829735377,
                0.021629859586216073,
                0.031032869842693,
                0.014550794706641496,
                0.004239341879198311,
                -0.0018980071300435941,
                -0.013004535903788727,
                -0.0266924667468704,
                -0.03453249599488796,
                -0.03719410661924755,
                -0.031469650085597975,
                -0.017376865591646622,
                0.00456011115123623,
                0.024513266258398347,
                0.047691250860138916,
                0.034520194583792074,
                0.027994578942818208,
                0.01433042341002082,
                0.002783856760728659,
                -0.009737536434991053,
                -0.03096755062726942,
                -0.027982392915624817,
                -0.002463158880704054,
                -0.00922596355975956,
                -0.010804353447924669,
                -0.0001140471079085545,
                0.004351086052543746,
                0.014649012790464454,
                0.02882880133925067,
                0.028602351543678642,
                0.0270976492558734,
                0.015077439154190957,
                0.005054247783153941,
                -0.008245917471985212,
                -0.011731947162276405,
                -0.019877955665631636,
                -0.01957951580078471,
                -0.02632087043720138,
                -0.013480281916456508,
                -0.00681995688414343,
                0.014572060718765968,
                0.025999438592206804,
                0.03115047790508917,
                0.02145152900384615,
                0.01705510028864135,
                0.0031946365525469702,
                -0.007260111855102816,
                -0.026771897079144503,
                -0.03209707189613619,
                -0.02646058399722005,
                -0.0022634996543160527,
                -0.010375861080352858,
                -0.007453787855657741,
                -0.00041396058645827403,
                0.013899167448942902,
                0.025906407905431646,
                0.02185828391376646,
                0.03208055399116547,
                0.02018745571944429,
                0.007134654029317157,
                -0.0005765800552117648,
                -0.0017133365359478388,
                -0.007043152957628828,
                -0.006751250636074412,
                -0.006734538350215992,
                -0.0017884558339190003,
                -0.0021304820583564745,
                0.002252005194939067,
                0.01998745862482015,
                0.024319308172209553,
                0.01731778460695104,
                0.005632861921753269,
                0.003588167770377385,
                -0.016196817017800565,
                -0.022674390266560762,
                -0.03887066988763229,
                -0.030117265579488395,
                -0.015932417949998064,
                -0.0035953523932966075,
                -0.013488049027236255,
                -0.009251820771096035,
                0.003050239385486107,
                0.013530572372727756,
                0.019307472388781163,
                0.01252182191903675,
                0.014262431914683685,
                0.0076616836613884005,
                0.006852045804325554,
                -0.0017432374994486612,
                -0.007181326974469035,
                -0.02055621878513836,
                -0.017220677801531067,
                -0.00660644993437933,
                0.0019187660675276546,
                -0.003407574146791102,
                0.005198520003949034,
                0.011982919272104058,
                0.006297940206659135,
                0.0024100724452211196,
                -0.002914648702623114,
                -0.007641717835650595,
                -0.012407594499425027,
                -0.027320846961916844,
                -0.0345192856604501,
                -0.02663256735005185,
                -0.010581390551916285,
                -0.003621096194677388,
                -0.01997529181168889,
                -0.015707720250574642,
                -0.00012565507023266418,
                0.008674142435752492,
                0.017241765957170606,
                0.012660285115338144,
                0.010485044941090822,
                0.01522489520121657,
                0.015537827408413281,
                0.014233565092433535,
                0.008172348203242773,
                -0.010847266464178933,
                -0.019011270490013957,
                -0.01372408399306661,
                -0.011683205093993235,
                -0.027175096088452037,
                -0.01858389207552572,
                -0.0186378637402272,
                -0.022429996214142104,
                -0.01434819020781234,
                -0.017664513406833095,
                -0.01465924208043636,
                -0.02029294419016472,
                -0.021660620338800046,
                -0.026586552371279878,
                -0.022180976777454744,
                -0.006972634726787491,
                -0.002034899819880158,
                -0.01641648784290732,
                -0.021499999280619318,
                -0.017099831234368805,
                -0.00012156199813072365,
                0.010593394664196454,
                0.02219047646403117,
                0.02617039215706596,
                0.03492852466356349,
                0.03107925428756558,
                0.029218721364002376,
                0.01784455542521282,
                0.00599996655561798,
                0.0007142397762598022,
                -0.0010895204948310159,
                -0.008170191833198103,
                -0.024831098936788556,
                -0.025592586468395663,
                -0.029720615064209754,
                -0.025949169437692425,
                -0.03203878265416546,
                -0.03274376204968356,
                -0.02189547931361593,
                -0.012367487028998139,
                -0.017917259893988693,
                -0.015224378035765079,
                -0.008366393435906621,
                -0.008767341431994738,
                -0.0020893099542662118,
                -0.017666046164837176,
                -0.02577340636947878,
                -0.020576218717669615,
                -0.004650783159598661,
                0.007696428702620001,
                0.013023327319316894,
                0.014939679990868857,
                0.022684398208326212,
                0.02746315912406696,
                0.03235522599686828,
                0.03172175525157772,
                0.01543242127194188,
                0.0029355974271935833,
                -0.01277996232328928,
                -0.012572894519992994,
                -0.015581704454780361,
                -0.014426149100662254,
                -0.023730518161718964,
                -0.010306327775396513,
                -0.01677278978936519,
                -0.015404719694941242,
                -0.010407030087992623,
                -0.007434775159688609,
                -0.014124871106595488,
                -0.0059401124581191,
                0.0014216507055824202,
                0.0024113669870956056,
                -0.0037827396904073773,
                -0.013666480529911982,
                -0.019346656161780024,
                -0.014177607572922003,
                -0.013918268865390085,
                -0.00543697004187727,
                0.0034553707739160616,
                0.0012347077000749267,
                0.0056978602451685555,
                0.015602009199199072,
                0.026791776345732144,
                0.026032821931796724,
                0.011929601669362416,
                0.007756337630735018,
                0.0026773635458385145,
                -0.004260795667578021,
                -0.015924234794880875,
                -0.01979761254121913,
                -0.025812997817096284,
                -0.015428114230010679,
                -0.019298895729219296,
                -0.01196908044066662,
                -0.013084302094892211,
                -0.011351100620362094,
                -0.004141497201371728,
                0.0011740292413670432,
                0.0067594006362590945,
                0.003275794020473433,
                -0.001261115398613443,
                -0.008691926766891601,
                -0.01447786629893949,
                -0.010832750321339244,
                -0.011118384072188929,
                -0.002747431814100109,
                0.003369760605698038,
                0.004683231630980527,
                0.0006095466610416823,
                0.008495710822631296,
                0.019940403966881896,
                0.023691968349051448,
                0.01091965952349809,
                0.007108215744300082,
                -0.005930375679748842,
                -0.01456810983897682,
                -0.017291814903664885,
                -0.012801026203738183,
                -0.015514817136700063,
                -0.016229766116642775,
                -0.008965801203754172,
                -0.012537877393625382,
                -0.0048353872385493105,
                0.004080125939700779,
                0.006829660277221681,
                0.01567584554862713,
                0.00878340868245287,
                0.006464837055788729,
                -4.3657383743953523e-05,
                -0.006123458852680588,
                -0.0042817664472276935,
                -0.0020200320202507483,
                -0.0061947786680765565,
                -0.0012370229287306785,
                0.005052935093117673,
                0.012331074160589579,
                0.010448452197191224,
                0.01040023281069909,
                0.017200447523337867,
                0.02137672390288658,
                0.016995328771237484,
                0.014368837893845715,
                -0.0041898644988110165,
                -0.0035283365852196652,
                -0.011933084153638989,
                -0.01438559141224826,
                -0.007381300899995205,
                -0.005511668147187252,
                -0.0003932868644207432,
                -0.002761250508845803,
                0.00396767269343792,
                0.010966407036171522,
                0.021571472586549654,
                0.019900081059118023,
                0.01059171979819903,
                0.006141496143229331,
                0.0008061915647403081,
                -0.004615956843812251,
                -0.0025200848428319975,
                0.0006873911304292658,
                0.002358741984772819,
                0.008255526755501062,
                0.010869111273956194,
                0.017741453263728092,
                0.017697459856549663,
                0.017917795137690398,
                0.01704123906470454,
                0.018730009024172982,
                0.012639033641316359,
                0.00722640583105069,
                0.0016035475520713974,
                0.004192016119285161,
                -0.0025003957812330334,
                -0.00572496214054228,
                -0.0026172292502831336,
                -0.011376187948993656,
                -0.004658782011964768,
                0.003244088952521505,
                0.015410592417852182,
                0.01513870239967023,
                0.018145544379227278,
                0.01674325340682,
                0.007393404048638258,
                0.0043352154990736035,
                -0.001573702885009569,
                -0.002694444607232685,
                0.00010618971412679198,
                0.0008671498351172274,
                5.980988288769241e-05,
                0.008302191812497002,
                0.006281126060723753,
                0.008433765727562222,
                0.013234673511207681,
                0.01819494986890338,
                0.013800291522958572,
                0.011286781464529341,
                0.01424215051267128,
                0.01705194103920671,
                0.017188056889098177,
                0.017065945352432815,
                0.010263713146317693,
                0.008631186141262273,
                0.0001270667599655048,
                -0.008534830588565287,
                0.0017287584530492088,
                0.007460042094992234,
                0.012726029389257975,
                0.013006471420938808,
                0.01397637700557299,
                0.01416051114001001,
                0.006368591677696094,
                0.0009654336472288813,
                0.0015535757388272474,
                0.007375229370115723,
                0.008037985731204437,
                0.0012303217319845903,
                -0.0017955883238691902,
                0.004600050837439476,
                0.004079824605238898,
                0.005348566093323285,
                0.00890686881490607,
                0.008184020150341389,
                0.0040492380753092035,
                0.012519513158490833,
                0.01998444292641401,
                0.023150225372268435,
                0.014518164782290026,
                0.014451100999071997,
                0.01866158612504,
                0.020107781087574647,
                0.016013563342921047,
                0.005406463813458687,
                0.005503184539544413,
                0.0061506092803550365,
                0.010351374462942759,
                0.01242131742764325,
                0.01274643190669413,
                0.010025300250446949,
                0.005941159716757154,
                -0.00024091887333549012,
                0.0007312807752475653,
                0.006842663445002402,
                0.006744826862553945,
                0.00809304678011486,
                0.009753299144823804,
                0.008079515890494465,
                0.003454426701906922,
                0.010141876871793883,
                0.0019671564312778037,
                0.005737039396850022,
                0.005654558261716745,
                0.007844542152255017,
                0.01279124839192647,
                0.016622407336938174,
                0.017379036936532553,
                0.019569009062520674,
                0.019608039255129432,
                0.014403258850058278,
                0.008475257988836754,
                0.0015062996781802537,
                0.002570632758244585,
                0.005676788043705436,
                0.007475463499412116,
                0.008705698210308626,
                0.006857020166176456,
                0.004363409464987573,
                0.0033303599596240345,
                0.0031487944372262607
            ],
            [
                0.00013540768609968817,
                -0.00031435711643658685,
                -0.0024614759146409995,
                -0.005739225530297652,
                -0.006459850827673287,
                -0.006219272458233861,
                -0.004781416811180001,
                -0.002023444040425829,
                -0.002586477126435992,
                0.00019881431029656284,
                0.0026078795222742065,
                0.011519773774239156,
                0.009658798553973398,
                0.012347110649567745,
                0.013169108905357087,
                0.01359856915586444,
                0.014012507497953068,
                0.007954645706513802,
                0.0037637094777964565,
                0.008236979875109643,
                0.0021078964874817773,
                0.0031550001448801784,
                0.007558706947321451,
                0.012720702884803866,
                0.011325780090591755,
                0.006341442286589471,
                0.006926948453359412,
                0.006865760189575145,
                -0.0014112587270500368,
                -0.0049606514411703545,
                -0.008295648115658793,
                -0.01254693106443524,
                -0.010924744238770764,
                -0.013132997356493882,
                -0.010609546215723192,
                -0.005524743534198585,
                -0.004152619881937675,
                0.004867124961831771,
                0.017769314278061957,
                0.019172810003668817,
                0.017237737321166152,
                0.01298256542218188,
                0.02169915888559191,
                0.024668821262966677,
                0.018997782763798206,
                0.01836010124086465,
                0.010153968094039421,
                0.004625106029177794,
                0.0030274848876595617,
                0.0014768587781323064,
                0.008039551641093996,
                0.002348511037948292,
                0.011598156952710765,
                0.013284901774342269,
                0.006948151930264017,
                0.007956859960934438,
                -0.005331838784614567,
                -0.00928655954156474,
                -0.01344738201638197,
                -0.012214129909649391,
                -0.008853655399470722,
                -0.009282568854264936,
                -0.006722093482663025,
                -0.004449579388221523,
                -0.004566952522572081,
                0.006909209250728908,
                0.013302621915812133,
                0.013441928317579151,
                0.006629071920003094,
                0.01573975270031254,
                0.020313937340214007,
                0.01837199437350883,
                0.009154784612528376,
                0.009980425105366507,
                -0.001988053105819323,
                0.0006344822339015025,
                -0.008580302050212357,
                -0.004082129465941316,
                -0.00025997389571179964,
                -0.00673868832776906,
                0.0016473777732582773,
                0.004253298676691282,
                0.007641091484695802,
                0.003952055864567424,
                -0.005558986375884959,
                -0.01092474131918157,
                -0.011013244488282857,
                -0.010209869913857125,
                -0.006679165915768439,
                -0.0035899484715568955,
                -0.001097498599975889,
                -0.002901502692811071,
                -0.0013020791523761243,
                0.007437749577843631,
                0.0017312564145525002,
                0.004426612712803525,
                -0.003608565726043672,
                0.00013871025839410982,
                -0.0022523860307720293,
                0.004231882842252393,
                -0.000724734639169852,
                -0.0016844013773827052,
                -0.0044350222958659865,
                -0.008824681030194275,
                -0.0018575040334642434,
                0.0009178971990252358,
                0.0005560176500916134,
                0.006410733527538616,
                0.0049999937309177615,
                -0.0034604899523099837,
                0.004520424846520755,
                0.0040497396105107514,
                -0.0032377138439033362,
                -0.009236337580458453,
                -0.013525247076954404,
                -0.005787213365685061,
                0.004369782635630711,
                -0.0022653854401801865,
                -0.00036809956374689534,
                0.0014571140952119015,
                0.0007731054249224602,
                0.0021549914462000545,
                0.002433639513307265,
                0.00667758855089598,
                0.005723140570517135,
                0.006092170156051554,
                -0.0057329189363112005,
                -0.005091718415862422,
                2.3111855011016658e-05,
                -0.0026303669381219892,
                0.0028439964524781796,
                0.0011075953376011706,
                0.0031359324624593743,
                0.007705580138390927,
                0.0024547047149041114,
                0.0015138049391735752,
                0.009235076420830778,
                0.0016367850294793371,
                0.005590582534104444,
                0.0026315534173555837,
                -0.003640868683131941,
                -0.006587483533767691,
                -0.008631145380100652,
                0.0007624448177719822,
                0.01026608779936812,
                0.01462906116917753,
                0.011629487521985473,
                0.007899247283558963,
                -0.0005753896355979539,
                0.001384289432245211,
                0.007093397510996373,
                0.012815188890387678,
                0.010089780197809812,
                0.0035008189514916014,
                0.006235052639987237,
                0.0034695094608088854,
                0.0056773863126121735,
                0.0032069490017517656,
                -0.003501354846701749,
                -0.003894408883613198,
                0.0035282843163173642,
                0.004093657702644367,
                0.0036809096951446185,
                0.007079808034160526,
                0.0018717731507782297,
                0.003691503990644391,
                0.006484322522935951,
                -0.00261294815225468,
                -0.0058634678410094425,
                -0.009570190937283675,
                -0.0057915072636449605,
                0.010314096352585513,
                0.01515687762721593,
                0.012373161666449771,
                0.005292094481200751,
                0.00835333808744258,
                0.0062393927189302685,
                0.013030784860077896,
                0.025096341675362677,
                0.02813321727355766,
                0.021286924081487732,
                0.026843259294075678,
                0.03375116951465112,
                0.013470265927037019,
                0.011190117246331278,
                0.010780911878821128,
                0.005845981156393385,
                -0.004278555807535848,
                -0.0023678115589841234,
                -0.010292113877580326,
                0.0020647890631558525,
                0.007347949469358801,
                0.0048222440340159566,
                0.004190416046152808,
                0.010806659794248417,
                -0.005599582949881738,
                -0.005224617650439911,
                -0.010819103151845193,
                -0.007033088810232417,
                0.013801708435674395,
                0.015979611168916573,
                0.006701712696499113,
                0.0009314781187376661,
                0.006023944729142827,
                0.00578413682732967,
                0.022506569204745464,
                0.03159287916242513,
                0.028330835584064927,
                0.03229709399813111,
                0.030845284929066713,
                0.035841473754042716,
                0.016486910781943653,
                0.0073331582415506755,
                0.002786586068472923,
                -0.0009649671405424415,
                -0.0005713426368973659,
                -0.0022297439511421865,
                -0.007147131431199022,
                -0.0041717585085778615,
                0.007554432288349806,
                0.0006028667770875738,
                0.012026166777468742,
                0.008307761301961947,
                0.004047278283166507,
                -0.003940851243450081,
                -0.01019688964477372,
                -0.007023136271964928,
                0.0025456122993849886,
                0.013060398592047256,
                0.006162706725733531,
                0.002850290993628418,
                -0.0006966771378654362,
                -3.629772061951082e-05,
                0.015084578852953412,
                0.01748930531143239,
                0.02388316926448064,
                0.026650839222462697,
                0.021833371615104156,
                0.017789522990668827,
                -0.0045523560144091575,
                0.003231817334686847,
                0.0027760182133637614,
                -0.0019545892892367466,
                -0.0028582755048644102,
                0.00617126908117605,
                0.007252764129210407,
                -0.001901195844019366,
                -0.0005624038246144191,
                0.007872878051423997,
                0.011449121226761144,
                0.001450199033258202,
                0.004346654636242574,
                -0.008362396705714729,
                -0.013185595012193558,
                -0.012901031191541412,
                -8.730246454526067e-05,
                -0.00035596091785257086,
                -0.00028585537009588445,
                -0.0005121250233836077,
                0.002667637543621745,
                0.003900976825334725,
                0.007978009573357918,
                0.020394383353284272,
                0.028531790860514914,
                0.021290204968279904,
                0.006024794183827706,
                -0.007563831955463294,
                -0.015784525988728773,
                -0.0029046093677495667,
                -0.0018657343797558886,
                0.004711464919519255,
                -0.005180053758368177,
                0.0033335376241938946,
                0.005797068970570434,
                0.0003133239054959848,
                -0.0008702762950111615,
                -0.005655256831788253,
                -0.007602423419078138,
                -0.007371078159519144,
                -0.005008506235297534,
                -0.011176714200842883,
                -0.017341103192966854,
                -0.016860842008875693,
                -0.004418523660774256,
                0.0015964183628882937,
                -0.006716585192653952,
                -0.003379724919678087,
                0.0014809062819701115,
                -0.005784642066603784,
                -0.0053413757116285935,
                0.0019102815603534234,
                0.020960078728223464,
                0.01432292638225356,
                0.0033759622348580073,
                -0.01463166074382238,
                -0.013733493559257848,
                -0.0025578222862390303,
                0.0018887420638610205,
                0.0028370342703563037,
                0.00404260783528242,
                0.006521145623485931,
                0.0009283679729197448,
                -0.004060930422539416,
                -0.001967010261452841,
                -0.01313276117370187,
                -0.010867774705998704,
                -0.012834594615833724,
                -0.008014869264621393,
                -0.012600681039568653,
                -0.019219626961236247,
                -0.01695847834196876,
                -0.011330049166800929,
                -0.006946772781150371,
                -0.01454869079794362,
                -0.009931111097003164,
                -0.011635755617262102,
                -0.01957341817470009,
                -0.021111532761272866,
                -0.011145009326273157,
                0.017568292374120744,
                0.021362815402549484,
                0.006595891538395922,
                0.0015882120103507468,
                -0.00037758421575804797,
                -0.0077232155380601705,
                -0.007985764199418552,
                -0.015273233004166893,
                -0.003913902839504436,
                0.005921356842595465,
                0.0013764123456943185,
                -0.006493981394312212,
                -0.007853806548233817,
                -0.013286379514986957,
                -0.014389967530194017,
                -0.009898556064741444,
                -0.003889884742219464,
                -0.014684367078184126,
                -0.01749705043833786,
                -0.011241191059461393,
                -0.01554907786530721,
                -0.0101221894900382,
                -0.0160582888721335,
                -0.011197398414738867,
                -0.027419270644373016,
                -0.02434396100540346,
                -0.020914492612991737,
                -0.005957760687204429,
                0.020861327561001723,
                0.045210257841002965,
                0.04689385690462571,
                0.027103661455921375,
                -0.0031312306240655133,
                -0.013767705570398673,
                -0.02284057996711679,
                -0.012417282227312499,
                -0.005721304911190259,
                0.004565068242009957,
                -0.0012469499984215223,
                -0.009848250742957743,
                -0.010406334443983941,
                -0.011516330724113023,
                -0.014664333037324482,
                -0.00918788726337266,
                -0.010376742040062184,
                -0.013920973764639003,
                -0.01652644460218556,
                -0.007416863350851276,
                -0.00953302006694925,
                -0.006074621254240299,
                -0.009415107234245351,
                -0.005813736573598269,
                -0.022717035335730783,
                -0.020269000782706242,
                -0.022880447189513525,
                -0.017677956155660313,
                0.016041203325641785,
                0.04211982061831269,
                0.04606688912270489,
                0.03794615992997761,
                0.011920692566841274,
                -0.008297443477504612,
                -0.01590733376189555,
                -0.004217085875596406,
                0.007288948417886802,
                0.011965208999037623,
                0.006501912323755277,
                -0.004877545383630596,
                -0.011537698315856399,
                -0.009314634990121924,
                -0.000647310365040831,
                -0.005696138734877697,
                -0.005721453542526303,
                -0.015296351984837574,
                -0.013119886472804258,
                -0.0022013956061123024,
                -0.0011090528215424679,
                -0.0014756753773401596,
                -0.0031714367433977792,
                -0.0059962961533351275,
                -0.010922542306549366,
                -0.009295726241541308,
                -0.02814952305485827,
                -0.018424272382887737,
                0.00019190404347493525,
                0.019137594890785266,
                0.03799718986581531,
                0.041568166654133265,
                0.02017828470406153,
                0.006756918197559595,
                -0.006781046063899268,
                0.008034343696829371,
                0.014949115719802975,
                0.02680362164935204,
                0.01894322877191251,
                0.004448753814044804,
                -0.001549421751940689,
                0.010206327928274752,
                0.020364267053780714,
                0.005895301338810945,
                -0.000742468030820868,
                -0.011277650777986684,
                -0.005135401189754759,
                0.01014203442861047,
                0.0012664732994441678,
                -0.010332413047566871,
                -0.008335313189697807,
                -0.010650878920835194,
                -0.014586364335512962,
                -0.015757454492298543,
                -0.031108254623468626,
                -0.022495730059548084,
                -0.013192251200153379,
                0.025104597463508276,
                0.05650197879863949,
                0.057722516541769214,
                0.046628953523943514,
                0.039587616510591075,
                0.02973435584268573,
                0.018289962968294857,
                0.03357706423371242,
                0.027628190448681117,
                0.023277073620263242,
                0.011030001746624161,
                0.0147270421593477,
                0.016253849039447925,
                0.02722485435261967,
                0.016465802901431188,
                -0.0011279465482209898,
                -0.008699233830441163,
                -0.002025599702066806,
                0.004028793484627985,
                0.0026568337512004377,
                -0.00761962739298175,
                -0.008629106253245459,
                -0.01674214710323605,
                -0.016081057942628055,
                -0.03677337400474758,
                -0.04894601091140967,
                -0.02954646408605042,
                -0.025422570987493877,
                0.015465904372116613,
                0.06074718654882499,
                0.07026559638387356,
                0.06351977582666155,
                0.05268790189843209,
                0.03232080250622278,
                0.04124385727677314,
                0.04669725425353593,
                0.043510423005981035,
                0.029256440948746028,
                0.017954761783682265,
                0.017975611350983862,
                0.026134585576324428,
                0.0298237521003475,
                0.015013160123016846,
                -0.00738937213361015,
                -0.009247264781245957,
                -0.007611765198874854,
                0.0004400313837607268,
                -0.0006278570397857022,
                -0.0037821183740156636,
                -0.0033162870292980495,
                -0.011108183018274476,
                -0.024303320541200078,
                -0.05202909850703799,
                -0.05974958447953477,
                -0.04775415478849448,
                -0.04978271349242421,
                -0.022463387038776365,
                0.02988977233930557,
                0.06014223306869251,
                0.054090988630036106,
                0.03840813506570645,
                0.0403038133059779,
                0.056011094254094486,
                0.044863124892821585,
                0.030148105688718802,
                0.01027276177562482,
                0.02372586039255552,
                0.03369029713068328,
                0.03669290943931859,
                0.024832043751277372,
                0.013220315895205406,
                -0.01746134891670172,
                -0.006725682104201967,
                -0.01011471943159744,
                -0.0013047557172410089,
                -0.011071618585138861,
                -0.010839973440119801,
                -0.004807645777111085,
                -0.013384526446082488,
                -0.03328203952643182,
                -0.04220014530482095,
                -0.04398883871997158,
                -0.04931203374538418,
                -0.05735999789330419,
                -0.03747263623340349,
                0.002559834702619126,
                0.021852044796107157,
                0.034457097915941245,
                0.03957300775319026,
                0.05391899736089318,
                0.05413143982311245,
                0.04197752060378625,
                0.02784707577854872,
                0.023139018226608986,
                0.0409557505585426,
                0.04233171923773061,
                0.03835565947668027,
                0.026082728354693656,
                0.004186080579608493,
                -0.02206810613762419,
                -0.00937025716127792,
                -0.006077973357712889,
                -0.0016005921014700599,
                -0.011317692710498919,
                -0.007388317607600097,
                -0.00976050742909536,
                -0.013945135737409697,
                -0.025239923697274413,
                -0.029211453821124993,
                -0.03295317125893701,
                -0.04526180086568764,
                -0.03963164571226434,
                -0.025327661168599885,
                -0.014771204443075742,
                0.017301122764914724,
                0.040870536293351564,
                0.0471469498009392,
                0.0599348474020923,
                0.06039044938561641,
                0.058809079992754025,
                0.03895475015019911,
                0.03059869085234361,
                0.03952222952338667,
                0.04007809944633125,
                0.0316061052582691,
                0.026374902975303722,
                0.009121062133959966,
                -0.019605419329357415,
                -0.00932141335399013,
                -0.010456199140882505,
                -0.004913451380641224,
                -0.0029394903968567115,
                -0.005315402206911495,
                -0.0017266078170295163,
                -0.004490007599564757,
                -0.010644796403568227,
                -0.015864033296321245,
                -0.03173805329077352,
                -0.031137444558353933,
                -0.022089425267776217,
                -0.008706898307927275,
                -0.005744944518388201,
                0.022720952573849193,
                0.05643007537194806,
                0.06686246018875629,
                0.08338936593780547,
                0.07395778708220992,
                0.05525390190283474,
                0.043098893315374566,
                0.028980703115664773,
                0.02773486395960128,
                0.027284118224458417,
                0.02047429316716935,
                0.013252400379111257,
                0.008232181024688963,
                -0.014916072560576487,
                -0.00642256502631749,
                -0.007821929807354633,
                -0.008461792011035548,
                -0.0033474152133430458,
                -0.005084358246298284,
                -0.004456381206483913,
                -0.003292624705425593,
                -0.009718973670053772,
                -0.016183832593170806,
                -0.017703347682110925,
                -0.01683002194730515,
                -0.016750144034273377,
                -0.020024954556106103,
                -0.009433390042979868,
                0.019874254905003004,
                0.05195802524094133,
                0.05472507249710986,
                0.06396859975752281,
                0.05435974646797291,
                0.04773659844343647,
                0.0383310823292322,
                0.02781999170546416,
                0.025892073141606922,
                0.01350150243072569,
                0.011766364911438634,
                0.013476067528219974,
                0.003604806661552787,
                -0.008609513976092208,
                -0.01165631307429652,
                -0.012891016952892027,
                -0.009693540189513315,
                -0.01047437355370862,
                -0.009136217369443304,
                -0.016898682083646147,
                -0.015651066813448612,
                -0.018207626013964112,
                -0.024536329782722226,
                -0.019943026754906057,
                -0.017921128155765412,
                -0.020840801513908356,
                -0.023639204159611054,
                -0.014104438071067782,
                -0.005559739704689079,
                0.02040756736335167,
                0.032193849209218244,
                0.0332068973213243,
                0.0317610982732574,
                0.02880251237071758,
                0.011218362740453552,
                0.005306660259319292,
                0.007953308702796634,
                0.00488573108515106,
                0.006557390496465331,
                0.006948036689815444,
                0.006848604338418076,
                -0.0031630154708355033,
                -0.010515244498670775,
                -0.013947622674289362,
                -0.012492173081502939,
                -0.014222270482849006,
                -0.01862468359386259,
                -0.023313259415132858,
                -0.031241885800606443,
                -0.02476564963832805,
                -0.02305213641776097,
                -0.02753659330619873,
                -0.02656146861089677,
                -0.038643259522046905,
                -0.028883140058571663,
                -0.03142288370062488,
                -0.009797615541174986,
                -0.00355324502990928,
                0.006379698798244855,
                0.00777387225465673,
                0.007388827311385704,
                0.004975113798806957,
                5.5920204818069555e-05,
                0.004248128148476988,
                0.00421217769842207,
                0.005074021246880607,
                -0.0020570007421879363,
                0.0023005621734325517,
                0.007651112451319996,
                0.001143274441615809,
                -0.0038529893817982105,
                -0.014988944896461612,
                -0.017377225342068148,
                -0.02010718654596083,
                -0.026327803719076497,
                -0.03203640830121554,
                -0.03555454003430566,
                -0.03255346995710064,
                -0.025730774819045704,
                -0.028096123822525364,
                -0.028421759945032737,
                -0.02630047653753675,
                -0.023027050654555885,
                -0.01979629597459216,
                -0.009306459047279822,
                0.0025474717885462183,
                0.005339208775980494,
                0.0001640016519899969,
                0.006282405656237889,
                0.00964769954193528,
                0.008263746899270803,
                0.011029966700983645,
                0.008125415088638644,
                0.0003215097652033166,
                0.0033028713209438507,
                0.0064023043087557225,
                0.007056534113210802,
                -0.0008288381209113176,
                -0.003950142983373328,
                -0.007079778415851733,
                -0.017234836135628318,
                -0.023180982400125796,
                -0.029250417589802694,
                -0.03267575236009715,
                -0.0345913540194362,
                -0.03262589662777621,
                -0.02988946416801575,
                -0.027574928779828266,
                -0.024299018292578824,
                -0.017995992217431922,
                -0.019735214815094628,
                -0.014597464624491352,
                -0.00934449107006216,
                -0.0009646417183791614,
                0.0044200685293002105,
                0.004762879479281623,
                0.01549899779659656,
                0.015197418719171766,
                0.01510153004689519,
                0.018334468949341612,
                0.008030932972429934,
                0.0009350529410686958,
                0.011537408611263506,
                0.005758473637726952,
                0.003014667095445451,
                -0.00319527336404834,
                0.00041140643239195136,
                -0.0033126907534788957,
                -0.007676648072878707,
                -0.017339523734029548,
                -0.02381584582414906,
                -0.02959373307653737,
                -0.033927460525484975,
                -0.03980353762292607,
                -0.04019412851989984,
                -0.043713597235525654,
                -0.038799147305049485,
                -0.02587705543950929,
                -0.017612626498914676,
                -0.010908903275413984,
                -0.010693264897300185,
                -0.005007293440190598,
                0.0032075115756553725,
                0.01390024333440688,
                0.01677457521512685,
                0.017749180213159833,
                0.015221016770502312,
                0.018453817067872136,
                0.01300568103221481,
                0.01171649041075706,
                0.009738949596153602,
                0.006804680364216236,
                0.002452262734165019,
                0.0008018026548022481,
                0.0007612685622186202,
                -0.0006231340642764322,
                -0.0017716030943473416,
                -0.0045869014348750205,
                -0.009509326444488035,
                -0.015370691303950525,
                -0.016541682298895764,
                -0.022357661758347042,
                -0.02541796247803705,
                -0.022096738439151112,
                -0.023181215656076906,
                -0.023765250907166285,
                -0.017200754281077823,
                -0.00896955059679746,
                -0.008658024805716483,
                -0.0015593085108808196,
                0.0008148825544864667,
                0.0033112739104349176,
                0.008541024666913224,
                0.012288908567345774,
                0.009992120267096151,
                0.010107829498254983,
                0.01138310354893077,
                0.011462762792521747,
                0.0038392976239302,
                0.001383850288654139,
                0.00010411761755380572,
                0.0015331325626133695
            ],
            [
                0.006415776706678061,
                0.010223819617241111,
                0.01541953731238423,
                0.01958143608139617,
                0.019932197276056225,
                0.009492578801123933,
                0.007921542902061703,
                0.002235910759930616,
                -0.005446190141334876,
                -0.0015106857716989542,
                0.0007163181268827633,
                -0.004594889616319941,
                0.0012755421657151805,
                0.008502005464714966,
                0.006692296521108934,
                0.0037473716485605366,
                0.006938003732225207,
                0.010643106255516174,
                0.005521414317486883,
                0.0036464505285043994,
                0.006126971060123824,
                0.00772915432608016,
                0.011814011564313902,
                0.012497376041544243,
                0.013772792386861833,
                0.006441275045139897,
                0.005805009903302167,
                -0.001996477471979605,
                0.008590083017496478,
                0.02873074089436016,
                0.035518337414552965,
                0.0335778550878068,
                0.02487743346222549,
                0.028472358539095393,
                0.025765981122321917,
                0.03199684176510632,
                0.03320466946422979,
                0.03202448725516651,
                0.029333582854943842,
                0.033754208347671955,
                0.04231360598040866,
                0.0394931322405372,
                0.034072593639347934,
                0.03324715643010685,
                0.0360156713486717,
                0.037853374238757787,
                0.030099629461809527,
                0.03347435652101339,
                0.03322281064655214,
                0.037894757454923086,
                0.041672338220461756,
                0.04112316824027192,
                0.03336931000428555,
                0.024361328808594807,
                0.030172779562022765,
                0.020052288999927444,
                0.011879863118620429,
                0.0453754638787812,
                0.040934808197058345,
                0.04647982569695133,
                0.05905984328932069,
                0.06134904988273536,
                0.054191191570276284,
                0.05721511708681171,
                0.07105315720212871,
                0.06890885160173459,
                0.06605648972316952,
                0.061323414265723276,
                0.06197383528705053,
                0.06226101517565639,
                0.07009200331297617,
                0.07296426125994412,
                0.06372555054779828,
                0.056613276241709184,
                0.052678632783130556,
                0.04505893721277789,
                0.05155707719724775,
                0.0496493870709949,
                0.048397852190964256,
                0.052519621444366414,
                0.049528568480913915,
                0.04091144634422266,
                0.03882947806759365,
                0.03754215544548774,
                0.019693185390241154,
                0.03826491072051558,
                0.04778350363711871,
                0.05978917263034504,
                0.08103553604144605,
                0.08092266790190196,
                0.08102036804598035,
                0.08504296876448851,
                0.09902128488392768,
                0.11025159575083221,
                0.10366259602497285,
                0.08258873859796542,
                0.09374783308498498,
                0.09930147264603989,
                0.10384229494197036,
                0.08837491279442275,
                0.07240900257452022,
                0.06792733887505012,
                0.05410039433539185,
                0.04850515111760184,
                0.052375565300709276,
                0.042603865221809284,
                0.043305355273394776,
                0.0362418014035548,
                0.03099134924700739,
                0.030078122011315545,
                0.03976413100888857,
                0.04316089903965532,
                0.016103462958106284,
                0.03619709140641139,
                0.046032106571977136,
                0.05509553557196687,
                0.0657887327783311,
                0.07848543804926446,
                0.08625813114996979,
                0.09308053157944421,
                0.10988852353792856,
                0.10406014142632197,
                0.0905265586854772,
                0.07585644321340604,
                0.08696596162597452,
                0.0832591436281831,
                0.09066973443821949,
                0.07411418241194757,
                0.061971059636652115,
                0.06161418560444345,
                0.059267278676025326,
                0.03649811849551101,
                0.03298104901316881,
                0.03291985416120644,
                0.025061425982288048,
                0.025489790333110992,
                0.01575998539818321,
                0.020925760024942803,
                0.03071172492561862,
                0.047422962520750254,
                0.007435536497598915,
                0.012959864377060145,
                0.019432510656135875,
                0.028564624811652565,
                0.02683723365019491,
                0.03902952659689767,
                0.04321628344012755,
                0.04967128558824575,
                0.07799988511812973,
                0.07398121921648862,
                0.06551756957566919,
                0.05339186054981377,
                0.055418483168449426,
                0.048616770381057356,
                0.0508590722141349,
                0.03181283416681658,
                0.04804066666812837,
                0.03986271200645814,
                0.03777799142346874,
                0.025065599358341455,
                0.019634522970198468,
                0.01821918032787215,
                0.02011822109576684,
                0.03158140273625154,
                0.031983205781019014,
                0.014547166809766756,
                0.021692739469156626,
