{
    "1": {
        "biases": [
            -0.0779685540276333,
            -0.02939906400361852,
            0.0389252979909262,
            0.0856979773483905,
            -0.04693386416673818,
            0.015419180947701415,
            0.03591561547732544,
            0.12643004716369532,
            0.11830395054188546,
            0.04826907171926836,
            0.17697995778540188,
            0.0026580796825270655,
            0.12313418783938793,
            0.042716126938653246,
            0.08913436427726275,
            0.1068055046674973,
            0.11251693429166434,
            -0.04584893462047491,
            -0.0053851259615220635,
            0.06481523579423865,
            -0.009188210683809242,
            0.12560236143067094,
            0.07799483908681062,
            0.11197757886088491,
            0.004223887657005579,
            0.1263874535479548,
            0.016870670892809993,
            0.062097682752456314,
            0.008690858554680882,
            0.17062468653872298,
            0.09237522089271005,
            0.041030618040102274,
            0.06699481709741463,
            0.12725889183092046,
            -0.03161814423589284,
            0.06419607959631297,
            0.09749588980222398,
            -0.001815416577241953,
            0.036926672731766225,
            0.10936168165118448,
            0.03178895848305166,
            0.0734340785412732,
            0.007023989729164982,
            0.06653300243885982,
            0.00014055033145611196,
            0.13701664647270453,
            -0.028685919717765816,
            0.021640146329242126,
            -0.061892805671054776,
            0.1013063997963376,
            -0.20415040861236108,
            -0.04465188802221251,
            0.11555763563813577,
            0.11484310625012663,
            0.12130087315360659,
            -0.12336880035856543,
            0.008180783674727653,
            0.16371281650900416,
            0.1330304750066457,
            0.09063337973771311,
            0.03717354745997975,
            0.07022770392519352,
            0.005644483442016546,
            0.09999536952864949,
            0.01860229191843336,
            0.1920003049539419,
            0.06324031219517787,
            0.08068965129413097,
            0.019190126423256078,
            -0.005624452024737474,
            0.15440142295024215,
            -0.014487171276395613,
            0.060737964752722966,
            0.019712854563222453,
            0.15151973498323282,
            0.13050207547676518,
            0.01925111630023923,
            0.08532838147006175,
            -0.021793237928033317,
            -0.029153240052654177,
            0.05102732580680268,
            0.046317327644916806,
            -0.05184817403618635,
            0.012443248664758457,
            -0.0359679345235238,
            0.13702312804516592,
            -0.02889088318976215,
            0.09098585191840003,
            -0.01860706707425383,
            -0.019389142432046282,
            -0.01760330835990705,
            -0.05103250215715541,
            -0.02570887663539383,
            -0.050475934111659855,
            0.11497539231310229,
            0.0376745639047241,
            0.049546791487912134,
            -0.014762055661341715,
            0.10068123948619688,
            0.13231372869394278
        ],
        "weights": [
            [
                0.0010755934638107438,
                0.0005048820515511693,
                0.0010025097836974326,
                0.0010221488171238751,
                0.0011670748327740283,
                0.000252901770926148,
                0.0004291462462562542,
                0.000983473947564859,
                0.0003556022746483549,
                0.0007091825450851803,
                0.0006111552670210046,
                0.0008050694415590731,
                0.0005617855629773902,
                0.0007181265003947749,
                0.001055791453718845,
                0.0011660952221370926,
                0.0008138269168907544,
                0.0009182708496644612,
                0.00018127708830996175,
                0.0007770308262176419,
                2.0867703654228894e-05,
                0.0003109393503396516,
                0.00017568143880911132,
                0.0010294928656232809,
                0.00020057780050417026,
                0.0005132819261666739,
                0.00016615543571140253,
                0.00013929510498002587,
                0.0012788055103250984,
                0.0002794086321316,
                0.0006566469843983277,
                0.001074216650173663,
                0.000785985037916235,
                0.0003957501194722411,
                0.0016817118147232077,
                0.0024948094940593895,
                0.002532075590776996,
                0.0026048036816606816,
                0.0033306891202635413,
                0.0038132939969783386,
                0.0035395947310876883,
                0.003938244669003908,
                0.0006212630110189401,
                0.0012046495486623611,
                0.00025103973264942176,
                0.0023494647264597534,
                0.004077588613042444,
                0.004249195749074357,
                0.002604729831440361,
                0.0027838289151131982,
                0.0013218924592913789,
                0.0003033274153676272,
                0.0002460687679482662,
                0.0008490513883361792,
                0.0011396600414672496,
                0.00044664656845243457,
                8.215099054067186e-05,
                2.563315321646869e-05,
                0.0005836609132022119,
                9.600998956070701e-05,
                0.0004210352386160039,
                0.0012363730593923582,
                0.00211088663007001,
                0.004624596465732356,
                0.005173410573959986,
                0.0049315198111338,
                0.00883833122744934,
                0.01200275655076294,
                0.011727754399502393,
                0.012389827022580473,
                0.006343074050820501,
                0.0026690072350963314,
                0.005371502149074702,
                0.012845142632903562,
                0.01777235316549638,
                0.016637001168256463,
                0.011299502282326238,
                0.010701055910462958,
                0.008298521501750696,
                0.0031080953843514044,
                0.000837237168825854,
                -0.00027493275255176426,
                0.0005634140366718562,
                0.0011266567606934385,
                0.0010615285821964522,
                0.0004228917541769241,
                0.00013671658539051156,
                0.0012913265429117821,
                0.0008000588440841843,
                0.0017501992432402864,
                0.003998192657357175,
                0.0086053389781824,
                0.010366073081736439,
                0.008225238880233462,
                0.0108343240997225,
                0.01918051941204415,
                0.01843784462884033,
                0.01668528724031316,
                0.01568033112870142,
                0.017445371056323586,
                0.014810472651943634,
                0.016645647293628288,
                0.02651237350510116,
                0.022637883519965693,
                0.02097827998511626,
                0.01811633761249852,
                0.013839174772446875,
                0.012826746216700022,
                0.005904551078754472,
                -0.0006888131847305359,
                0.001208019740465998,
                0.00039360213514282917,
                0.0005722844860477354,
                0.00028994620077585766,
                -0.00017473117971011736,
                0.0007935753131975128,
                0.0031823809144056843,
                0.0054487665733829425,
                0.008604439040826297,
                0.010874329665927144,
                0.019224856869313852,
                0.012487280976110062,
                0.0070978925926211455,
                0.0037104760223072427,
                0.007511411012009974,
                0.011971293721694023,
                0.009825659296961674,
                0.01299120353030788,
                0.013548505918866794,
                0.013663332260065036,
                0.011846997379008177,
                0.01868753641159791,
                0.016552851476822752,
                0.012222824394669537,
                0.005109534599053223,
                0.0019168057904485846,
                0.0009963942587084796,
                0.0005949067084993974,
                0.00023760348097016075,
                0.0011781448615292844,
                9.541173329052503e-05,
                0.0012163063867265287,
                3.075464464647858e-05,
                0.0009048341296454709,
                0.0059132777156360745,
                0.013755731851391824,
                0.02028074383245059,
                0.018304382507061852,
                0.025319312521678818,
                0.025808293031811935,
                -0.0006460246606774764,
                -0.013734922771705875,
                0.0010504848195028226,
                -0.0013210511338095701,
                -0.0031496274666443897,
                -0.018950302162146975,
                -0.024292740816473934,
                -0.010165460977743433,
                -0.0011139835792011543,
                0.02110115988683387,
                0.009353423735689717,
                -0.005130315096871251,
                -0.019752762537774034,
                -0.00385140283396831,
                0.0005488502775162315,
                0.00011245068447373882,
                -0.00029702874825195434,
                0.0001408316638322437,
                0.0012773646411823206,
                6.913562237297697e-05,
                0.00209125539496888,
                0.0038155583171373066,
                0.01152104582789249,
                0.014205913261462375,
                0.01903903719787774,
                0.022564636217033914,
                0.03261399461141356,
                0.024585776950910885,
                0.00911233836002888,
                0.009991785928749554,
                0.009557923188052531,
                -0.00029393512658617275,
                -0.007151930946814273,
                0.022344783540235266,
                0.013302748886406215,
                0.03397707076893458,
                0.037600936440536165,
                0.03990190962053699,
                0.02397925343270532,
                0.013290765593715528,
                -0.01841158223472037,
                -0.00546485026891898,
                -0.0005325190665984243,
                -0.0003986488574829697,
                -0.005363457476240333,
                0.0007719727424998462,
                0.0010588003928347744,
                0.0013957264531278507,
                0.002272984457701021,
                0.007193558907774901,
                0.01311327757537729,
                0.011462927127530293,
                0.019129043942553523,
                0.023436449573083783,
                0.021689514734676403,
                0.014164551496713779,
                0.008431673903479979,
                -0.01420201211691707,
                -0.008250138139648774,
                -0.01815178929400631,
                -0.017697190198790614,
                0.017925735119103066,
                0.00838098550614375,
                0.031547848459342276,
                0.04677906139849848,
                0.02446355606878902,
                0.012787860919510941,
                -0.00502469832375736,
                -0.013204636695279156,
                0.0076636867163222735,
                0.012105013313724286,
                -0.0009282688478501557,
                -0.0019694927224756776,
                0.0008575034078943183,
                0.00017487926763074972,
                0.00200181897316624,
                0.004228383223337475,
                0.006427337675505489,
                0.015866275204220254,
                0.010743312300420341,
                0.01547218576612915,
                0.027661848941032866,
                0.019904603386365495,
                0.0069639567828795705,
                -0.003825752550675115,
                -0.00837054929409178,
                -0.006452186670154237,
                -0.012235979904723665,
                -0.010511303467497738,
                0.007991370001466875,
                0.011604725194922167,
                0.011672451471057322,
                0.024448082574692897,
                0.007221816097333584,
                0.005002738412870341,
                -0.0005183896866996734,
                0.006347160107194121,
                0.0032634607122613603,
                0.006773116340815008,
                -0.0008346764207176695,
                -0.0005719572978858052,
                0.0009354344952960903,
                0.0006869997186624873,
                0.0024535615756879608,
                0.004031281379283267,
                0.00986400655718671,
                0.018452415273825358,
                0.014276195739093488,
                0.017836302120541495,
                0.012778631372142652,
                0.011744787776122366,
                0.01465469047249284,
                -0.008961359349536695,
                -0.017359697418357533,
                -0.0019536300086245785,
                -0.005033682381937171,
                0.0006529480116368408,
                -0.011166859858178186,
                -0.030212699171443206,
                -0.009972414024513902,
                -0.009011259680764824,
                0.016942574862838546,
                0.020289398124812612,
                0.013184742598236166,
                0.012180178821405409,
                0.010218773143493958,
                -0.0027097507230192026,
                -0.008898695700590943,
                -0.0021189077479905503,
                -0.000380288637406321,
                0.001567722114890531,
                0.0017623549359896404,
                0.004562688702782039,
                0.008683875629621581,
                0.017001231640051816,
                0.007822189056039973,
                0.0019282643500397048,
                0.006337981556444355,
                0.005158906211404669,
                0.00082441275602164,
                -0.006605062408291886,
                -0.005146472311326266,
                -0.0022755550212913878,
                0.013691581808511686,
                0.008548791324068317,
                -0.024122675853412337,
                -0.03379221398979716,
                -0.025992486069058792,
                0.009973028519316926,
                0.03407835691250767,
                0.03198499690889599,
                0.023457841199835253,
                0.01688937416144821,
                0.010976235778611775,
                -0.01599252434072845,
                -0.026451464992030257,
                -0.006086692156338481,
                -1.3088194074502914e-05,
                0.0012474250313876088,
                0.0031640284034957604,
                0.005881707366041027,
                0.012058991464428258,
                0.013933313071687973,
                0.004776516624564547,
                -0.0018507891974170081,
                0.01391585787632088,
                0.010563325834495164,
                0.001869692667806869,
                0.007098602572013949,
                0.013832748539759456,
                0.03051009143455962,
                0.03977646019061058,
                0.02988232042104204,
                -0.009501882282750458,
                -0.021956533116712577,
                0.0037983660378701897,
                0.006319002143318905,
                0.020429456622893635,
                0.0337890592836009,
                0.022179521018189485,
                0.028491715454041115,
                0.025907241820068514,
                0.007064205093239585,
                -0.011362107786773917,
                -0.0021359231569393826,
                0.0004979213609474681,
                0.0005595534772727136,
                0.002844838618577082,
                0.0063786010750558255,
                0.014261636193099581,
                0.013017554564196428,
                0.01478073943120244,
                0.004588896897530012,
                0.00933987791258889,
                -0.013020223101286999,
                -0.0042046095231121836,
                -0.010197477719712317,
                0.00783451491203657,
                -0.0033402433052100397,
                0.0018713635402501645,
                0.00815138538496531,
                0.010188330150223213,
                0.034132088927631844,
                0.03698409540979346,
                0.025811644281034676,
                0.010665538720770496,
                0.0031731348702718175,
                0.014896931133954447,
                0.03581333669369409,
                0.04977219153271519,
                0.025951981751497655,
                0.0004698679057685146,
                -0.0029594988325140396,
                0.0005454841160496801,
                0.00030500285067014155,
                0.0018842688343447226,
                0.005035953202055156,
                0.00888040190683766,
                0.00885849765996193,
                0.007147016216773464,
                0.0011945682490337758,
                -0.011754409725644116,
                -0.020945502559261437,
                -0.020802214249140173,
                -0.007779525389303059,
                0.007802848527076282,
                -0.03197355714478986,
                -0.0027155487909863185,
                -0.02142125025347041,
                0.04161750608013233,
                0.035838471249463565,
                0.01899537534989987,
                0.015468209988783328,
                0.015518674593702372,
                0.005312397028468869,
                0.0019643133274113342,
                0.008675842791816454,
                0.027120534862846827,
                0.011076651575172316,
                -0.006220188726789541,
                -0.0063628316016352705,
                -0.00031646627069422827,
                0.0008307726910044778,
                0.0012677650764659303,
                0.0028120196158751757,
                0.004735182054217389,
                -0.0012299900632573714,
                0.0020745157269209877,
                -0.00931320571159752,
                -0.019147200301390523,
                -0.01463519207366395,
                -0.008853586224652675,
                0.00979365795394122,
                0.012572913088863675,
                -0.01743722712377915,
                0.014060692640897036,
                -0.008326796399684708,
                0.04152910186798801,
                0.0035353644508416275,
                0.03048943618113377,
                0.026249772126694975,
                0.03918337098907543,
                0.021872961601324122,
                0.01192179476913815,
                0.004117877713915147,
                0.004612253031573813,
                -0.005608895557704763,
                -0.0038150736746191787,
                -0.007722865144330334,
                5.257595251774268e-05,
                0.0005552569708139841,
                0.0008149706705354565,
                0.0021693112553862206,
                0.0005415351626902918,
                -0.005790598931295496,
                -0.0031598180253081024,
                0.0056765739890479614,
                0.002923299659695636,
                0.0038765357317518522,
                0.00304912217030669,
                0.010126990103534286,
                0.005627273323841945,
                0.0035591591909133425,
                0.02451675310821735,
                0.022073176866712507,
                0.03517472280217504,
                -0.024216014687161593,
                0.025076343711733607,
                0.03469443114732714,
                0.036658361097119306,
                0.03327511790735113,
                0.01890068844511999,
                0.018466290094454604,
                -0.00429947856483359,
                -0.012858584723603298,
                -0.005500413008968166,
                -0.009661745759071238,
                -0.0007616365609038322,
                0.0007145962915380426,
                0.00046142207248804726,
                0.0013217972043664725,
                -0.0044934348964366195,
                -0.002086273608426337,
                -0.0025553651537010224,
                0.003103727784280324,
                0.01917373636505343,
                0.027211447207146147,
                0.022796971193972337,
                0.014085000649720429,
                0.012436669313825382,
                0.02254710750488514,
                0.030693787674650266,
                0.027946012719920352,
                0.014288795618560259,
                -0.020146680739669465,
                0.013258067263194938,
                0.035436541771808494,
                0.03122532461022048,
                0.017314480727210858,
                0.00913830690727955,
                0.0030372848576200677,
                -0.005066452373552558,
                -0.00858405563040597,
                -0.009261988569330177,
                -0.01064593935666467,
                -0.00126237895693416,
                0.0001957088994998947,
                0.0001494676728312471,
                -0.00018803434897702353,
                -0.0003229715117345418,
                -0.013455885839386998,
                -0.008966269514190519,
                -0.020211974957305454,
                0.01289964933346942,
                0.01952340866773124,
                0.020901321096695322,
                0.0021138292645186915,
                0.005200839292965055,
                0.016227328203584766,
                0.0251599960688791,
                0.013557681434191069,
                -0.019950109690790956,
                -0.005295977364786025,
                0.017617531361710195,
                0.009863582322860115,
                0.013979195256538861,
                0.009721582597358037,
                0.0005960862313341014,
                0.005508064910458115,
                0.004511112087290501,
                -0.002180079739128641,
                -0.007041375819498234,
                -0.005844570785448214,
                -0.0012273202770458275,
                0.0007391703814740374,
                0.0008818181244234957,
                0.0028336714151950943,
                0.002023557643818363,
                -0.01707057673150628,
                -0.007438041476237104,
                -0.008961602743816775,
                -0.005807624869338475,
                0.005031245446026777,
                0.0085228655535509,
                0.0029659735634559956,
                0.010810486406811025,
                0.012011512005294394,
                0.019441451891868966,
                -0.024305576171072183,
                -0.014399941142410248,
                -0.009525781977683435,
                0.010074368907074709,
                0.010690303558441942,
                -0.0009309312594523202,
                0.0001264162485953023,
                -0.00308242384390278,
                0.008542291686800579,
                -0.004112432141189653,
                -0.009179477479570514,
                -0.001436894363197993,
                -0.003830942963582636,
                -0.0014335380704732414,
                0.0006024242883529313,
                0.0007136899255876037,
                0.002986832071346688,
                0.004656606513869149,
                -0.008906606775666149,
                0.0018854795415380573,
                -0.007125546951667643,
                -0.009605752360095324,
                -0.006153919225622421,
                -0.00835981801455276,
                0.005037699861786304,
                -0.015959886677195098,
                0.017324927080920708,
                -0.01930298701146742,
                -0.018710557192451707,
                -0.01925503814277199,
                -0.003038612888294829,
                0.011776160045921929,
                -0.004952455272662634,
                0.0006180208942866072,
                0.0022574898903872874,
                -0.009382819467686834,
                0.0029243542651796847,
                -0.005377943488040652,
                -0.009414282325025806,
                -0.00372232341640432,
                -0.005011652380712523,
                -0.00047763728250433145,
                0.00031624668985554694,
                0.0005985744577856919,
                0.00042749287207944335,
                0.0004597722851361046,
                -0.010888216328860256,
                -0.016113592501979603,
                -0.009402424539437564,
                0.003462382905652677,
                -0.010727125498930836,
                -0.012020446430849326,
                -0.0006626110099244724,
                -0.033823772927019664,
                -0.004653031403384092,
                0.004201465178303374,
                0.008308156759340763,
                0.007500568437006307,
                -0.013271447794116185,
                -0.004728696049542275,
                -0.016467806464792234,
                -0.007844047716922348,
                0.005319670507450486,
                0.0017093873608671735,
                -0.0035670402369132087,
                -0.01245547009371547,
                -0.007560152162765161,
                -0.0011506144096053866,
                -0.002262116010002854,
                0.0006813479112138289,
                0.00028346027168941486,
                0.0005006443072159225,
                0.0016572303598457272,
                -0.0004460005041641964,
                -0.012523393747326994,
                -0.014321501608594906,
                -0.0045909673716547075,
                0.012832062972820798,
                0.00221201966755528,
                -0.0037442804975434613,
                -0.004613786967216608,
                -0.011001823005750595,
                0.007178390152765112,
                0.015366537598749916,
                0.010636770190073051,
                0.007372555628618882,
                0.008235606276305641,
                0.015106110374564828,
                -0.007443653108059494,
                -0.004350409153992206,
                0.00782163661430124,
                -0.008242583373752138,
                -0.012815091123156193,
                -0.01715217378180741,
                -0.0039113554046661236,
                -0.0031598692064705703,
                0.00044993851737806974,
                0.00013980326944981335,
                0.000481054304572782,
                0.0002561241151187428,
                0.0004083148762813563,
                -0.001619240600572122,
                -0.009329380320024692,
                -0.007675743252256238,
                0.003377763857683901,
                0.014611060009719698,
                0.003297152630478075,
                -0.004091403793830723,
                -0.00012759950706851301,
                -0.02013885943202391,
                -0.0008259510382332446,
                0.002986149042649744,
                -0.0025390029491150577,
                0.015283803812063283,
                0.01316130186009242,
                0.0016596473301644457,
                -0.021624130169246074,
                -0.007503307422486264,
                -0.00011338173634735377,
                -0.008094818825702062,
                -0.010440759866433441,
                -0.007806582380631347,
                -0.003328698231644492,
                -0.0015460802046927862,
                0.0007908775809721274,
                0.00046723077217056773,
                0.0011514360284805277,
                0.0009571126437508845,
                -4.397980281676862e-05,
                0.0007213511820443016,
                0.0006893698382528318,
                -0.003852240874450787,
                0.008898239132655384,
                0.021155934923382063,
                0.0015907155048064136,
                0.00543985356326238,
                -0.003840216369566943,
                -0.01606027839383346,
                -0.012695469574738485,
                0.0019162575738599036,
                -0.0034735712019864098,
                0.005003103128245456,
                0.002885601020094017,
                -0.0008224785517776403,
                -0.0020980868316324555,
                -0.003122110695331955,
                0.0037863203330010904,
                -0.005667822873757949,
                -0.009398864017175795,
                -0.00578095346410944,
                -0.0039375477736888955,
                -0.001581961720831179,
                -0.00014429188447687982,
                9.032578265048359e-05,
                0.0005040667852989861,
                0.0006355221436596546,
                0.000624446770954477,
                0.003527654383532418,
                0.010736751757629096,
                0.017327364356235345,
                0.025847498350827145,
                0.02490461485467835,
                0.021575747822666077,
                0.012533180006016475,
                0.026942713827135832,
                0.023634664522623704,
                0.013912708471798227,
                0.008053505904479424,
                -0.006118996923263008,
                0.009005359613936486,
                0.015386762813993626,
                -0.0008240189238204377,
                -0.011071434163463746,
                0.00037124261985826957,
                0.0025402664976075322,
                -0.005789512965520948,
                -0.009894722283546443,
                -0.006200658581523725,
                -0.004755471513348855,
                -0.002007436408111114,
                0.0005270969107433513,
                0.000872984151396142,
                0.0011575243882910118,
                0.00040061989055224784,
                0.0008739967189499973,
                0.0009606412601660428,
                0.005688318054006862,
                0.01042021787498579,
                0.017029898352601585,
                0.025903171432358426,
                0.03347026314651542,
                0.040278928689968005,
                0.04549266459799171,
                0.045761438286954455,
                0.04166651059418995,
                0.02581925747921717,
                0.02982126926847677,
                0.0335088909723863,
                0.025714173338371994,
                0.015607912964653971,
                0.012992404369466241,
                0.014491014366389547,
                0.007246313274937007,
                0.005439399293325791,
                0.0010311750002605718,
                -0.0007954192024023674,
                0.0004678354702899416,
                0.0008730007386566033,
                0.0003320538432953707,
                0.0007453863411106942,
                0.0009337620422978547,
                0.00028834258439942807,
                0.0003381881691407829,
                0.0007796764636274318,
                7.895155502197683e-06,
                -0.0008976086201002527,
                0.0020669160873751846,
                0.004332552541418951,
                0.008760920193680414,
                0.01270184305389844,
                0.012396483118829718,
                0.017623366142716482,
                0.015265703544984117,
                0.021987590875098693,
                0.023439257149593624,
                0.017358383875821108,
                0.016237579674312868,
                0.014298861554082179,
                0.01706834536302301,
                0.010559958518387019,
                0.005768998162232203,
                0.00619424242386751,
                0.003136807473896958,
                0.0013397893635702517,
                0.0011293533129088952,
                0.0007776731313541683,
                0.00041154987001195043,
                0.0008551107880857197,
                0.0006744386926172262,
                0.0010855947350109326,
                0.0003203148058303637,
                0.0003280184109529036,
                0.00012574555123909378,
                0.0007371553146432498,
                0.001633509191080945,
                0.0017505251702171845,
                0.0017160486370668378,
                0.002541566972755147,
                0.0058953670897242665,
                0.0031316219293620576,
                0.004310709016421703,
                0.00681683197332491,
                0.00531585119568927,
                0.0019871521360284865,
                0.002099171407083202,
                0.0037971787312352135,
                0.004686230327791761,
                0.0027233856375224077,
                0.0026426831422075654,
                0.0023405026263863525,
                0.0028209222959607347,
                0.0005438954700418785,
                0.0002444937626945228,
                0.0006191580692753238,
                0.0011820957266558667,
                5.555314359582151e-05
            ],
            [
                0.00010806146406067848,
                0.000313463272705628,
                0.0009106639322776731,
                0.0007825001566779031,
                0.00011887568375437932,
                0.0012309787381080384,
                0.0011105185682269468,
                0.0002126306797986916,
                0.0006092993891170109,
                0.0009694587624404886,
                0.0009953481507946785,
                8.935819947345364e-06,
                0.0008841002372909108,
                0.0012402492216464101,
                0.0009337576575614468,
                0.0011802958660890553,
                0.000123414850798522,
                0.0010083258468032601,
                0.0012116096365332217,
                0.00012991331618986192,
                0.0003519176893149988,
                0.00030637422952497156,
                0.001036618385485046,
                0.00012167204589654004,
                0.0009559509679563341,
                0.00035488401208153545,
                0.00022185640319008907,
                0.0012004447306508562,
                0.0009740420819529919,
                0.0001237698058837688,
                0.0012559978742466777,
                0.0010821035460136625,
                0.0004385069675407827,
                0.0009088905646923169,
                0.0019317299120472134,
                0.003313791198180604,
                0.0032610514999820463,
                0.0017200042897456474,
                0.003200785303396166,
                0.003887863906206381,
                0.005978833709651744,
                0.004663140202349445,
                0.0011085463611625334,
                0.0025466846723215778,
                0.003173970005841459,
                0.004113749626198938,
                0.003778464244001545,
                0.0035368914630088937,
                0.0032768526570988066,
                0.0021142800656893876,
                0.0013392826279952212,
                0.0015029462137256962,
                0.0009834432611075417,
                0.00015629265834232728,
                4.898596631680497e-05,
                0.0006592119051016993,
                0.0005111766704238672,
                0.00027084236950689257,
                0.0005809733176473362,
                0.00037133735806344707,
                0.0005817107018181237,
                0.0005502962559010615,
                0.0015459199585234377,
                0.005652420664015509,
                0.005746019529123023,
                0.00473575882044428,
                0.007038125288746748,
                0.0087341946759681,
                0.010917891649343389,
                0.008896818673791829,
                0.0015245820490576232,
                -0.0011982522184849206,
                0.0008003420291629757,
                0.005042502343235066,
                0.007712088526018926,
                0.006491512488951316,
                0.005792592243791364,
                0.005989285648064483,
                0.005946093445884687,
                0.003423837975466543,
                0.0013393423879802312,
                0.0007168238198254602,
                0.0006905475226341276,
                0.0005205414056845233,
                0.0010528550457354962,
                0.0007395334889509336,
                0.0010576114344209358,
                0.0007919226746830469,
                0.0012688324219243046,
                0.0004617766020286418,
                0.0034222898299089617,
                0.006927438477001026,
                0.011405079746810971,
                0.008193243689313668,
                0.007903127636571718,
                0.015718893571171993,
                0.016957717436946865,
                0.024656022640144524,
                0.019218188603330237,
                0.017331871964443777,
                0.01783120622340876,
                0.016779093853814386,
                0.01132177136741822,
                0.007317077413264138,
                0.0051719488398284915,
                0.002840515280252222,
                0.005351065470270242,
                0.009797937279846156,
                0.006177465174059553,
                -0.0003202783321257608,
                0.0005429093567323728,
                0.000995226846410998,
                0.0010808339179854138,
                0.0009446156303024966,
                -0.0001664049523576633,
                0.0008628613076037238,
                -2.3656640706299015e-05,
                -0.00020337555506146958,
                0.006301252296992984,
                0.0076774100329164005,
                0.013470884723212333,
                0.013171402233871024,
                0.011782482377016559,
                0.005761830327015203,
                -0.007908472288240575,
                -0.010753080111178228,
                -0.01471804105069067,
                -0.004106218398222887,
                -0.0018662739369652327,
                0.007327175940794107,
                0.0096207965948787,
                0.017064378472265326,
                0.014247073972350316,
                0.0018258620232217305,
                -0.0009325899310205386,
                -0.00394721845411665,
                -0.003815910841366384,
                -0.0009419550337512882,
                0.001274678434698184,
                0.00161499846924553,
                0.0009899662018636821,
                3.642443616038608e-05,
                0.0006976530989695498,
                0.0005581330873438695,
                0.0024379672387947493,
                0.0011391480937286297,
                0.008018642284955756,
                0.007200965091115994,
                0.013504882295976909,
                0.009640705095764628,
                0.009148026557959049,
                0.0040513051779171826,
                -0.00626256998324192,
                -0.009541175581198576,
                -0.010998508684627805,
                -0.018398097831824507,
                -0.024397485201536624,
                0.006223311727215418,
                0.023445307830897273,
                0.033446722983537236,
                0.01808213985194848,
                0.0072540121657035895,
                -0.0030406683944022394,
                -0.0015046337515030293,
                -0.005232144430691384,
                -0.003180377369299163,
                0.0007931005044193537,
                0.0004730785164227454,
                0.0011541466019563923,
                0.0005470923043717974,
                0.0008427332798103748,
                -0.0003842752271200844,
                0.0021194069030096266,
                -0.0027645472521128154,
                0.003017254801053183,
                0.0066086244935409846,
                0.006288506809560148,
                0.006811867774764992,
                0.00800015479306961,
                0.002794491465825303,
                -0.0017215623547259624,
                -0.004419490593866788,
                -0.0014772828129108156,
                0.005027594629953044,
                -0.005839477848852571,
                -0.005999861505230197,
                0.011717583494021636,
                0.0175022651402235,
                0.005526028762553426,
                0.009846465915914022,
                -0.008459540317872103,
                -0.005914808899387541,
                -0.009701807677474193,
                -0.0066197411316967,
                -0.006346280659357705,
                -0.0005896494030187979,
                0.001235880705481262,
                0.00050088761036645,
                -0.0010423708017624283,
                -0.0012384512811227089,
                0.0022066302324058886,
                0.002145646632346023,
                0.008826979961577238,
                0.007350232310196155,
                0.009168490800888851,
                0.017092251736349755,
                0.012664411907046782,
                0.01029787115073251,
                0.011386361751811961,
                0.014289500056495553,
                0.011847740994846116,
                0.02606381139596005,
                0.005015737840117643,
                0.008017381474239148,
                0.015935130110938955,
                0.013785798570737378,
                0.005436108303838257,
                0.007368098784355996,
                -0.007066257123859572,
                0.003653455101813925,
                0.004327727324174906,
                -0.00471566229156144,
                -0.004480201421246299,
                -0.00011151631376135274,
                0.0012575808162375826,
                -0.00027200620941026656,
                -0.001285891126744956,
                0.0010871787863739684,
                0.0005503879714830963,
                -0.0003067144694998937,
                0.012450072328919488,
                0.009962956116391919,
                0.011728966553887117,
                0.011944944831031586,
                0.003334665189029406,
                -0.001452936260577281,
                0.004038093581277008,
                0.010233406398542602,
                0.01898721117698227,
                0.033473006925878866,
                0.041484760897270156,
                0.02199833049823942,
                0.011545039120340744,
                0.018392256802274173,
                0.011789443950525441,
                0.010838521243376684,
                0.0009856858817248214,
                0.010596995747279079,
                0.0023134704907956474,
                -0.004158767732367234,
                -3.349583878402684e-05,
                0.0014020361361924835,
                -2.695540378780186e-05,
                -5.4646086566192865e-05,
                -2.2583313295738728e-05,
                0.0041773023969408985,
                -0.0029187797068694864,
                0.002052277534145258,
                0.010208432401395682,
                0.004313817694200582,
                0.010057433773889603,
                0.013626849542589966,
                0.010251635245985144,
                -0.0037919116268339817,
                0.00500776193099522,
                0.024104871194963132,
                0.03681861315698468,
                0.031734566501543875,
                0.01690366012921214,
                0.01264800248721993,
                0.007871660418406182,
                0.01963553919451649,
                0.007925028457073057,
                -5.38891972615889e-06,
                0.0024707532280782325,
                0.0132566623492471,
                0.0026271521257525635,
                -0.009923449523618247,
                -0.00167562445078001,
                0.0009011714986496955,
                0.0005083086055867933,
                -0.0004171117510828755,
                0.0019352151141576461,
                0.0014484876765642333,
                -0.004628160764878649,
                -0.0003503754286583486,
                0.001072711255522009,
                -0.005351217873278708,
                0.007243441426566632,
                0.004623956962989527,
                -0.007236036254758299,
                0.004525563336113241,
                0.013330490602755306,
                0.008830870865537157,
                0.03681395320695985,
                0.007468249461919271,
                -0.00998892120265438,
                -0.007964585210378938,
                0.004801614859555346,
                -0.002378178106227126,
                -0.001146169280409068,
                0.0053143630804829605,
                0.009407622781609292,
                0.016437307100109575,
                -0.005778129929049875,
                -0.027036743181728294,
                -0.006053386722448484,
                -0.0003678119902442655,
                0.00082389198273565,
                -0.00022327174342398783,
                0.0029536682433373854,
                5.6843515198258144e-05,
                -0.0035925170408503187,
                0.0020164268139871403,
                0.0026954072164627973,
                0.010693480926840066,
                0.019100601013972523,
                0.0014465418409365302,
                -0.010249945098807783,
                0.0019108209180015501,
                -0.00586805735967531,
                -0.0008877201800352212,
                0.009627952555177293,
                -0.02435672277764342,
                -0.022475318654773674,
                -0.012032998643555526,
                -0.014864392529299253,
                0.00205268318930245,
                0.01829602127317121,
                0.024089132249501963,
                0.031632713419972244,
                0.03683796172043729,
                0.01531447231248209,
                -0.011203929873920078,
                -0.004502741720151227,
                0.0009351528293148584,
                0.00012974315134255907,
                0.0010858390265631721,
                0.001371617051636478,
                0.00028969194430690146,
                0.0057350996572069326,
                0.013528027642210836,
                0.016037644144746545,
                0.003886130322850933,
                0.0008017155098655294,
                0.009268262591120971,
                -0.005090060449213225,
                -0.0012243661545409505,
                -0.02385779788674736,
                -0.0020582548914348272,
                0.0017117603836744755,
                -0.029356689113187492,
                -0.014678582592916607,
                0.010362977346041661,
                0.003152072988118013,
                0.01616318708947267,
                0.00582137096953223,
                0.01913831337721623,
                0.046575568569928755,
                0.06556406231643659,
                0.04251429234810235,
                0.004662402149717294,
                -0.001196220247818,
                0.000855741985577134,
                0.0006375632440065534,
                0.0009410794154377053,
                2.8365677224875734e-05,
                0.0029924520620655593,
                0.012013278928358608,
                0.01006777295126596,
                0.0020181760593512787,
                0.006579741300172527,
                0.0015925042438189993,
                0.010580976636735196,
                0.018183790720960026,
                0.000752880063801811,
                -0.004117761137336461,
                0.036473734678774926,
                0.0030215852327123956,
                -0.002784881762370564,
                -0.0035871758567825275,
                -0.007305067601887519,
                0.0026865913548437164,
                0.011948746436633309,
                -0.01004644516583599,
                -0.0009043185700622041,
                0.01724039858502329,
                0.042484190444563204,
                0.032883596159130335,
                0.005524290280030499,
                -0.00014554947249016765,
                0.0007389168271829996,
                0.0007871701267433715,
                0.0004377594424918783,
                -0.0003146554756707263,
                0.00019088464605481484,
                0.003433340843779902,
                0.010074318944688316,
                0.014668844922464603,
                0.01969272558984627,
                0.011563448996210101,
                0.01050323295642936,
                0.016238317824258275,
                0.028283614151023848,
                0.02904118755446401,
                0.05140327484263221,
                -0.026559417725160076,
                0.0054774523978482976,
                -0.027900120200083874,
                -0.013502085383850955,
                0.0049974694946176255,
                -0.00630803139693154,
                0.008329592380630583,
                0.006659773620591648,
                0.006274423571708223,
                0.013228424562976532,
                0.01601968768299436,
                0.007624809086982766,
                -2.5069770010111784e-05,
                0.0008838823811206794,
                0.0007769441757967672,
                0.000871766501735178,
                -0.0011414907756877315,
                -0.007234525429199413,
                0.005630059817980604,
                0.02678851453882282,
                0.015645453349039162,
                0.03032678951998983,
                0.015087157523485191,
                0.00495129806524281,
                0.01777449507913713,
                0.01836280565295543,
                0.03843953537763729,
                0.012803887271621356,
                -0.024745526600058486,
                0.00044738703767825623,
                -0.028795336177382207,
                -0.006193149295645726,
                0.01936422344119822,
                0.01062108179889721,
                0.021569477538015143,
                0.00800170625894935,
                0.0005492516157010164,
                0.004751027645268001,
                0.015023584723650061,
                0.010309336242704008,
                -0.0011164016288585429,
                0.00012108395834539511,
                0.0007060738773048842,
                0.0007600990862121008,
                -0.0013104179721633218,
                -0.00829859373432681,
                0.012157147511598888,
                0.027637676662960752,
                0.01572894497113629,
                0.018428327146456463,
                0.020860030620807987,
                0.007722678402514865,
                0.017301390446955046,
                0.04110001651486701,
                0.01487889631175421,
                -0.01633462730684567,
                0.0037394060644593504,
                0.006966255927330088,
                -0.01695432936862016,
                -0.002031237383004119,
                0.019068705299315702,
                0.0004654752119918975,
                0.0022716530371947766,
                -0.005045150787083879,
                -0.0013114241861036191,
                0.0011455706770926403,
                0.009667374639425906,
                0.011291415822594814,
                -0.0001202018220318076,
                -0.0005683331345831192,
                0.0011103296333378576,
                0.00023118998424147996,
                -0.0012286050194317843,
                -0.00721757132460436,
                0.0004663569098089424,
                0.01046889085503462,
                0.00881706128759284,
                0.020879567345594034,
                0.014160053390045139,
                0.014295959446352782,
                0.02839361941041636,
                0.020457034615509306,
                0.0035996713807731067,
                -0.014287227325388549,
                0.01165503759510894,
                -0.00592465378316171,
                -0.01961442140274202,
                0.0014372385987565326,
                -0.008138641193026508,
                0.004350539926226507,
                0.004237156611566759,
                0.001070301424026487,
                0.010260452842101775,
                0.0033632460520656594,
                0.009152391841091668,
                0.008226190146391182,
                0.0008911076921522886,
                0.0011719466505625922,
                0.00047048504824259805,
                0.0013453730972855375,
                0.00025695116297157433,
                -0.009505915715296758,
                -0.001844286446224323,
                0.004027032918485701,
                0.01411062824841319,
                0.013043156117501294,
                0.011608665014539702,
                0.010439026692640184,
                0.024779979491303877,
                0.0078368380120302,
                -0.015027428359521576,
                -0.014049745512753758,
                -0.0013267835342186537,
                0.001487512821762735,
                -0.023430013609721256,
                0.0021346448182739193,
                0.0007890030124427486,
                0.0017624749496094006,
                -0.008411981489889628,
                0.00028198578608449573,
                0.018145393973030777,
                0.013235789089923284,
                0.00952113127490608,
                0.004984254243787485,
                -0.0005741877507603623,
                -0.00022420603419405795,
                0.0010467384566405864,
                0.0007751404891399967,
                0.0017147629444858085,
                -0.006491594538090289,
                -0.006302568648000811,
                0.010847207704777616,
                0.021261931649078844,
                0.02862543627508273,
                0.019345369577760955,
                0.006920729251629793,
                0.00974738884250869,
                -0.012231531877731712,
                0.005215647448784659,
                -0.01407125341086058,
                -0.0018126030873044337,
                -0.012571940887124215,
                -0.022891320589798172,
                -0.006325075265027268,
                -0.0008320691708656147,
                0.008561608944029676,
                0.0021976160723428642,
                0.005080143529233837,
                0.02141306673413101,
                0.01093628061929178,
                0.006235611506815404,
                0.0006884985062413748,
                -0.0009621363623152819,
                0.00028776413056540715,
                0.0009479116413303992,
                0.0010623879724561834,
                0.002053285546403233,
                -0.0005505975420229128,
                0.006386677843563578,
                0.017022718761782827,
                0.019852270431093007,
                0.03211076963956558,
                0.01784835003840005,
                0.009626226818069412,
                0.01252684311173526,
                -0.009695595892712405,
                -0.0020029971192598054,
                0.011745276251277657,
                0.006254300133220231,
                -0.00370382864878646,
                -0.018748025843109053,
                -0.006262025587276997,
                -0.006057380560437131,
                0.005050917763663095,
                0.00837607587091274,
                0.014049131618272873,
                0.010416606811084587,
                0.00384440805359868,
                0.002807959794539222,
                0.001110241945175125,
                0.00020399843784916097,
                0.0006872657953850305,
                0.0005049043828489484,
                0.0004720537203084663,
                0.0010989139509539154,
                0.004314418073643826,
                0.0042222328236035155,
                0.0042691120513633244,
                0.022297116429113605,
                0.02928566684482144,
                0.018449538452262906,
                0.0257773364904372,
                0.01884116639962972,
                0.011707725472456564,
                0.006942643363812191,
                0.004907699975665191,
                0.00335206834424604,
                0.004145176940880416,
                0.0023049209032690414,
                -0.005586271465458689,
                -0.008012338038327417,
                -0.013786964523605902,
                -0.0003992237831746742,
                0.00032620626706737337,
                -0.001887093903502503,
                -0.0011993350275288353,
                0.002023310611071966,
                -5.790470305530093e-05,
                0.0012206756029255277,
                0.0010203551081330304,
                4.836327799263237e-05,
                0.0006864149878728427,
                0.0012257400393214715,
                0.004593345901405153,
                -0.00015808809282319406,
                -5.418414722155921e-05,
                0.012840031251836737,
                0.013335183721179637,
                0.02828576032989693,
                0.03195768050287059,
                0.026111059305993015,
                0.015605628455786454,
                0.02134335270428656,
                0.01994079509569917,
                0.00686294548488975,
                0.004413168959168687,
                0.0036789328145890635,
                -0.00361103899609516,
                -0.019338160227438842,
                -0.020096323094332118,
                -0.00829390067305049,
                -0.007506112427864738,
                -8.502677140475971e-05,
                0.00437564668974754,
                0.0010066529831410597,
                0.0007006777320166869,
                0.0007572468279283671,
                0.0010412597118596818,
                0.0006508054980788719,
                0.0008132308034257259,
                0.0008914433170454651,
                0.0013523059291445498,
                -0.007814746366628043,
                -0.009432134153969792,
                -0.005400048032569415,
                0.0028199165615348807,
                0.014662202603215779,
                0.016002128009368004,
                0.009951003897498414,
                -0.007487560567038677,
                -0.0018328722621210047,
                -0.005975037630529355,
                -0.01066916565445748,
                -0.018368385642085712,
                -0.011580433391143495,
                -0.007674101370085846,
                -0.01156662816987011,
                -0.009660111654406783,
                -0.008885051148200722,
                0.0002053669947001052,
                0.008189841309951262,
                0.0070480664801356625,
                0.0009051123719685275,
                0.00039100154851026914,
                -2.729676866648191e-05,
                0.0009247737842525239,
                0.0012713623543927977,
                0.0006066027686915091,
                0.0005827261058700564,
                -0.0006101793935631051,
                -0.0026267480583443124,
                -0.009410039557389793,
                0.0003847989178457804,
                0.009501689332418578,
                0.017744254819527537,
                0.007697297385168505,
                0.015305301418957482,
                -0.002004359244285128,
                0.005443413392472004,
                -0.0019659955507779353,
                -0.016765335199852172,
                -0.011037469962766278,
                -0.0060230734322513635,
                -0.01169023509539053,
                -0.001268726659245965,
                0.0005173712213219183,
                0.00168440875464842,
                0.0009370153255704824,
                0.0024672344384048194,
                0.005455745028399265,
                0.00011891374176028624,
                -0.000257135963222025,
                3.2341944594441613e-05,
                0.00042157495725567173,
                0.0012792108981224822,
                0.0009680007586943427,
                0.00011261222886315237,
                0.0009755768486345785,
                -0.0004320885454687674,
                0.0038718037019738693,
                0.008981158004503557,
                0.010048723396067804,
                0.00892840740720931,
                0.005964781275722311,
                0.007197410193401308,
                0.0033169312672445663,
                -0.004891507235330911,
                -0.004718215160126758,
                0.0005533007960612924,
                -0.005590389457396143,
                0.0009073670869796234,
                0.0070274940605603185,
                0.006845754765455403,
                0.010669158707139569,
                0.009438131623204032,
                0.0035276929017370364,
                -0.002162496178160412,
                0.0004059684742080086,
                0.0003410088893617093,
                0.00032308174537670504,
                0.0005719362990338586,
                0.0012120911592458164,
                0.0010161491354283292,
                0.0008839681230682491,
                0.0003534837925393085,
                0.0010665362156538772,
                0.0025940389628621064,
                0.00585020344940807,
                0.010277687630448418,
                0.010574799990773077,
                0.012399827861369863,
                0.014782122195596924,
                0.016680428681411157,
                0.02123871105423872,
                0.028503154859552175,
                0.025135334514013036,
                0.03492299271153897,
                0.02179338396430373,
                0.01762869186768377,
                0.020538252531039903,
                0.01751942343897546,
                0.01362675073051816,
                0.009446673206673969,
                0.004743971141688101,
                0.00033374644844714406,
                0.00037856782637176557,
                0.0004120641246814028,
                0.0012003470086014312,
                0.0012044429132648576,
                0.00105729563769203,
                0.0003306158816201906,
                0.0006253050210477032,
                0.0009892044729756652,
                6.658269308634391e-05,
                0.00018601840797459392,
                -5.903010803915472e-05,
                0.0010190300566720316,
                0.002282865109036007,
                0.002092395451656923,
                0.0009158076048222623,
                0.0002759327251738946,
                0.0011755940429703023,
                0.0024618701066048826,
                -0.000571699046667906,
                0.004106609640485535,
                0.003077828469289884,
                0.0028430031300569997,
                0.002122413211861484,
                0.002602375734490895,
                0.0026761746771481105,
                0.0018137327077989056,
                0.0013018013684557678,
                -0.0009982405334818414,
                -0.0004884150141430053,
                0.000742567693194176,
                0.001080337711365407,
                0.00029035998945760435,
                0.0010437244190052806
            ],
            [
                0.001009539513001141,
                0.00021462057935642498,
                0.0008208377327351395,
                5.997307065915026e-05,
                0.0008399256004041177,
                0.0005298598817486378,
                0.0001265557643416256,
                0.0010690164211540187,
                0.0005923658238975861,
                0.0012083161670166116,
                0.0005897114763382846,
                0.0010745219767279654,
                0.0008025889249049506,
                0.0012920564135364958,
                0.0003433827452854299,
                0.0006270523617243404,
                0.0001034326746295324,
                1.8955525317247137e-05,
                0.0002722244499644367,
                4.788693260053996e-05,
                0.0003446754761455327,
                0.0004121959428608069,
                0.0009411226399996398,
                3.7138895409201174e-05,
                0.0011922824072243404,
                0.001152372153210146,
                5.217501687020598e-05,
                0.0006546677764563393,
                0.0009525275412095118,
                0.00034253500692394117,
                0.0004182098714994422,
                0.0006818847302484807,
                0.0005577524968426966,
                0.0012513251882389205,
                0.0014991485873859967,
                0.001571690744654302,
                0.0016188840741968079,
                0.0010695927392401243,
                0.0008527273705966915,
                0.0010225995425551585,
                0.001725332013192979,
                0.0009967919742352772,
                -0.0007045096780248629,
                -0.0012783016809020692,
                0.004386735371883773,
                0.002670915712473688,
                0.001001943521876157,
                0.0008218702771060028,
                0.0011229077982052881,
                0.001049556630216294,
                0.0007425501312143359,
                0.00025778367312113114,
                0.00027497981973051286,
                4.1363289005544135e-06,
                0.00015282658197427346,
                0.0001870799029926784,
                0.0011565084827068345,
                0.0002050015994406095,
                0.0008440776072746951,
                0.000851979591403073,
                0.0005592659526749847,
                0.0013752466192631604,
                0.00155251918323603,
                0.003727529591093238,
                0.004964763458509309,
                0.005233888931403824,
                0.003988987146981685,
                0.0012691180996353816,
                0.00399787442242228,
                0.0013304119078841267,
                -0.004326068162354493,
                -0.008110529778196155,
                -0.0037828535037005553,
                -0.0005295655945849906,
                -0.004500798766751904,
                -0.007261778870210216,
                -0.0036790144969793795,
                -0.0022389533976071223,
                -0.001160961065771938,
                0.0007117797859550434,
                0.0016695210165676888,
                0.0014998347994928754,
                0.0007424615543920189,
                5.679667895494426e-05,
                0.0011771039570192422,
                0.0008952881363662948,
                0.00012281432018746533,
                0.0011307512513841216,
                0.001256325784664548,
                0.002374796585102584,
                0.0036221818937384564,
                0.0049086913367820725,
                0.010857074234347177,
                0.016024870131671358,
                0.013414953527525489,
                0.016877072021290757,
                0.012881939899208274,
                0.004388850014275443,
                0.0020103560046615134,
                -0.005165441458422254,
                0.003677750865293231,
                0.011016022787079425,
                0.008174357835401925,
                -0.00034598978718034624,
                -0.0031671384895533405,
                -0.0056753823104180815,
                -0.00264726596117916,
                -0.00016512660634104102,
                0.0010598682412244402,
                0.0008022421689829138,
                0.000573893912214927,
                0.0011918679612111264,
                0.0003001275694193022,
                0.0011432894787954102,
                0.0008541915943515693,
                -3.590131454235255e-05,
                -0.00018297318057526322,
                0.003966452970801145,
                0.007028125402460017,
                0.008285682342003334,
                0.009980478465224978,
                0.01794967473571883,
                0.019289161289881347,
                0.01746674536243521,
                0.010535470265414081,
                -0.003203774930513204,
                -0.007706412467391026,
                -0.014527357129957662,
                -6.207386214563297e-05,
                0.007573660745227137,
                0.009407486683059295,
                -0.003453289123528536,
                -0.010053768657675358,
                -0.017199304207975434,
                -0.014503210790734859,
                -0.013340750167089894,
                -0.0022970413681054186,
                0.002113291241303334,
                0.0006819508996115793,
                0.0008961265319708466,
                0.00028513417209594414,
                0.00044459019905703184,
                0.0005993255206240158,
                0.0009984946558104983,
                0.0016105052987209739,
                0.0024839826704871806,
                0.0017575357343851705,
                0.0051374380808640865,
                0.012988862053350834,
                0.0123348801572964,
                0.014915422708520098,
                0.0113824986489702,
                0.005059710775629796,
                -0.005558166913628657,
                -0.015028322772991992,
                -0.008282646163393458,
                -0.0013633399893315042,
                -0.0011284263328492849,
                0.0008941278377793203,
                0.003658237835894582,
                0.002309075115689499,
                0.00026779947579711675,
                -0.0054928925262740895,
                -0.017337409305965022,
                -0.009777292176267903,
                0.0022889416539878474,
                0.0012859275524956012,
                0.0010551293736649956,
                6.239418838560357e-05,
                0.00015946790179973655,
                0.0002426127861362265,
                0.0017821014941570412,
                -2.142154488732829e-05,
                5.673134821443677e-05,
                0.005838614052038642,
                0.008813134901692159,
                0.011675652538748058,
                0.016012807627830812,
                0.009092164700592233,
                -0.0022347849361959086,
                0.00027056482268159374,
                0.0050359447500709234,
                0.004114044661118774,
                0.005345161321867664,
                -0.010637908248833174,
                -0.027124629320881017,
                -0.02446678307821006,
                -0.02196178217992877,
                -0.01790073318486573,
                -0.01417168772013941,
                -0.014647708355020972,
                -0.02310621101139672,
                -0.00902412610460302,
                0.0008311503286075601,
                0.0005630021718290131,
                0.0015300972419689516,
                0.001022442600145234,
                0.0010944459869798207,
                0.0012408128196378066,
                0.0015241753765607897,
                0.0030806172980916997,
                0.0013206647758483652,
                0.006282459414471496,
                0.0057976732745136815,
                0.016190240717743387,
                0.010470284566362379,
                -0.009259882088531138,
                -0.015101254396531587,
                -0.01795114147073291,
                -3.100633027562759e-05,
                0.005136077844075866,
                0.008657518770930676,
                -0.0118453696596871,
                -0.039469589573757013,
                -0.03373377227077234,
                -0.0315189491613749,
                -0.031129630135903495,
                -0.0192915980758186,
                -0.014637474912400526,
                -0.025887631276577668,
                -0.009861149448096952,
                0.00043360345823463835,
                -0.00021857257963738257,
                0.001002704761695559,
                0.000622724290849113,
                0.0009447671247866257,
                9.001332359963487e-05,
                -0.00010138253402889306,
                0.0036762149150852616,
                0.0026118736537076026,
                0.0035845336456585097,
                0.0038523034438016435,
                0.011454191647933671,
                0.010555877865357744,
                0.0015701090337554128,
                -0.008295188529838769,
                -0.012639137394500758,
                -0.0034195444790787823,
                -0.006388067352772417,
                -0.0032508228859819024,
                -0.005731785793361854,
                -0.026128979431344575,
                -0.029626132942212103,
                -0.020758172564951757,
                -0.021574844652859918,
                -0.008497960643120939,
                3.637242711342238e-05,
                -0.012478471713204072,
                -0.012149964731141724,
                0.0011358269901833036,
                0.0025525232722990784,
                0.0011909692095198625,
                0.0009717140965282258,
                0.0006801936872342314,
                -0.001028009898804756,
                0.0006290764271888262,
                0.00529587810446084,
                0.005519237313230575,
                0.010299826510578317,
                0.014838639386095176,
                0.01040046945018805,
                0.010161096291024806,
                0.0036371296029355893,
                -0.0028933114968112475,
                0.002499853548309912,
                -0.011976430654335195,
                -0.014034418885640033,
                -0.0043749129635594014,
                0.006176237673426946,
                0.016413993225333486,
                0.006573624769273844,
                0.0021464591812808183,
                -0.0008969876725115658,
                -0.0047281496999625455,
                0.010071833579433871,
                -0.0019990530453510252,
                -0.006458738316389793,
                0.002352208065283502,
                0.0022815747653544983,
                0.0013363704225815315,
                0.0009559131023164406,
                0.00046367566296867945,
                -0.000577225160323541,
                0.0030682250344663017,
                0.006017432604181204,
                0.01742100547437732,
                0.025962362180462432,
                0.01026569205239192,
                0.004352632405250502,
                0.0023552595467761822,
                0.003450334898044836,
                0.002521373990797537,
                -0.008304579454392074,
                -0.021772343274890724,
                -0.013321911947458822,
                -0.015393212070369837,
                0.01503601662932872,
                0.026394788949501428,
                0.026726527353358016,
                0.01177962878149144,
                0.009299122555642202,
                0.0043584742650268835,
                0.008331379059333692,
                0.00980454651281864,
                0.0010378326128071623,
                0.0026726769092574832,
                0.003215809148982628,
                0.00047458457594225895,
                0.00048546483141478545,
                -0.000183961967874554,
                -0.000859383162151123,
                0.0017709418062478958,
                0.00635672599715903,
                0.009071115317245663,
                -0.0003178769087309208,
                -0.015371783615848036,
                -0.015177556947867632,
                -0.01021071769289733,
                -0.02084379329402887,
                -0.01533947081040659,
                -0.03630392535298913,
                -0.04041928538291264,
                -0.02633048677418821,
                -0.022508832845765932,
                0.010216101209292498,
                0.013948982621862635,
                0.015979732730608952,
                0.005360703107799392,
                0.000387658297181528,
                0.001038959386789031,
                0.007420285414294588,
                0.009380049370478389,
                0.008537922703064893,
                0.006056017680927569,
                0.001545412621177356,
                0.00030150853892415875,
                0.000706862877489,
                -0.0002297433998273089,
                -0.0008096242982131534,
                -0.00029994641204727325,
                -0.0017069165173744663,
                -0.01448220738614381,
                -0.03152153429401435,
                -0.040479324770938206,
                -0.030704883159646673,
                -0.02339075434035407,
                -0.021502657124870133,
                -0.013439061054794478,
                -0.037238723254860814,
                -0.013546547477946294,
                -0.016579449780552476,
                -0.012971504032717976,
                0.00612026438582463,
                -0.002484610978098793,
                -0.01295424364683786,
                -0.00850508490888883,
                -0.002457666777761972,
                -0.0023740582513382563,
                -0.0003397264560870303,
                -0.001484866291652805,
                0.008638533261294098,
                0.006585759952358541,
                0.0058488439663852265,
                0.0008771617885524386,
                0.0005063167300503595,
                -0.0007511331151385662,
                -0.00019219789863293837,
                -5.144417855950354e-05,
                -0.013637452623923832,
                -0.028977700624498212,
                -0.03482871237927529,
                -0.03169081838836094,
                -0.019766239190264438,
                -0.003975472298239501,
                0.008737368488547571,
                0.026827308216571654,
                0.011301975964615758,
                0.0442826919429061,
                -0.001972481576171319,
                0.003179094689393,
                -0.005325320730598648,
                -0.024611052936235785,
                -0.022011900006476518,
                -0.013864570207956652,
                -0.0012469274400417796,
                -0.00044480156935655733,
                0.002018157000796477,
                0.0038834522604329976,
                0.010934949891468706,
                0.010942064960918808,
                0.008646394950437652,
                0.0019999727582531495,
                0.0007578518472746122,
                -0.00030630515517358176,
                -0.0003541452135406722,
                -0.0009910097655057696,
                -0.016628618158751617,
                -0.026591686477622514,
                -0.01301734567830806,
                -0.006224535040225586,
                0.00011486376708051582,
                0.010474799825062723,
                0.025119075119198322,
                0.03205312785737664,
                0.02126929280484223,
                0.04152114802770995,
                -0.004469920643954957,
                0.010032429472997123,
                -0.009555123197848597,
                -0.023500457564027345,
                -0.0088121815828017,
                -0.013333559183556866,
                -0.0005673649185428509,
                0.008472261813998481,
                0.006828295334372365,
                0.001809632915389178,
                0.004364574572651479,
                0.010342619890718744,
                0.010710976636981114,
                0.001359367343274311,
                0.0008242431405505183,
                0.00013857318259453643,
                0.00011647913445994454,
                0.0006139173377925423,
                -0.007597249406293161,
                -0.0022223882820788183,
                0.0018205346654193068,
                -0.006888046544792154,
                -0.0045835905550007,
                -0.0008701961711471933,
                0.014817695983046603,
                0.015540893500149115,
                0.01445921924001298,
                0.02383349344213062,
                -0.008393361226867986,
                0.017464447931352333,
                -0.005275951507793946,
                0.00022740102572903247,
                0.004305960078442882,
                0.011114462935079313,
                0.013722300511633664,
                0.010458520775139868,
                0.0028241695674293857,
                0.002102567588542242,
                0.013390205633047781,
                0.016942713874508925,
                0.011733991333592724,
                0.0016534930728251886,
                0.0003011222102816716,
                0.0007928030762339223,
                0.0003964651035264803,
                0.007749961354896494,
                0.004149231359805013,
                0.004797363356964076,
                0.010168348272301215,
                -0.0063246025204891955,
                -0.010359615462660482,
                -0.004942040563907208,
                -0.0007478248514592346,
                0.010328105731646097,
                0.02702729296669379,
                0.015592348942149168,
                2.9602238303204134e-05,
                0.008884752172866259,
                0.0076286339214938935,
                0.021057656760606575,
                0.01050834116442482,
                0.014119719055146479,
                0.009271177923877156,
                0.006176143262258415,
                0.01084013515306396,
                0.008235506787632718,
                0.012275667785215506,
                0.020846800221997638,
                0.015027108096550664,
                0.0027639040380177888,
                0.0006464357706403156,
                0.000736014345731928,
                0.0019512292262665117,
                0.00791941940782559,
                0.008059477425276,
                0.013169914407522559,
                0.015297303807557273,
                0.002944397821028101,
                0.0032058830810170365,
                -0.012784930058811903,
                -0.014485276370526008,
                0.0031432913397103496,
                0.010047884775661408,
                -0.0005578188937345703,
                -0.005322910740956218,
                0.008837585917625703,
                0.01456581184137229,
                0.016043661290452434,
                0.004863787272995072,
                0.009045507412269466,
                0.007416688840946093,
                0.0038307546103722753,
                0.006511918272387715,
                0.0016424239843136265,
                0.009226793230379157,
                0.016429420975969403,
                0.007571232199117331,
                0.0014171669794951249,
                8.003160252741906e-05,
                0.0005034881082858694,
                -0.0008856535026810474,
                0.004439854303284518,
                0.007755042000698438,
                0.01585452697960346,
                0.025063325731919772,
                0.023889917325060805,
                0.010432827000417847,
                -0.009615052424793631,
                -0.002318779534971735,
                -0.007813033529387567,
                -0.005048342778108632,
                -0.01171180972687493,
                -0.0070150774309798445,
                0.0117434530979353,
                0.028826256296559067,
                0.018459936095557572,
                0.004681754004937015,
                -0.002210354212731943,
                -0.0030327607884918896,
                0.0026396969913909936,
                0.008734665437647325,
                0.011122267912756703,
                0.012327088836396704,
                0.010311859597347468,
                0.0031916427196864916,
                0.0016521503827610193,
                0.00038392725467648487,
                3.138500345020934e-05,
                -0.0023881720864133067,
                -0.00463957179107518,
                0.0023814983239341223,
                0.016016656597126425,
                0.020757586771861663,
                0.019448845705562136,
                0.006781115077195916,
                -0.0036448601511629448,
                0.0007150176191735655,
                0.004512249649550344,
                -0.0003875448569895111,
                -0.011827284739978983,
                -0.012850858535704873,
                0.007500659580867727,
                0.014746377640635664,
                0.01735456211567495,
                0.0014872577391245982,
                -0.00841622691577128,
                -0.0016408704677732242,
                0.002712761757374222,
                0.009027965915206326,
                0.010537963870863466,
                0.009231670857006744,
                0.008475116970539116,
                0.0038030854134557734,
                0.001114162781125619,
                0.0010758773487126898,
                0.0007548251399948857,
                -0.00034676589326250587,
                -0.0008694774583674747,
                0.004961815313283123,
                0.015727827365203964,
                0.010387024428919284,
                0.014600059656631411,
                0.003228399157020647,
                -0.0016319453225032974,
                -0.0008542768631353005,
                0.004550254476290417,
                -0.0011555520069304675,
                -0.0027070974054109256,
                -0.0028239894686236037,
                0.00894915700551896,
                0.001980678705925754,
                -0.010307135609163782,
                0.0033946636736842334,
                0.0038121057428777694,
                0.006147389728558105,
                0.001568984489285216,
                0.00401597256276974,
                0.011584454217883658,
                0.008981158398876525,
                0.004532628406352428,
                0.0016262415613292436,
                0.0011415506219858368,
                0.0008831785974949536,
                0.0008028651751956164,
                0.0014638626854171894,
                1.233974765460023e-05,
                -0.0004299257222242259,
                -0.004403593634009673,
                0.0016762244671062246,
                0.008787342428695393,
                0.00019002890652424013,
                0.006073798370550424,
                -0.0017079530752524797,
                -0.0009482194999634729,
                0.0027488705777922885,
                0.012065342992985175,
                0.0024989491914390242,
                -0.010557227526130962,
                0.0009909717414757042,
                -0.008070532093929906,
                -0.0076237297175326055,
                0.002442689247222389,
                -0.0016495088351078868,
                -0.0010763853379561245,
                0.0074429833521593314,
                0.006318660774961926,
                0.0009330495906738195,
                0.0035024707486097425,
                0.0015741878354718893,
                0.0008409035751916242,
                0.000125308343339052,
                5.7966979214109155e-06,
                0.0021543788780595055,
                0.0033936369888821864,
                0.00014314974295060877,
                -0.01533469919522947,
                -0.0120742689776283,
                -0.0083092817356825,
                -0.006530060795382867,
                -0.004295346868805538,
                0.008100252253113657,
                0.018593494534092467,
                0.01859962352699799,
                0.010375692518331016,
                0.003070172733592707,
                -0.00923635929761594,
                -0.010630791841986774,
                -0.021228047261261627,
                -0.014912446542271104,
                -0.013568454266882956,
                -0.003423734803447794,
                0.00409062178837586,
                0.007779752512694665,
                0.002054990436925264,
                -0.0007743123193937256,
                0.0010840324030253349,
                0.00030754218715754814,
                0.0008583805860020208,
                0.0006622902779088528,
                0.0007235455108540211,
                0.0008571849387678374,
                0.0029168500601266883,
                0.0003881847791825122,
                -0.014180915445491434,
                -0.021575672666457074,
                -0.0215556782711864,
                -0.0214101188080329,
                -0.02320414122508964,
                -0.021272945983265103,
                -0.02141345373270289,
                -0.025829298108674462,
                -0.014145055023236618,
                -0.007543174073325862,
                -0.01040064096197053,
                -0.014406535852368474,
                -0.021363492768045115,
                -0.002945265169204092,
                -0.00014322948782190535,
                0.003185200082041058,
                0.013013925135524572,
                0.011075129136638483,
                0.005184739636409977,
                0.0030692887392526325,
                0.0014857520124206154,
                0.0005940130570644684,
                0.0004111580835474397,
                0.0012408906826023784,
                0.0008956195424748635,
                0.0013988913225998873,
                0.0003136865040454314,
                -0.003053595603495385,
                -0.010480543703550902,
                -0.018257771789257773,
                -0.01612793231224613,
                -0.019270040013087342,
                -0.027724553463943254,
                -0.029446019060105882,
                -0.028851236659204634,
                -0.019418380936693673,
                -0.005917902622673688,
                0.004665160798106386,
                0.006327945347323196,
                0.006869503483811705,
                0.008736364530140183,
                0.012663497944995173,
                0.006137826022477703,
                0.00803674163379335,
                0.008823228797741176,
                0.00961703295968834,
                0.003489607084771909,
                0.0047532028352560655,
                0.0029003291638338355,
                0.0009684917199056789,
                0.0012031043796062312,
                0.0007374463967341949,
                0.0006573619408206924,
                0.00039335028762786114,
                9.197470286735141e-05,
                -0.0018234512778465503,
                -0.003934728593221129,
                -0.006242470159076594,
                -0.008807483719972321,
                -0.012383962201781791,
                -0.011719065473788173,
                -0.0030881721897844357,
                -0.00399546156533029,
                0.0017209098262388,
                0.007702005057832053,
                0.014384818560350692,
                0.015512429953827891,
                0.014411607473597357,
                0.01666417895153373,
                0.011026770983077593,
                0.008073516419567148,
                0.005194878761377747,
                0.0024970433555891658,
                0.000861517611503711,
                -0.0009164364792496304,
                0.0011878430051773276,
                0.0007933198152386591,
                0.0009109134693683827,
                0.0008812768564983838,
                0.0003537700971384083,
                5.73469594573348e-05,
                0.0008041989121424399,
                0.0010924681915547509,
                0.0006800734150590686,
                0.0008966948343173416,
                0.00042091695451378265,
                0.0005193699032530178,
                0.0004718013366063253,
                0.002920241738855659,
                0.004001832239922707,
                0.0044923252386424644,
                0.007774400083220532,
                0.010901405105298497,
                0.012651075783800462,
                0.008136223985552514,
                0.006540175499730016,
                0.0051795900591591944,
                0.004900430278498378,
                0.004474383353721614,
                0.0017869519264702431,
                0.001808997805125342,
                0.0007127771870491262,
                0.0013899047746665331,
                0.0005715904437685274,
                0.0012045543038686447,
                0.001275626929626583,
                0.0004307842918040229,
                0.00047931703078270564,
                0.0006110601304190206,
                3.1878824340229793e-05,
                0.0008330871279211099,
                0.000661631919162428,
                0.0008180142177815897,
                0.0005390346261544135,
                3.9320184715525735e-05,
                0.0008132078471337669,
                0.0011819733702585781,
                0.0002992242623076539,
                0.0006774404997031813,
                0.00041283377380168097,
                -0.00010021616066030498,
                0.0017640688943479882,
                0.001510210394809512,
                0.0009889345811357122,
                0.0012053838085449998,
                0.0005486916395362803,
                0.0006886498014464548,
                6.01482493628281e-05,
                9.545675360579376e-05,
                0.00013392398290575636,
                0.0007078659073241016,
                5.192304049483819e-07,
                0.0005602932860793744,
                0.0005425112119392044,
                0.0005366404853770846
            ],
            [
                0.0004851456299346627,
                0.0005379558181997351,
                0.0009674247771811034,
                0.0009644626607173589,
                0.0011490159486187688,
                0.0009993036015213269,
                0.0005173674652724256,
                0.0005372407151290699,
                0.0005551990140418228,
                0.0011614887637000876,
                0.0006401743813212752,
                0.0012493734790885273,
                0.0009729336245671298,
                0.0003398533327273721,
                0.0008713819707084516,
                0.000178857494560535,
                0.000579800811737946,
                6.86782998471398e-05,
                4.1906918470474184e-05,
                0.00014492603532250284,
                0.001202246284893414,
                0.0001623430374322969,
                0.0006894650971372436,
                0.0002246670361206125,
                0.0003586910869076939,
                0.0008804664117565489,
                0.0009407174006389801,
                0.00035921031731263927,
                0.00016057737387373974,
                0.0002030462886160056,
                0.0008958508026897234,
                0.0006457230038083966,
                0.0007386740507244072,
                0.0005523953439727812,
                -0.0013920781393851477,
                -0.002839764889340127,
                -0.002673268553444135,
                -0.0004900872854896865,
                -0.0009302766557304853,
                -0.0018598158129159348,
                -0.002291248361774887,
                -0.001599029440858027,
                -0.0006365179586070475,
                -0.003083241034507376,
                -0.00199839528705406,
                -0.0026196012443607717,
                -0.002509062970238292,
                -0.003298957788637492,
                -0.0021276147741227168,
                -0.001038343779846381,
                -0.0005735336221775145,
                0.00021696626957810178,
                0.0008650837817953828,
                0.0010915119097432327,
                0.0006059674864161883,
                0.001223774868703084,
                0.0006917959975376084,
                0.0002665025630929988,
                0.0002988911213375459,
                0.0007741300163835611,
                0.00036930023597021085,
                0.0011250207600274427,
                -0.002177188525767188,
                -0.004150991279463477,
                -0.006116904713322272,
                -0.003223179277144706,
                -0.004080734338488553,
                -0.00436009231358801,
                -0.004269110735688589,
                0.0009155682837809326,
                0.0018895537762740778,
                -0.001941241181279326,
                -0.007216364084187704,
                -0.0076545807973538,
                -0.00956943993971672,
                -0.007686579065576757,
                -0.005818508879992602,
                -0.004520696906312561,
                -0.0033899751620198623,
                -0.001326760463152042,
                6.351073013376379e-05,
                0.001508832428200799,
                0.001158527862748173,
                0.000995188413226808,
                0.0010619841350429655,
                0.0004843130252021859,
                0.0009293796143858462,
                5.937043409862577e-05,
                0.00021728127414322548,
                0.0002824521827732829,
                -0.005218564574211627,
                -0.007850650898677277,
                -0.012067007897240144,
                -0.013076981374556424,
                -0.0084888684251364,
                -0.004852437865872234,
                -0.0034732645568879496,
                0.0028785017734301965,
                0.01025845644844979,
                0.012313066852690442,
                0.018301750569049827,
                0.011251303695836422,
                0.004601129573459981,
                0.0043411778559571835,
                -0.004349478535250752,
                -0.004658663072335021,
                -0.0029084599516223824,
                -0.0025360023824155774,
                0.0005132347485509916,
                0.0004504361555266794,
                -8.843813155525937e-05,
                9.450787774696025e-05,
                0.0005822228796977677,
                0.0011851567951715728,
                0.0010760914928205406,
                0.0002168030886799935,
                -0.0001588354330955786,
                -0.0012426294801413695,
                -0.004408184975251709,
                -0.00516246058770879,
                -0.006688425086186063,
                -0.0025490824833144608,
                -0.0018608727032610338,
                0.002012162200229606,
                0.0032638961695618755,
                0.017045885217257844,
                0.010966918864361172,
                0.017157051061184977,
                0.02513478104004432,
                0.0186742286230058,
                0.0014077748863972042,
                0.009527045003026278,
                0.017862819763870632,
                0.010053447415588302,
                0.00670402203421187,
                0.005417906592171829,
                2.4915666534424843e-05,
                0.00032618470984141355,
                0.0005123292253143256,
                5.261612834781243e-05,
                0.00044769630031774504,
                0.0006553621496554857,
                6.0446042040768053e-05,
                0.0011576360333532994,
                -0.00174626655764847,
                0.00010867411306488372,
                -0.005534409016330803,
