{
    "1": {
        "biases": [
            -0.015482393727709692,
            -0.009975753378287173,
            0.03284801936070224,
            0.05697197505944773,
            -0.0059088568337912,
            0.00807346200534764,
            -0.05274631162352238,
            0.05070247974592558,
            -0.032230515937156395,
            -0.08537499386094757,
            -0.009985594716373843,
            -0.042928006295313445,
            -0.03651533230022633,
            0.0024068175343328296,
            -0.010012758885336355,
            -0.010460257538289781,
            0.010583137923251064,
            -0.005127088946424244,
            0.016514331145196442,
            -0.061383375045974464,
            -0.0010502970286822189,
            0.01563510907874919,
            -0.00465757191613757,
            0.007349050228246383,
            0.008785085300808728,
            0.06641121255234674,
            0.12560873376652568,
            0.00773440332622872,
            0.01984082131404216,
            -0.06559642288065784,
            -0.055180715140881846,
            0.02912140457510822,
            0.014146501868978704,
            0.01188461216797456,
            -0.027041589946328062,
            -0.06810463516455219,
            0.03762440328018583,
            -0.039951111946863294,
            0.0989890843380943,
            -0.08980553397336066,
            -0.00016327473731723806,
            0.0038806906089323225,
            -0.12431947868500245,
            -0.014309049198646999,
            -0.008934572001516383,
            -0.052053618490144574,
            -0.02330635191562542,
            0.03358680861290122,
            0.031539050152816626,
            -0.08294435119581291,
            -0.009209489787458378,
            -0.01686107978438072,
            -0.0024753555250041264,
            -0.012754113713288552,
            -0.05274114406094196,
            -0.06885819477252886,
            -0.020657821644805435,
            0.07166451165399078,
            -0.029728698706484927,
            -0.012578005580835688,
            -0.09891974879213322,
            -0.00504587011536642,
            0.02338000728277466,
            -0.01832983628382937,
            0.07652205846806766,
            -0.045636979093597055,
            0.06918112554284073,
            0.05678529429640912,
            -0.028624820562933223,
            0.09923345454126214,
            -0.1396576248321645,
            -0.042831891420473535,
            0.024910493601828294,
            0.05794970749875823,
            -0.04029040538309049,
            -0.05541523370279866,
            -0.046370022045801824,
            0.032750744428445444,
            0.020455801071276952,
            -0.011968236218257702,
            -0.039626587028544664,
            -0.07939131438463709,
            -0.015539548785110852,
            -0.04515782109435775,
            0.06375874741212194,
            -0.018161343126997718,
            0.017705403595610087,
            -0.08613845886045175,
            0.004846240488166595,
            0.02105390754648535,
            -0.002424258932986325,
            -0.05094483258554118,
            0.0007430501086588485,
            0.018280814715899703,
            -0.016973550899759226,
            -0.01349535494293723,
            0.047987713906670275,
            0.04797302063817772,
            -0.033130465662171545,
            -0.0014351517850528924
        ],
        "weights": [
            [
                -0.00033951797655571575,
                -0.0008784622794594994,
                -0.004488688857070315,
                -0.006743377052118338,
                -0.01029308812089822,
                -0.01245173526733828,
                -0.017488119280295273,
                -0.022068177735934346,
                -0.026529164147204097,
                -0.028810281213055445,
                -0.027646284348207515,
                -0.027289374652283198,
                -0.02769723219735145,
                -0.024078336091169997,
                -0.025297610418425792,
                -0.02614210909280073,
                -0.022027747509206108,
                -0.022705723481255883,
                -0.021637808949142807,
                -0.02551955011369063,
                -0.025568261950721483,
                -0.021419458007318832,
                -0.017864826988501295,
                -0.021887520577248187,
                -0.020131362735171673,
                -0.017218656497092637,
                -0.013419797786572983,
                -0.013520092792027876,
                -0.00048033229550289384,
                -0.0024023019754778343,
                -0.009484593424765462,
                -0.019178986756933334,
                -0.024286901343763552,
                -0.03588142543543525,
                -0.043777897900246145,
                -0.05092916764195025,
                -0.05092597464623298,
                -0.051968596024322584,
                -0.054814440354164135,
                -0.056100865223640835,
                -0.05648090816638715,
                -0.05322641306659706,
                -0.05550606703124736,
                -0.05369488249579865,
                -0.04746042603946856,
                -0.04552812801454385,
                -0.04664083959079827,
                -0.041768188256763705,
                -0.04175929914446223,
                -0.043462220215430336,
                -0.04722264104755179,
                -0.04680310378001939,
                -0.04221882244672691,
                -0.038150391641253334,
                -0.030561401836357353,
                -0.029102341316212837,
                -0.0017786431047744715,
                -0.008346123948161869,
                -0.01859403258958143,
                -0.030783919985168547,
                -0.03612148956122765,
                -0.048641240091838185,
                -0.06357658269940202,
                -0.0645972566695176,
                -0.06798553246155489,
                -0.07283398532445695,
                -0.08296416223369622,
                -0.07744384762240601,
                -0.08375967592938245,
                -0.08720863449189005,
                -0.08287037448835965,
                -0.07769153989191195,
                -0.07033894924456391,
                -0.06924749793028838,
                -0.06754915470556155,
                -0.06791206720399333,
                -0.06679944099377681,
                -0.07169668841770063,
                -0.06655270226388402,
                -0.0657138642367699,
                -0.06226431727926646,
                -0.050929887796091804,
                -0.04359448984551174,
                -0.03737161571609951,
                -0.0027493714422251983,
                -0.008726868001359304,
                -0.025736681787572834,
                -0.039700077155702326,
                -0.04628597138603627,
                -0.05918420704258118,
                -0.06624684019704213,
                -0.07518179731684208,
                -0.08485674947952816,
                -0.08619730148405932,
                -0.08848768435350708,
                -0.09381992539781411,
                -0.09342362541319696,
                -0.09522338933933024,
                -0.0922769591768357,
                -0.09156240582883862,
                -0.08372032136548371,
                -0.083175839781988,
                -0.08308410737854673,
                -0.07778772968904081,
                -0.0764309226533146,
                -0.0812768520433624,
                -0.07002150892442077,
                -0.06216061092790794,
                -0.0625708119514626,
                -0.054981403621735606,
                -0.04202931620288638,
                -0.03890481129468985,
                -0.0026250160099492584,
                -0.016063468949162853,
                -0.033825340273485,
                -0.04218228131920922,
                -0.04546015960589499,
                -0.05277126022146956,
                -0.05998418749019821,
                -0.06526634147840309,
                -0.05950897558186388,
                -0.05594878138544785,
                -0.06068892566522237,
                -0.06262032334029108,
                -0.06623816293836823,
                -0.058069612350836006,
                -0.056066142054890994,
                -0.054158044349154305,
                -0.05790265168399493,
                -0.06494685131715502,
                -0.0640405607870892,
                -0.06721932393642512,
                -0.05409286188951668,
                -0.05156175703427832,
                -0.04493121004235644,
                -0.04549971988145265,
                -0.04676458053955954,
                -0.04527242426357675,
                -0.041962276087149135,
                -0.031370860081014876,
                0.0006413001059445985,
                -0.015578421038908186,
                -0.029834488746541637,
                -0.038660710761669985,
                -0.0378934110017211,
                -0.03205715409823557,
                -0.0376089497196953,
                -0.03006117779998598,
                -0.023548856599194576,
                -0.02136152567355787,
                -0.01833253809686416,
                -0.019457848829701602,
                -0.00986349417458982,
                -0.004844565856484169,
                -0.006909931240147573,
                -0.009590402762575828,
                -0.011100367585963203,
                -0.01569081986736383,
                -0.016107324586908767,
                -0.023091061378438582,
                -0.021410655391805002,
                -0.0166785307242764,
                -0.014209819490488811,
                -0.009082557179026656,
                -0.019100394506863374,
                -0.026745260360541683,
                -0.03084771009728153,
                -0.015647288870754183,
                0.0014343676674253663,
                -0.016981021211594303,
                -0.03366312892960862,
                -0.03450190228754047,
                -0.02541447676783451,
                -0.012643377142152235,
                -0.01668276215793549,
                -0.00953869038293213,
                -9.385459072971953e-05,
                0.004167816451019919,
                0.004977045387152337,
                0.003843038064057074,
                0.013818234080999617,
                0.019143353905539767,
                0.016018861252562088,
                0.018167152718354715,
                0.010592316253632245,
                0.013554922961259746,
                0.009189223756386544,
                0.010000767251657631,
                0.011930841582137613,
                0.014458050288938165,
                0.015496185283651105,
                0.007242609635059581,
                -0.009508047344551157,
                -0.015054635140551812,
                -0.011141404897691607,
                -0.005766883218399106,
                -0.004403665726431475,
                -0.019667007020725255,
                -0.028426178350708025,
                -0.026494388325115345,
                -0.008548055868356457,
                -0.0003754970431434306,
                -0.004971447613447575,
                0.005001668843513492,
                0.00958399899974986,
                0.013557200149445227,
                0.01792386342125738,
                0.02074702769810245,
                0.016859769092081,
                0.014171163887648297,
                0.014710870828829372,
                0.014354017811966043,
                0.012738980918310074,
                0.02194649609901843,
                0.022633600172749443,
                0.025030561427496247,
                0.024593308483849104,
                0.017974928866802322,
                0.017858474132947014,
                0.010652502274275685,
                0.0018496901684962122,
                -0.0031779515697086228,
                -0.005738763450746938,
                -0.0004315552765287805,
                -0.001499939502107675,
                -0.01307998420966623,
                -0.020013087656021736,
                -0.014405911474783244,
                0.008563977230947435,
                0.014363836387669093,
                0.02371406699999435,
                0.03222716342154688,
                0.03513442113165704,
                0.03527016961072051,
                0.04080329876942143,
                0.052220268620303774,
                0.04211823736070682,
                0.03971875105592661,
                0.044595245865238074,
                0.04074692975423927,
                0.03153601803069012,
                0.03319120710811626,
                0.031923394171595655,
                0.028616082281803932,
                0.026736369870234172,
                0.02355926606225741,
                0.03325142305935393,
                0.023580458962084907,
                0.02073286032471178,
                0.007775102501490255,
                0.004034444403107886,
                0.018781645240179275,
                -0.005311990789504651,
                -0.004347838555007667,
                -0.00884484655350053,
                0.0023874121448353098,
                0.022100944096457926,
                0.012406172623428264,
                0.02222033803761091,
                0.024961089133118005,
                0.033323791535315665,
                0.03356559944776501,
                0.03720173873723784,
                0.0382134358363483,
                0.02602238354803271,
                0.03364140716031226,
                0.031786592619160337,
                0.02771074288914888,
                0.02771111925660881,
                0.018533436829356063,
                0.013129326151765972,
                0.015215980565132594,
                0.03248931141684623,
                0.01601768282154314,
                0.03507561445446883,
                0.03546153849209311,
                0.020407322732683808,
                0.01962459474346809,
                0.019777732930479124,
                0.030105601675480567,
                -0.0012477908135483308,
                -0.00040747781255779357,
                0.011717563512117059,
                0.01589580644859185,
                0.0175843930398938,
                0.01371996610704125,
                0.005721490216134206,
                0.017009917673221922,
                0.018906831721731628,
                0.009198048235316919,
                0.0038308342811027513,
                0.0108529011636339,
                0.00777262959471429,
                0.01173842018924582,
                0.020896174589392358,
                0.014933576329953976,
                0.01108155961600047,
                0.008423505220477528,
                0.0009073043160151801,
                0.010036623419292678,
                0.013314720499976932,
                0.013480985113260345,
                0.023829344598315632,
                0.020033920230096758,
                0.017930822775221827,
                0.01711653046661927,
                0.030907527207146363,
                0.04088500808553004,
                0.004531110871417536,
                0.016789954605878395,
                0.03343803269174737,
                0.02703533236571932,
                0.019474218778476653,
                0.004343279920754001,
                -0.005246531355729208,
                -0.002899782613240077,
                -0.0062836134371502044,
                -0.008211526877677372,
                -0.006646341395133554,
                0.008629181856248364,
                0.0048568978020559475,
                -0.0022901271990842546,
                -0.001223582361456978,
                0.013350775459753115,
                0.01676737759361526,
                0.012159106425079681,
                0.011119858143946901,
                0.009603055857079715,
                -0.0018583433510740623,
                0.006322651468052735,
                0.0014959403957343792,
                0.0054136389709342975,
                -0.002254096357837893,
                0.012159732755896033,
                0.019885509045990343,
                0.03385615895126341,
                0.007033181153757449,
                0.03318083130960943,
                0.04587134262706221,
                0.029463385308330314,
                0.013679325748558008,
                0.0022568590414996717,
                -0.0025060342163888737,
                -0.004579884998794432,
                -0.003966876452208457,
                -0.00960664079135068,
                -0.011315699389158714,
                0.002214923325515706,
                -0.002161677722811885,
                -0.006900748531488349,
                0.004142089233940939,
                0.010105391293361587,
                0.011495682091949445,
                0.0034452524091206065,
                0.0025809231865116687,
                -0.0021025531462857783,
                0.0039680666885256,
                0.0019815108511798737,
                -0.00428992600152232,
                0.0030686116607111526,
                0.0032906896925121863,
                0.01482523887295303,
                0.012362949417812836,
                0.02783041335192651,
                0.0118068678416176,
                0.04330638390114469,
                0.04816890396903573,
                0.03440654578796121,
                0.0228854770290538,
                0.02080869212911693,
                0.007044007412546392,
                0.007308157366735499,
                0.003808247467848418,
                -0.005758192826088391,
                0.003988354891359518,
                0.012587436739593645,
                0.0011048054793817074,
                0.0011041147918522652,
                0.0070930724641577615,
                0.0040071790689414615,
                0.002316342002136174,
                0.00528521194185375,
                0.0006430338189862433,
                -0.003116662478302102,
                0.002627639869097963,
                -0.004520050458957989,
                -0.002497179649939756,
                2.0751052012807017e-05,
                0.007785427424876959,
                0.011736175361759105,
                0.011844132918867118,
                0.01617308905067301,
                0.01606707363256337,
                0.0347053257535279,
                0.0473768298639988,
                0.03530424992261914,
                0.02884267145790677,
                0.022190890280663456,
                0.019462236685133267,
                0.019064462981923304,
                0.023519476508709634,
                0.013529901099903019,
                0.013227506754123576,
                0.009198604450085105,
                0.01792151760282125,
                0.013314320479073034,
                0.009880145732402873,
                0.007315726663123585,
                0.003168027870487245,
                0.005837116831750938,
                0.0044966095915021055,
                0.004324667815490923,
                0.004178057079493887,
                0.0011512135335993137,
                0.003146904797661336,
                0.0029876037058976434,
                0.009511773422756735,
                0.009542918940010563,
                0.005418750573083176,
                0.011260656588682777,
                0.014082907028513045,
                0.02935699268405506,
                0.03244000736268272,
                0.029387086890558415,
                0.024226885514880288,
                0.020173846937566728,
                0.013722119738878068,
                0.023101034801418983,
                0.014534392478094075,
                0.006287488702128001,
                0.008092919775298772,
                0.010531097741067032,
                0.011153234812867436,
                0.011932704071373116,
                0.014929392938673887,
                0.011342623276243077,
                -0.002288153862045847,
                0.005765401509158869,
                0.0036346353345966986,
                0.0033204896274138104,
                -0.007154055824321154,
                0.0020238952912342988,
                0.0028696972615932996,
                0.006113740697910166,
                0.008351680586144166,
                0.012815489482696256,
                0.007728259580553501,
                0.00018569885218602746,
                0.00870670626459124,
                0.022593393900114365,
                0.02335958323846467,
                0.025181957343093354,
                0.01183892466592491,
                0.004802554794494753,
                -0.0024345182315830423,
                0.003321769127436314,
                -0.0029317731027615583,
                0.0066119767141697575,
                0.009354042525249023,
                0.006629447738719857,
                0.009735727302398026,
                0.005798756888235429,
                0.02085485078572064,
                0.01846949499437988,
                0.008683263257350814,
                -0.004136565965086874,
                0.009349339689994454,
                0.008694777383996807,
                -0.003819332834073777,
                0.005658679364143951,
                0.011321906462423583,
                0.011534725041929731,
                0.01836801939678491,
                0.018895900841656214,
                0.0011577772403258196,
                -0.005220497524068625,
                0.0037606324916271304,
                0.01878905887994286,
                0.010281541323622311,
                0.011106757570111002,
                0.005365975126914978,
                -0.003968153657999652,
                -0.0020453161516581332,
                0.001820601112444955,
                -0.0037571050052543488,
                -0.00035350755842052486,
                -0.00426606905102416,
                0.012051767019954059,
                0.005768795562008739,
                0.010589193189562474,
                0.012753841438755409,
                0.01226521942827026,
                0.005568448447677978,
                0.007711299040093263,
                0.005884303469467187,
                0.005363407312569868,
                -0.003131858921805143,
                0.005425423864695615,
                0.013254534365242009,
                0.014587324464440438,
                0.018558405019380674,
                0.012739639592136196,
                0.0003243538715635393,
                -0.0066552409141393916,
                0.0007214167457604069,
                0.0028102947601796498,
                0.007453925607524862,
                -0.0026990763025942794,
                0.0014753849337257245,
                -0.005180597054232777,
                -0.0036898699485723285,
                -0.008633311873815639,
                -0.0028913007314529866,
                -0.0024217029378753347,
                0.0017840921557617157,
                0.007206871349305722,
                0.014542271169213025,
                0.007906367831866757,
                0.008729002515512422,
                0.00040391628470699283,
                0.0005255283520208681,
                -0.00180884394630561,
                0.007393505793699166,
                -0.006331560140751189,
                0.0002234226230513631,
                0.00263207273887902,
                0.017626770740289815,
                0.004171811219913997,
                0.009310245951806262,
                0.006527183695343799,
                -0.0028612047194062616,
                -0.00997074642586196,
                -0.005212030166610016,
                -0.0022435674385440337,
                0.001369677050004328,
                -0.0021943670399327047,
                -0.005827795139292709,
                -0.019599078718770025,
                -0.004642757141403999,
                -0.0038395092919097755,
                -0.007364090797635682,
                -0.008327676248239794,
                -0.00010589886310208763,
                0.0025111890809624868,
                0.0017855263980023298,
                0.00689581610995528,
                0.005834253514883193,
                -0.0025563623330475656,
                -0.003495801133119495,
                -0.0024351704174090313,
                -0.0012564152889465996,
                -0.004200611877704121,
                0.0041507081050415374,
                0.017049392365679122,
                0.01618387697599878,
                -0.000935375509709934,
                -0.0036938213294851144,
                -0.002527390545798955,
                -0.009973994306845847,
                -0.012581027132144332,
                -0.004949589387389981,
                -0.014919400447843185,
                -0.01487413194841859,
                -0.004843745694265494,
                -0.0045656765836093426,
                -0.012919371810795447,
                -0.00534564259424826,
                -0.0006943935477994036,
                -0.006806323721713298,
                -0.0070370074731599735,
                0.006333432048732502,
                0.014851730051422873,
                0.010471455491444306,
                0.006156661349344603,
                -0.004702966277190027,
                0.009931985430417732,
                0.012160189985500013,
                0.0063251044019242255,
                0.004530629879563547,
                0.005271271914197822,
                0.015544678392499242,
                0.007714365423138656,
                0.0004529323160903894,
                0.003181179147260844,
                -0.004735023511992449,
                -0.005434514234903657,
                -0.014130833977172583,
                -0.010185634487913172,
                -0.004675641110863071,
                -0.016284450232441277,
                -0.023124769464077183,
                -0.017367443294189534,
                -0.021744873090241378,
                -0.020663659708422846,
                -0.01717551507896703,
                -0.01555614321075948,
                -0.02047899382944549,
                -0.010959848560483876,
                -0.007360357076339258,
                -0.003953155283473729,
                -0.007897269811896571,
                -0.010403582818399747,
                -0.006163359122537346,
                -0.001842118741676156,
                -0.0035083060230828977,
                -0.011231283274733656,
                -0.0107442201420908,
                -0.0034791087143740784,
                -0.003467550290498133,
                -0.0035080006285469127,
                0.0010455534838510509,
                -0.0047965489641271335,
                -0.0022927011682023,
                0.0005692272255116304,
                -0.008999977281619925,
                -0.010751838100148316,
                -0.006221947540455504,
                -0.012142661186192439,
                -0.018734710578015134,
                -0.018130273681080816,
                -0.019912775083422787,
                -0.026585880881415214,
                -0.023470123614068642,
                -0.017327303170716242,
                -0.016172336716360643,
                -0.010354093574398496,
                -0.0069596607926980065,
                -0.01783158480622145,
                -0.0124292745744303,
                -0.013243832128279169,
                -0.014499477618599025,
                -0.013970957721008913,
                -0.011397613664231351,
                -0.017045763925526165,
                -0.023189212942954108,
                -0.021017241545564228,
                -0.011289097194746219,
                -0.006627584572852692,
                -0.004861171685000523,
                -0.004198588390554155,
                0.002211343642657382,
                0.0010452123088009963,
                -0.006244433602769824,
                -0.008903087657566623,
                -0.004328086045218424,
                -0.016610556240241103,
                -0.010480876163444992,
                -0.011636156878164994,
                -0.026378879221570957,
                -0.021548435760435938,
                -0.03111643340001782,
                -0.024537052680678663,
                -0.021436875048825948,
                -0.011983436450124754,
                -0.015803835845166894,
                -0.023215774507891057,
                -0.021689358821006706,
                -0.014377416625372895,
                -0.023586010423544693,
                -0.02741375614238594,
                -0.02464578098725138,
                -0.024573462782922,
                -0.022860202080083224,
                -0.014492598824809676,
                -0.010498980535579893,
                -0.01068641354207342,
                0.002798450420933423,
                0.01320815522952052,
                0.006893175015774639,
                0.007900033865261068,
                -0.005180133358241262,
                -0.006015811112876793,
                -0.0012109016268926148,
                -0.013450978394360295,
                -0.011699361711105418,
                -0.005938089461115111,
                -0.019198748404171247,
                -0.012960634317034474,
                -0.01025496439702365,
                -0.009935182390744996,
                -0.005483307018209748,
                -0.006367683573870629,
                -0.013213895064225312,
                -0.010621211109558491,
                -0.015585401609081548,
                -0.016570869959280567,
                -0.017813771377431294,
                -0.020421472780686803,
                -0.02035413014160481,
                -0.02452374724430343,
                -0.01440141192651606,
                -0.00944542618733473,
                -0.012612027572295919,
                -0.0018838198895677653,
                0.0029916875685322966,
                0.01257552216725639,
                0.006719693863738195,
                0.003927103334393447,
                -0.0015103804424066157,
                0.0002985861225232281,
                0.0002126660671324941,
                -0.0025479857094692737,
                -0.008149409860675964,
                -0.009720129851349285,
                -0.00854299035769848,
                -0.008521883496620135,
                -0.005639876728724009,
                -0.007124353658477541,
                0.000615192864978464,
                0.00800749256514759,
                0.0008144446612826354,
                0.005302740415443329,
                -0.0006036053966663003,
                -0.005707085446614844,
                -0.010766930711700392,
                -0.018278839774891094,
                -0.017623277175937972,
                -0.014700993678168801,
                -0.011683953598774437,
                -0.013778902389717476,
                -0.010058602140589394,
                -0.004446067424358068,
                2.904628775206356e-05,
                0.006947067469488536,
                0.007591848486005762,
                0.006118532010183922,
                0.007438362171535463,
                0.0040705481790561234,
                0.0005972697415924909,
                0.003322505833607832,
                0.0038090501822167842,
                0.003293996240202118,
                -0.0004189383935840308,
                -0.0024414819370236402,
                0.0009585137593799088,
                0.0056205912306296875,
                0.011974068462175063,
                0.011329998076224885,
                0.010884433465745302,
                0.008541793482790765,
                0.004694105270215448,
                -0.0036104741944520302,
                -0.0029553629109622176,
                -0.009172475780816834,
                -0.009327295073717773,
                -0.006134255119266298,
                -0.006920975020360074,
                -0.0017743979017081132,
                -0.0029431345804309546,
                -0.0024124659386264495,
                0.004653197790424261,
                0.009462300821459949,
                0.013980055539696288,
                0.010797384190500244,
                0.008657417980715064,
                0.005228548687316321,
                0.0014151934112129037,
                0.0036258912663833316,
                0.007066183577044254,
                0.006227148706277545,
                0.0008742610396234768,
                -0.004124247811274724,
                -1.950767917010838e-05,
                0.0063012180223266405,
                0.003994988307307818,
                0.007676816943232443,
                0.011574765579904129,
                0.005335945879985045,
                0.006724665989685854,
                0.004317184685041269,
                0.004320871629175716,
                0.0034014382934212765,
                0.008613116285412638,
                0.00975952331624665,
                0.007213408883213886,
                0.0083017945075713,
                0.003408860041143721,
                0.004120120436103562,
                0.004675584961434439,
                0.011906400519424376,
                0.007796166874711245,
                0.007140622124631936,
                0.005210901236492426,
                0.0020643204523395895
            ],
            [
                -0.0029821766943681992,
                0.0017152347797905255,
                0.00397473477204916,
                0.002982984698571775,
                0.002288080072749333,
                0.0029632021595932274,
                0.0010145994251754317,
                -0.003597497104407344,
                -0.007961299710116285,
                -0.008369513326571777,
                -0.01037035251151372,
                -0.011362717555738588,
                -0.010983608235989845,
                -0.009499672547423493,
                -0.0057637740531414515,
                -0.008378183980462186,
                -0.006353593388589197,
                -0.004933315940615102,
                0.0018529199049063052,
                0.007829800311615098,
                0.00978151906338855,
                0.003507642543872826,
                0.0031501803445583257,
                0.0035506371991576363,
                0.0012688502626017042,
                -0.0033247523139924378,
                -0.0007776854351395405,
                0.001265612342853564,
                -0.0010802682236009573,
                0.0011381458901553762,
                0.004818201060706539,
                0.00750641417089674,
                0.005750405585142759,
                0.0065800721607341085,
                0.0018087328639615494,
                -0.0013965754522089434,
                -0.013867763970479301,
                -0.018685333790246228,
                -0.01698924432096167,
                -0.018325383492872497,
                -0.020320030056326075,
                -0.01626663128534247,
                -0.013697353305307539,
                -0.011251649875335243,
                -0.006235715970244919,
                -0.0008092373367247353,
                0.009204765299353032,
                0.01082497257435608,
                0.016472254802003834,
                0.010612168417302678,
                0.011188449199918425,
                0.009013011751441627,
                0.0038797298448073505,
                0.00023907395949411393,
                -0.0008354334508941766,
                -0.0029146202511289095,
                0.0008593482020957189,
                0.005018205387106566,
                0.0065307990677072,
                0.010177084333070562,
                0.006645118836432795,
                0.007721500269201352,
                0.005192651756226608,
                0.001606820266544875,
                -0.008767872028505508,
                -0.013545071469890256,
                -0.02051960938901673,
                -0.022459396515184034,
                -0.019691486991750846,
                -0.01550168868283905,
                -0.012645256777122487,
                -0.010246478276882324,
                0.0007728764863431873,
                0.006390814872548101,
                0.016717726854103533,
                0.020576981288470624,
                0.01996719778044394,
                0.01302981917971014,
                0.0131159232072812,
                0.014265723344870465,
                0.005167499499297916,
                0.002898819366856318,
                0.0005659765777674717,
                -0.0002845297887372521,
                0.0013881314427925998,
                0.004844620077824153,
                0.011584555125486883,
                0.010654567072808034,
                0.011899134163736814,
                0.00971555388133637,
                0.008134636115604381,
                0.0019937904657176494,
                0.0015193265750861953,
                -0.006485967955609068,
                -0.021651641265288752,
                -0.016324478357561924,
                -0.011872907388904492,
                -0.011086815000786815,
                -0.014026607526461546,
                -0.015174642198746247,
                -0.00807928095371564,
                0.004273591977096449,
                0.012712234689056752,
                0.016278031509483745,
                0.025134379232010506,
                0.03087592484441678,
                0.023180968754750165,
                0.01940518908808891,
                0.01321516630958541,
                0.013556105756212201,
                0.006374528135564877,
                0.0018475461997463042,
                0.0008983115625784506,
                0.008097356441740299,
                0.009503497438876903,
                0.009804092623126147,
                0.010695552758158915,
                0.011222393733486151,
                0.014491657337324996,
                0.013760807927509488,
                0.0020528219748200834,
                -0.012370070911805192,
                -0.01858833298426965,
                -0.01783936182165026,
                -0.01533217726880227,
                -0.010158359229856768,
                -0.011191347143953409,
                -0.012937592609509673,
                -0.012080716973485924,
                -0.007511937141315969,
                0.007647371815873866,
                0.0218051255915427,
                0.04262718705638821,
                0.048073622362937427,
                0.04191064302467568,
                0.033620463737250014,
                0.022557311228956413,
                0.022380881306779468,
                0.010586287239986902,
                0.0009759969194679765,
                0.001944334772998997,
                0.004866832105586914,
                0.005881207543282042,
                0.011873627267821348,
                0.012010958161197809,
                0.017671299091437394,
                0.02147111211731253,
                0.015935339270719225,
                0.0022691940709419142,
                -0.013744336052779547,
                -0.024015994910335795,
                -0.02280940875835695,
                -0.01886843678678473,
                -0.014685779249085255,
                -0.017679499317618922,
                -0.021327114550981588,
                -0.02204178108758055,
                -0.014653187007289042,
                0.005455851881606686,
                0.029132653709884118,
                0.05098295851286601,
                0.06108289770191501,
                0.05016075711077456,
                0.03619579883248033,
                0.02626184460836931,
                0.022358817750727598,
                0.015653134351280313,
                0.00214612212735355,
                0.003408575698739061,
                0.006425617405200156,
                0.005850606593042575,
                0.008940734469088022,
                0.01269860546680645,
                0.016965290725560297,
                0.019806427904612543,
                0.015297110430979708,
                0.0020360260156360465,
                -0.01540412941967446,
                -0.022549886204105102,
                -0.024927891999988024,
                -0.022734953674171252,
                -0.01869071930349521,
                -0.01972831069735107,
                -0.026158803233848536,
                -0.02911976077274474,
                -0.011211476614248912,
                0.008138347851998455,
                0.030760443164154695,
                0.04954030952964837,
                0.05360868456184026,
                0.05278046341155989,
                0.039821273684596016,
                0.029533800312504313,
                0.01872810022066934,
                0.011097783412599304,
                0.002106047842167702,
                0.0032322067049144615,
                0.007018450683367711,
                0.005009329182275976,
                0.007067672989015023,
                0.012323668054088988,
                0.018592423318340913,
                0.024038781797584997,
                0.018642416434685477,
                0.0015517904065478721,
                -0.021650112542707076,
                -0.027904312018428374,
                -0.023725561733234417,
                -0.02024002204643599,
                -0.020263988408606312,
                -0.02848471394437782,
                -0.03190290583206658,
                -0.024887455905021217,
                -0.012276434360603878,
                0.011612748986250216,
                0.030158171575690212,
                0.04092645415225142,
                0.05363221185701004,
                0.04777164528621528,
                0.04264994841082257,
                0.034575169383124375,
                0.023097404173165394,
                0.008950135452648408,
                0.0004806347586193259,
                -0.0004851569690759883,
                0.005699204667761655,
                0.007161659594490787,
                0.01034620506458114,
                0.01289078476378431,
                0.018065052679207865,
                0.02200436925765476,
                0.020589028054453385,
                0.00014144127867479729,
                -0.021498532710545724,
                -0.03252070189796204,
                -0.030592158760344258,
                -0.028248909002386902,
                -0.028412599866115613,
                -0.027393210083117746,
                -0.025507957944075264,
                -0.019291312681029328,
                0.002545837982774429,
                0.023541764681989052,
                0.029359423067340896,
                0.039326007290252596,
                0.05256029411006872,
                0.03757054690963528,
                0.038422138827956864,
                0.03509438370853092,
                0.027029887477980793,
                0.015049709921873407,
                -0.0017082177348450708,
                0.0015736119497741343,
                0.00470597130842868,
                0.007487612169114001,
                0.011504975531487015,
                0.01048818321990455,
                0.01345844956464392,
                0.01889224880382637,
                0.012287165024872138,
                -0.0013556489184602901,
                -0.015020869081128069,
                -0.024941021308864303,
                -0.02523382076928414,
                -0.024494775774396488,
                -0.02178628755341031,
                -0.020154949741303763,
                -0.020888395069555313,
                -0.016265320834944787,
                0.007050460415896319,
                0.01747455052855585,
                0.030529501609474596,
                0.02998432198224598,
                0.04030463376135902,
                0.028789183481570724,
                0.025291450558567057,
                0.027052977388135002,
                0.023034794203151132,
                0.007296546039357515,
                -0.007282302890048002,
                0.0025176389297386008,
                0.0035571638581709648,
                0.007722442921456418,
                0.008553851657567365,
                0.00918324677811804,
                0.009541806374989588,
                0.014584021809779147,
                0.008394670938916153,
                0.0020709848752347676,
                -0.004865994412157933,
                -0.010400125876711755,
                -0.010422166048394832,
                -0.010509752850950696,
                -0.014879992621386005,
                -0.02330034575629068,
                -0.020089856434628565,
                -0.012174102231815953,
                -0.003777059121669944,
                0.011137650861128431,
                0.023927950539840773,
                0.026508143674877516,
                0.026139078530058785,
                0.021140184048607354,
                0.023783583000822766,
                0.02514430461419159,
                0.02009868760367364,
                0.0030877707061857636,
                -0.009211895272070078,
                0.0007025682105279002,
                0.0029327383675105236,
                0.007950602683248847,
                0.00528753264339423,
                0.006091409700514477,
                0.0045083365486259935,
                0.006357552946788325,
                0.0036242242073708654,
                0.005731189986755533,
                -0.002153482004294997,
                -0.006411220410194914,
                -0.007247156194154887,
                -0.009323508846104193,
                -0.016188086092994745,
                -0.011738067465871197,
                -0.0060904624503045676,
                -0.007585519356859944,
                0.0011074939043629296,
                0.008310445193030036,
                0.014118672206764235,
                0.027624931042188217,
                0.026506519396410612,
                0.018275851171262802,
                0.022627569009040928,
                0.026576610904401415,
                0.017145180585048388,
                0.009246247500212948,
                -0.006749667642560586,
                -0.0010057119370876382,
                0.0018552299953540714,
                0.0015161873871172662,
                0.005572204377861929,
                -1.1282661977855702e-05,
                -0.0008393289413007072,
                0.006611556780051502,
                0.007415710156176598,
                0.011693170347521516,
                -0.001436741149982835,
                -0.010359191890573662,
                -0.013057960680364708,
                -0.01307051783157717,
                -0.008634291821739606,
                -0.008303787897474345,
                -0.006655895598994496,
                -0.013273246465805235,
                -0.0028696359981778036,
                0.010834957122155596,
                0.01970588378810139,
                0.02529643211672482,
                0.024870186535697232,
                0.02037738947516286,
                0.01404245740914184,
                0.01051305610458527,
                0.009894453542271482,
                0.00044813551646008716,
                -0.004821387447931779,
                0.0022034720154900976,
                0.004873977318496561,
                0.005560206690703516,
                0.004499059636932519,
                -0.0003233742606591804,
                8.79384897146631e-06,
                0.005863494253585061,
                0.00646595953531786,
                0.00780819893129491,
                -0.0016508762179213731,
                -0.009771628097323874,
                -0.009980651731563487,
                -0.009985583152755198,
                -0.014077745687181838,
                -0.013410651999238127,
                -0.011743121704728913,
                -0.020845942416109573,
                -0.012320624743224689,
                0.008790164315720841,
                0.014665478701751996,
                0.018745468476656275,
                0.028185752263753933,
                0.023412353356682288,
                0.0063386320979312155,
                -0.003323185359596252,
                0.0005747189079905802,
                -0.006914619360140437,
                0.00015759752640821318,
                0.002197008953369175,
                0.008002872213538475,
                0.009933115892287719,
                0.003402603863761282,
                -0.004398417809751459,
                -0.003916445462927354,
                0.004925767340716482,
                0.0078306119563278,
                0.009075014763502507,
                0.005462836409156843,
                -0.009976493350513767,
                -0.014908882213915578,
                -0.015598596009038557,
                -0.024904298037626674,
                -0.02154909261636017,
                -0.015750505769817236,
                -0.022214896032986698,
                -0.014714242890103918,
                0.00261127975641876,
                0.016273089984454796,
                0.016193895177473213,
                0.02214588176586449,
                0.017712104975538254,
                0.003782518760873253,
                -0.007119698241236668,
                -0.010915683329515475,
                -0.009542253547678944,
                0.0011307408634811196,
                0.0009915236643233338,
                0.007313308418009211,
                0.010547042374379034,
                0.00764725724549869,
                -0.007009705359861204,
                -0.004395026143247765,
                0.006523019502443551,
                0.011010461361145057,
                0.01789538286572177,
                0.01156953454485842,
                -0.004139452517360084,
                -0.015273607826817153,
                -0.026280217274394214,
                -0.03311460434869125,
                -0.02751032196811556,
                -0.02479979172664859,
                -0.016774216980862552,
                -0.0026621133583044024,
                0.016229898799146332,
                0.010978757081202398,
                0.01804324441929179,
                0.012663011222499776,
                0.008989181481470215,
                -0.0014206715330006045,
                -0.009635680989289712,
                -0.011104482173425427,
                -0.006364775809635002,
                0.0043784903680244925,
                0.0019432100779733122,
                0.003045189201155382,
                0.005856743030684054,
                0.0028452086470348403,
                0.0021641358499969216,
                0.0034063126572465583,
                0.006655528351480689,
                0.009570703436701845,
                0.0169202119566155,
                0.01589463093877093,
                -0.0019355108900014604,
                -0.008388121224517578,
                -0.019593974866919585,
                -0.021843157923158787,
                -0.01993389482995612,
                -0.013180775260566992,
                -0.006599825483847326,
                0.006686624749012866,
                0.010165695443481752,
                0.0024713339760139025,
                0.0116793657006651,
                0.0013708897603754698,
                0.0007366202857674951,
                -0.007225616154927791,
                -0.017718774309394624,
                -0.01183330213340812,
                -0.002147936421971428,
                0.01070866955513632,
                0.0029043285051869134,
                -0.001485327899853881,
                0.005004905048127578,
                0.00583078486682557,
                0.0031282898939299555,
                0.0008009315278992812,
                0.006343802518345726,
                0.004414582280048333,
                0.01293809715999668,
                0.01288131491074798,
                0.0019520545705355727,
                -0.008095347861255708,
                -0.012030039414223717,
                -0.013185552489743842,
                -0.012333117580677495,
                -0.008846001250791047,
                -0.012351075395968419,
                -0.0021335182120203644,
                0.0014242399670671606,
                -0.0014657541103305443,
                0.006937329331337205,
                0.0010963741199091692,
                0.002449121359287514,
                -0.006339805383183914,
                -0.01778021691079728,
                -0.010438820972766659,
                0.0012711742341488222,
                0.009966670899471198,
                0.001579785568593506,
                -0.005082766722004633,
                -0.0025524906098347523,
                0.0030131022462877737,
                -0.0031429220356763788,
                0.0029966994563555838,
                0.004683217212163963,
                0.006300719263314462,
                0.014149623193054944,
                0.014035033569046892,
                0.011416718154250454,
                -0.0001566541563281838,
                -0.005787184482261592,
                -0.011283249833819188,
                -0.013258687877513766,
                -0.013316867306732753,
                -0.013313378496387175,
                -0.01056203250945213,
                -0.012800336372966327,
                -0.0066090025678340065,
                -0.0015136761448073938,
                -0.0025330985453089227,
                0.0012033325090687733,
                -0.009047452111068915,
                -0.011373129470951057,
                -0.013159463937018232,
                -0.004159819235375124,
                0.006240632433850272,
                0.0009706845854107788,
                -0.00325000578049941,
                -0.006091846320100573,
                -0.010026050937075766,
                -0.006925404709506677,
                0.003937168230898667,
                0.007883129813050402,
                0.014929642744536772,
                0.017903223460637878,
                0.012650345720474652,
                0.01318169253021349,
                0.006493727496543273,
                0.0009774710474638856,
                -0.005100743369092807,
                -0.010304776106733516,
                -0.01288840303857499,
                -0.012478781204198913,
                -0.01431174466387714,
                -0.011007243661721476,
                -0.013114223833844117,
                -0.01693745571913419,
                -0.01256042257892502,
                -0.0037543297319425502,
                -0.004283426967427605,
                -0.007389277647297078,
                -0.002166858955957106,
                -0.0002781093840543319,
                0.0057206793081576845,
                -0.001147523053397249,
                -0.00549425445139495,
                -0.007444395315020133,
                -0.00969556462816391,
                -0.0007141968464498859,
                0.00016476993978719028,
                0.005952451929037732,
                0.013326724654569123,
                0.020347333557660042,
                0.020238858603248297,
                0.018759601013485554,
                0.007324396976487913,
                0.003499377983823452,
                -0.004320654864418193,
                -0.007910057050736895,
                -0.008485141577377066,
                -0.019756793272758505,
                -0.01807399881382301,
                -0.019300867385399052,
                -0.016355835109487068,
                -0.012274812390767066,
                -0.0053284017215997305,
                -0.005599482550850365,
                -0.003678302325211251,
                -0.005816795117188196,
                0.004433163227665606,
                0.003476258145653829,
                0.009313195879593056,
                -0.0026393082270720837,
                -0.009203895215964568,
                -0.009401190374092245,
                -0.005984878074626812,
                0.0009541884569908052,
                0.004884633357653092,
                0.007667050575122088,
                0.010153772050252094,
                0.014401100105461768,
                0.016033173833809544,
                0.020260336412800808,
                0.0166376974152076,
                0.006216137890490361,
                -0.00305797543994387,
                -0.0034687602626880146,
                -0.001940159235735893,
                -0.008973494560691993,
                -0.009338245741092812,
                -0.017261892609359463,
                -0.015848789888994838,
                -0.008188657812987294,
                -0.010353525236577595,
                -0.01348608310387413,
                -0.003341216155816367,
                -0.0008638758952907439,
                0.0035874631501265396,
                0.004132570756472207,
                0.006383032296181147,
                0.00034979110383985215,
                -0.008024935347514984,
                -0.009295594317398948,
                -0.007934732656752234,
                -0.0026164440004845593,
                0.0038291683012347147,
                0.0020610244271683288,
                0.0072617916889043755,
                0.00930846072935519,
                0.01146830222442793,
                0.0158531418279515,
                0.02154062162434765,
                0.00796618747665377,
                0.0013799870893058809,
                0.0009261055850942094,
                -0.005570388174192004,
                -0.011332700799625107,
                -0.001598085938885963,
                -0.002049427570582806,
                -0.005135556615032848,
                -0.0003123861217578193,
                -0.01275615506829186,
                -0.0019652319567337083,
                0.0036145894792327373,
                0.001981388340610624,
                0.004060121866917497,
                0.0031432466120569426,
                0.007033302327559418,
                0.0014465301239992819,
                -0.0008582057396771741,
                -0.0020164478684013914,
                -0.00466628893881513,
                2.5303953982889295e-05,
                0.0009257178878151636,
                0.0026775311057497557,
                0.005237799133112866,
                0.008953909302058348,
                0.009742836244135265,
                0.01683430182307399,
                0.01456537642050648,
                0.015826826632633295,
                0.016904073251318406,
                0.010897550014123661,
                0.002235684633792268,
                -0.0023589080894119343,
                -0.00045222240126037904,
                0.0034383665219361705,
                -0.0004724582489189846,
                0.004046467009679113,
                0.004549134686144898,
                0.0028248386004799428,
                0.0022461921400716038,
                0.008878144140042853,
                0.005277001427043085,
                0.008106546222975538,
                0.004634841099296521,
                0.0023710643489545436,
                0.001614894041607471,
                9.209784650088043e-05,
                -0.004651880882067633,
                -0.004037364249838053,
                -0.002340135649379557,
                -0.001965965777448024,
                0.003644125433492038,
                0.006443182446998307,
                0.010633884911278441,
                0.016509873634539266,
                0.016750891143753336,
                0.020906057257221302,
                0.02427112623141544,
                0.013868080107111292,
                0.00254034501595346,
                0.0019405832240979735,
                0.00400216050381899,
                0.002739928511123236,
                -0.003800887697080754,
                -1.9172284267516507e-05,
                0.0021137814931398644,
                0.00586471850118808,
                0.004287252476535615,
                0.007331797750440834,
                0.006318266222330887,
                0.003500379341744467,
                0.0019232875391507335,
                0.000473919967478042,
                -0.0012786948577659506,
                0.00046895190561322016,
                0.0007276659921706055,
                -0.004622211063653103,
                -0.004749059899449526,
                -0.007254607857797714,
                -0.004823021975311654,
                0.0029610033759754906,
                0.01292586424950887,
                0.018873332025453486,
                0.018123614490519618,
                0.02575907067843471,
                0.023731657590207997,
                0.01676972840404041,
                0.010737872077953651,
                0.007753081441907506,
                0.008885287906700042,
                0.0032545298290699736,
                -0.00036946251829737944,
                0.0035540051018890214,
                0.009588758093990733,
                0.010370583646887737,
                0.009498099425263154,
                0.007947630177830026,
                0.007639769816649007,
                0.0012494958560235563,
                0.00031883935763058776,
                0.0019117304123812454,
                0.0036276406002867345,
                0.003720166395725996,
                0.0018963559642939081,
                -0.0022493128835966466,
                -0.003929877703282627,
                -0.003878537051314973,
                -0.00265778850783958,
                0.00017559515366552596,
                0.0031993785709478182,
                0.007904850619660151,
                0.012875524152153782,
                0.015874643145930886,
                0.016641040795798052,
                0.008219152459241815,
                0.007331661626123276,
                0.006664712867063671,
                0.006799113646940665,
                0.004969670181260723,
                0.00323445617120464,
                0.001585212938315863,
                0.004670827027752771,
                0.004519978021224152,
                0.006566477822641037,
                0.004269866765766695,
                0.00427366241766594,
                0.0033984726202434274,
                -0.00025046731279068977,
                -0.00028754750745157976,
                0.001414496655501336,
                0.0001879455697650683,
                0.002970893536924802,
                0.002265332597445095,
                -4.5133542072855187e-05,
                -0.001798156563339205,
                0.003613756668752116,
                -0.002026827846324023,
                0.001731303510465451,
                0.0035691252176058346,
                0.006891259109544609,
                0.006657470180814722,
                0.0055627752558233615,
                0.0030721388858819102,
                0.0036865945565426645,
                0.0029895777426257146,
                -0.0005558081215538449,
                0.0001986088287898351,
                1.140786620685475e-05,
                0.0012666467885171873,
                0.0044752519219755215,
                -0.0005990903986971779,
                0.0002073070320996379,
                0.001981689623857805,
                0.0024129944451199985,
                0.0013840227115096244,
                0.00231627227208803
            ],
            [
                0.0003193470155884902,
                0.00022631992242006562,
                -0.0010035364951592504,
                -0.0035862084366471,
                -0.002314729322542016,
                -0.0017020483587810223,
                -0.0014019964694361067,
                -0.001936872485935594,
                -0.0043019582463113305,
                -0.002809522972696016,
                -0.003117035755101654,
                0.00214201563606881,
                0.0002968668698994166,
                0.002182175036085701,
                0.003288253509497858,
                0.0048708934251377066,
                0.00883221123952202,
                0.0013481444388201318,
                -0.0018218246717320052,
                0.01217139096672297,
                0.008047381900274413,
                0.005907663046330854,
                0.00852750927316302,
                0.007853689247833548,
                0.007846468090403293,
                0.006642036352112837,
                0.0036983776591322927,
                0.0021295059472531915,
                0.000330598819996861,
                -0.0014088207067706746,
                -0.0024731564681457537,
                -0.006715795171582537,
                -0.0072987000150399614,
                -0.010164511330578146,
                -0.011640756793593774,
                -0.009442185618199123,
                -0.009146007697342187,
                -0.0062804671704935035,
                -0.00038462632024565237,
                0.0010556749087696701,
                0.003204806450583933,
                -0.0018553591372936055,
                0.007588612997639508,
                0.008888276585723052,
                0.00589679166565053,
                0.0033507201074349964,
                0.002237035260877226,
                0.0022432607716009437,
                0.0013296275764608661,
                0.0011223507156142684,
                0.007677711207129374,
                0.006945767684570783,
                0.008688803939773932,
                0.011003581824506546,
                0.007599151731767932,
                0.005266974657124197,
                -0.0021057926301041524,
                -0.00400198984254595,
                -0.00849187092144226,
                -0.009704301616239083,
                -0.012027988236882945,
                -0.013774525299393839,
                -0.011263738154876019,
                -0.010252785920740455,
                -0.010345914656323263,
                -0.004547327251103205,
                -0.0005379264004425456,
                0.0017858710631059762,
                0.0004419532384376826,
                0.003153706581238323,
                0.009128082716042586,
                0.002557574325990596,
                0.0005820837335814794,
                0.00157599770996307,
                -0.0033650874118086515,
                -4.332306514061223e-05,
                -0.0060755083374945005,
                0.00023658374970625845,
                0.003277595412796072,
                0.001783116573454295,
                -0.0027124213568856057,
                -0.004263508718012522,
                0.003558290769482965,
                0.0012462940445443743,
                -0.0037818712314279406,
                -0.008085325618870204,
                -0.009440808623019662,
                -0.012188805641656291,
                -0.014318913934689646,
                -0.011365847704676142,
                -0.004448387265270279,
                0.0020307912201720847,
                0.00018619801932750964,
                0.003116532200410005,
                0.006611505567296777,
                0.005404610448830333,
                0.010040203724995556,
                0.015688980156250452,
                0.005042997190276669,
                0.002802878667626641,
                -0.0018510619562064569,
                -0.0010924194807519277,
                -0.011166356503386668,
                -0.006472178027939552,
                -0.0045965803916182485,
                0.0007477084486258805,
                -0.004595737560165877,
                -0.00040766187990295456,
                0.0018157649467298055,
                -0.006003664929871103,
                -0.0025706500579415555,
                -0.004576715148549514,
                -0.0027903237143531412,
                -0.007221959084525048,
                -0.011075203729369775,
                -0.012351240997833662,
                -0.006772709436761569,
                -0.0057217600008450525,
                0.0012949899749056845,
                0.01534940736397358,
                0.012788610815420206,
                0.013818319971269151,
                0.013317732439240422,
                0.01680786882522577,
                0.011450950241537345,
                0.01609631006051615,
                0.011315925866955347,
                0.008434384797630201,
                0.0014317167842405527,
                0.0039026157747507977,
                0.0016403276246270972,
                -0.002411049868274843,
                -0.0025263073875219752,
                0.00683503812689535,
                0.006190018491726244,
                0.0015784469729169053,
                0.011399715953648302,
                0.0006116255298013597,
                -0.0027773276987115227,
                -0.008064870796525793,
                -0.0033936578716782205,
                -0.004570961229799136,
                -0.006033289584307795,
                -0.0075822052142967625,
                -0.0023597578360495357,
                0.002850604790255252,
                0.011134214504932127,
                0.019041862556609834,
                0.007550527791726417,
                0.006667432158438595,
                0.010705564515742548,
                0.014309444895587846,
                0.013333035268062924,
                0.018163240194776917,
                0.020500661601459278,
                0.016748685896831234,
                0.006676088192170106,
                0.009687355714329403,
                0.0003877387872749152,
                0.0003291657002449963,
                0.0009763015235622712,
                0.004613572079348993,
                0.0023021388422662,
                0.011912509452902507,
                0.008640460529848406,
                -0.0010815080382142227,
                0.002433556281360681,
                -0.011205029684884574,
                -0.005489894312561678,
                -0.007603755413918125,
                -0.00767336447416454,
                -0.00809232530417922,
                -0.0026234495743888333,
                -0.00010448859788338387,
                0.009514723708221158,
                0.007423293533059166,
                0.003943310317604639,
                0.001559071820162415,
                0.015304110685174864,
                0.015303792877659043,
                0.01994819676616573,
                0.02029228963202736,
                0.02087493698286463,
                0.026935417943308424,
                0.014181808340860929,
                0.019515051914711094,
                0.0063513428924768765,
                -0.0011156441740746987,
                0.004433847275211816,
                0.005515399620401639,
                0.013494096363465307,
                0.024047508767123266,
                0.014918780824628509,
                0.0009585434210226417,
                0.006730036245389027,
                -0.003817757669797952,
                -0.004269109998275183,
                -0.010135066245544359,
                -0.012494507506444113,
                -0.005404397430856863,
                -0.0007962106874150254,
                0.0029328152136235924,
                0.0015510009694949044,
                -0.0032308011828895877,
                -0.002358729315931222,
                0.002052585295715835,
                0.003972583512052971,
                0.003266899264681283,
                0.012157717302320053,
                0.014031326204283285,
                0.014584852475423364,
                0.01722904931587634,
                0.010491041085253483,
                0.012357212377129162,
                0.0071919289694926634,
                0.0025738698549749445,
                0.0034071461299615465,
                0.007952904556465402,
                0.01156895227406856,
                0.009560293714190555,
                0.005503735464400941,
                0.0007081386999116699,
                -0.0006970655025304168,
                -0.007173288274099925,
                -0.003818869290737378,
                -0.009320311627255802,
                -0.01606403207450365,
                -0.006161829476054277,
                0.0025410396064541557,
                0.0014054000466869685,
                -0.0035835645296520397,
                -0.007872426094193516,
                -0.009351776494617853,
                -0.01148303655171135,
                -0.01152224814742482,
                -0.010255650663293678,
                0.004209857385666354,
                -0.0056242970300109975,
                -0.0007538847446010676,
                -0.00284298537215276,
                -0.0062219974219613625,
                0.010823300557762693,
                0.018641187846068472,
                0.013315690691605207,
                0.01817276006928117,
                0.01542499585480668,
                0.009722518265745167,
                0.012906748201428802,
                0.012799030472696624,
                0.006918506281909145,
                -0.002529839676964471,
                -0.0032365623211941317,
                -0.005284214789194498,
                -0.011306691193480866,
                -0.01370016373072129,
                -0.008142828892193327,
                -0.0070636098132676114,
                -0.00752633394696385,
                -0.012076904198693169,
                -0.01078293343067065,
                -0.015215165107648384,
                -0.012360898568426457,
                -0.01013291978019563,
                -0.01140957137860266,
                -0.009502122189305798,
                -0.0022260879821013697,
                -0.009166281136982184,
                -0.008752551142712301,
                -0.0024827885052891015,
                0.012304448244694594,
                0.020531508597394606,
                0.016586106748456206,
                0.01621499109219191,
                0.014631018609906364,
                0.005985659663909475,
                0.008000863319718048,
                0.0015585153847211253,
                -0.005560816213464567,
                -0.012574195090827443,
                -0.0025330314584908545,
                -0.006864864772116979,
                -0.016076853729502284,
                -0.01738043167492886,
                -0.016338087296606518,
                -0.011835511477977201,
                -0.011028031281944115,
                -0.012703927318214165,
                -0.01482852128956471,
                -0.01417489129575612,
                -0.007689025150962017,
                -0.017648934663255886,
                -0.005766283758317266,
                0.0018706222461773105,
                0.0018580450626546697,
                0.0008453317448912997,
                -0.0003732173828861532,
                0.002165077181119415,
                0.004816901803681449,
                0.006348325638845929,
                0.015284375613347603,
                0.0195569150729032,
                0.018122942651283745,
                -3.120424174769534e-05,
                0.0005332647323551069,
                -0.004428530258198613,
                -0.009873868071179383,
                -0.011435553725532973,
                -0.0039672020894252254,
                -0.007331341542904404,
                -0.016696416746862723,
                -0.022161222404228006,
                -0.02177936770468668,
                -0.0164318162818373,
                -0.011095187736845273,
                -0.01040856713271702,
                -0.01866260070445831,
                -0.006713574371990004,
                -0.00302767349966095,
                -0.008872638670121447,
                0.016683017071392848,
                0.02148691186285802,
                0.01270675670805616,
                0.01712095153717936,
                0.015349052953040055,
                0.011131007917481485,
                0.003875815968186677,
                -0.003734970493333332,
                0.007011915672523987,
                0.00802662019360742,
                0.024777321759768354,
                0.007603609432388358,
                -0.0030381177934325756,
                -0.005397965397827978,
                -0.011657724431422751,
                -0.010284050815626505,
                -0.0038663734550950244,
                -0.008531789631179416,
                -0.017820252001516677,
                -0.01898261881772792,
                -0.02112217172631607,
                -0.017882511665328095,
                -0.01496075600791976,
                -0.01054762331379657,
                -0.013517935837245728,
                -0.007790415408600027,
                -0.009107880483662557,
                0.0029558994891528763,
                0.01828763682552561,
                0.021332171520521016,
                0.039483943165254366,
                0.026930899169234624,
                0.013680456229575217,
                0.008086174800954212,
                0.0014605884512723449,
                -0.004612251151075783,
                0.0010568279288938921,
                0.014234274010070672,
                0.021657881686108847,
                0.009269064443115236,
                0.0006897234919310718,
                -0.0010498031199536301,
                -0.007411033005839617,
                -0.0059431495335947595,
                -0.004733363321519723,
                -0.006884495964577009,
                -0.018041092970483383,
                -0.015631125756308598,
                -0.013398376064583066,
                -0.008800376429825152,
                -0.00951958501642645,
                -0.005790819700418943,
                -0.010544719397328569,
                -0.014551021612421477,
                -0.0172946508420397,
                -0.001639120004870791,
                0.013423253319416427,
                0.029608458089523268,
                0.037406814181547315,
                0.026742607290703654,
                0.01977490774637441,
                0.010500227804529843,
                0.0016076797995251356,
                0.006908477464470342,
                0.01109913139285647,
                0.026807798928481324,
                0.009650751337316174,
                0.0020382645307412198,
                -0.005651945005520808,
                -0.009326725428719408,
                0.003321233210826821,
                -0.0030466133773351767,
                -0.00673234486194451,
                -0.009965577343716319,
                -0.015616599029172852,
                -0.015193388783669753,
                -0.0074611176743891615,
                -0.0020438170231893366,
                -0.0018975273570725137,
                -0.0042482556331781005,
                -0.007440302033490214,
                -0.013957183731514288,
                -0.012107839773328015,
                -0.004872125985337955,
                0.01121339056412208,
                0.03097426191575671,
                0.032511022990506885,
                0.03026667932867729,
                0.024209485201237987,
                0.019454274663742895,
                0.006738928131230774,
                0.010265269104464075,
                0.015832300184648544,
                0.02579732499417671,
                0.01642353001799074,
                0.00463446668861443,
                -0.00182980373461939,
                0.010327400590848688,
                0.008761410675635666,
                -0.0007483448525091284,
                -0.012503677213251532,
                -0.00829425113270679,
                -0.008163026843180623,
                -0.005223141523193724,
                -0.004187781646501362,
                -0.0011446209105788116,
                -0.007001716501840356,
                -0.010677518601504388,
                -0.017806391947239448,
                -0.019891737273218132,
                -0.023037592697847546,
                -0.011008596350953744,
                0.009653845817328808,
                0.026850230335053543,
                0.038149709122039396,
                0.03844376642882015,
                0.04193959030457677,
                0.035550090277118494,
                0.02090237926914966,
                0.02176509526934253,
                0.024676345130445643,
                0.020918412295138727,
                0.025908629815553585,
                0.014675361692464568,
                0.011157604529910159,
                0.020704008750650704,
                0.010854256068993727,
                -0.008216698642579824,
                -0.0182746892461175,
                -0.007618660562276867,
                -0.003046407829917624,
                -0.00021982002105672035,
                0.00019930072803298033,
                0.002722724186552666,
                -0.012097451626633457,
                -0.02150519730089768,
                -0.027763521639718076,
                -0.039447486870303305,
                -0.042160830275052054,
                -0.01924226295844724,
                -0.0012481562784035964,
                0.014836611694624628,
                0.02983009162358245,
                0.038594471910737886,
                0.04057441840075797,
                0.03303979006481181,
                0.030881525746097246,
                0.030097164251903757,
                0.02860505487517391,
                0.027484968902329987,
                0.02178203292879138,
                0.010027508649333237,
                0.010450705298092243,
                0.015017501024256955,
                0.014333293307632205,
                -0.006866641023755794,
                -0.023117117996391847,
                -0.007358708416086541,
                -0.008769843317484042,
                -0.0012847360024391063,
                0.007006338713903301,
                0.005239323627373977,
                -0.008484959458744055,
                -0.020554556296468678,
                -0.026731453997855637,
                -0.041810544230536054,
                -0.04531465921297881,
                -0.027893654890821275,
                -0.021040558175227365,
                0.0011643786180096957,
                0.023060829551444246,
                0.0327914018152659,
                0.028541207722887506,
                0.028105313786016804,
                0.03294689473288489,
                0.04352033846162306,
                0.030424187488766477,
                0.017334895455120923,
                -9.191041470794166e-05,
                0.011518347556500086,
                0.009950365819259446,
                0.01897601681050598,
                0.009086945792533227,
                -0.00876802181398516,
                -0.024934756912441968,
                -0.00521560139230895,
                -0.011315031624477891,
                -0.00011334526822212351,
                0.0034421542474765733,
                -0.0006310393397249579,
                -0.0078607518791171,
                -0.023389764458437372,
                -0.03339388806091112,
                -0.043222736463872265,
                -0.0372000629996609,
                -0.027676817616791402,
                -0.023801214217868284,
                -0.010764736114449051,
                0.01044063532745059,
                0.02496679993608766,
                0.03606687300150186,
                0.0362153560221785,
                0.05071868687128157,
                0.048082795998897934,
                0.03648794102676409,
                0.01369315916536477,
                0.007644974668007603,
                0.016423699913167306,
                0.02253895702306241,
                0.01925711328723499,
                0.00748105695017248,
                -0.015546830776691481,
                -0.019711711877879616,
                -0.007317163567478335,
                -0.007253792763746727,
                -0.003978638519802773,
                -0.004335482040923344,
                -0.004964305536575668,
                -0.010086881414770673,
                -0.021941358633308282,
                -0.036250612866113925,
                -0.03448038712158089,
                -0.0323879521289445,
                -0.021824438155295712,
                -0.010078492635804593,
                -0.0017817364804620485,
                0.007217703119165851,
                0.04110652476690148,
                0.04177325161713474,
                0.04243050615345317,
                0.05217335566929223,
                0.054339921918745086,
                0.03794608248239299,
                0.024426588931221623,
                0.017020215331539582,
                0.020109585466828353,
                0.020852760383013494,
                0.011015200049724654,
                0.0013362465672035243,
                -0.010969302442478504,
                -0.01660921281767119,
                -0.007217287046516235,
                -0.009564460945239269,
                -0.006105241453766298,
                -0.0094554094273783,
                -0.012743180432282439,
                -0.01692029777994948,
                -0.025531965483517254,
                -0.03460486510900117,
                -0.02651449976718714,
                -0.016094282918847364,
                -0.006020054940516908,
                -0.0028379732060723134,
                0.0054230656888317385,
                0.020103964739314053,
                0.04337323853834412,
                0.05035064569627056,
                0.049320550094904596,
                0.052644970320503685,
                0.053805187885261126,
                0.040582943964818145,
                0.023546937758761727,
                0.01827035443944624,
                0.019329637732831976,
                0.014803242317675559,
                0.008396027964906076,
                -0.0016191395909523664,
                -0.01003734829971409,
                -0.012336241460972055,
                -0.0029832046097556884,
                -0.0070250769444674815,
                -0.00805320624121492,
                -0.013526769841223805,
                -0.014719733872321235,
                -0.020586942367175013,
                -0.022873582688842247,
                -0.023484878403239134,
                -0.022968385195728906,
                -0.017002329297074337,
                -0.005266733758476289,
                0.001819909328899761,
                0.007810207301192495,
                0.012481460174014459,
                0.031192909430709344,
                0.04117336391125021,
                0.04801309108475539,
                0.045580455896961206,
                0.0365378415246281,
                0.03313494022299717,
                0.028002848693538515,
                0.018028299888645738,
                0.016082058990425873,
                0.014038592140512382,
                0.013074632515661083,
                0.009235728781963763,
                -0.0036719741491957887,
                -0.004664269248937261,
                -0.004916628775515021,
                -0.009419113852165996,
                -0.008419678588426094,
                -0.014049507544401383,
                -0.01567688545411964,
                -0.01938919381224305,
                -0.020164363155193883,
                -0.02037106073751904,
                -0.017283135616574023,
                -0.016597937597924526,
                -0.0036890035708275074,
                -0.0017281060864631867,
                0.0033520237610819878,
                0.009884943700566555,
                0.01602448280407058,
                0.026519156831710137,
                0.032035447493439125,
                0.022500327237521437,
                0.02552746222361625,
                0.023003809414626455,
                0.014701141309963079,
                0.015784602882047395,
                0.012668452804646086,
                0.004383591188158498,
                0.00430917336715725,
                0.0064626691055050325,
                0.003504209178832021,
                -0.0016407322006731792,
                -0.0035124979962107778,
                -0.006634423665531613,
                -0.014757252393673917,
                -0.017457558684348364,
                -0.01610433353613991,
                -0.017655485908406918,
                -0.023886115169791364,
                -0.02101378087364694,
                -0.015163293312994723,
                -0.014010784465024576,
                -0.008703134033919722,
                -0.0033348940624350443,
                -0.0005357938978127798,
                0.001672729388848347,
                0.010682783498503663,
                0.015412940602638132,
                0.024440901045627548,
                0.014129728406592773,
                0.014165222709899662,
                0.010885800435267035,
                0.010366930422682791,
                0.006834927935981769,
                0.0052789326584346185,
                0.0012633706411023767,
                0.00048504747893345426,
                0.004376100265813771,
                0.005484082533973345,
                0.002661895113062922,
                -0.0008271995404525496,
                -0.006949813779859769,
                -0.01617669161120187,
                -0.021238362473543906,
                -0.02462889972102066,
                -0.028874702400345745,
                -0.028772887252282758,
                -0.025989974412953937,
                -0.02312860354379362,
                -0.018456778954387465,
                -0.012492628675822843,
                -0.002910599202692505,
                -0.004049868855624506,
                -0.004833993026834668,
                0.002710680433408524,
                0.008203029659477671,
                0.016458339455248782,
                0.015006118812988701,
                0.008078786963544958,
                0.0033321910299624847,
                0.006470390175470504,
                0.007433265406017475,
                0.006993577802810768,
                -0.002404857863092196,
                0.0027966873861506544,
                0.0066602478268284636,
                0.0052461534290752015,
                0.0013273371938781707,
                -0.0032242561074114174,
                -0.0022888293673388044,
                -0.012992575330721155,
                -0.01938054196369769,
                -0.024631944398703674,
                -0.028927764081970713,
                -0.03262402705142662,
                -0.03119498636840517,
                -0.02655961389493153,
                -0.02234986961332861,
                -0.015368556849218755,
                -0.00808355441345713,
                -0.006297570063748088,
                -0.0005058748927701923,
                0.007814361374030172,
                0.012642240043735273,
                0.012578119517610495,
                0.009355789596203201,
                0.009706035554886862,
                0.006892661191296863,
                0.008057996271680733,
                0.005785845567642057,
                0.007790130023569181,
                0.0027488875330668487,
                0.010257504537608628,
                0.008847813419500089,
                0.0037492064015104457,
                -0.0016094474533309272,
                0.00033784917034414345,
                -0.0028274487093242606,
                -0.004965698939554336,
                -0.013493401808085944,
                -0.0156980329637693,
                -0.019488281276242147,
                -0.02197694383759658,
                -0.025518222754739764,
                -0.02415359196769667,
                -0.023719775833769823,
                -0.01782200189381239,
                -0.008795100133218088,
                -0.0039203615321762725,
                -0.00020277408098299285,
                0.0016840491778191704,
                0.005928221612655347,
                0.007256024642308363,
                0.013129653608212936,
                0.0070241112180465404,
                0.010578580933698166,
                0.011217266708465037,
                0.0101968019248065,
                0.010372590706207694,
                0.009768128169276307,
                0.01150702514816225,
                0.009647595792534193,
                0.003813991049741868,
                0.0013599697492560584,
                0.0008193337682900384,
                -0.00052342249332138,
                -0.0011056767488986658,
                -0.002600746115859284,
                -0.005320962974898544,
                -0.008493415031301852,
                -0.004831500181084759,
                -0.007719907297044501,
                -0.013365831122265866,
                -0.009630898522235662,
                -0.003787684210609749,
                -0.003311867847763617,
                -0.0027755033996779547,
                0.004198441170268112,
                0.008984557720400724,
                0.013666196891788976,
                0.011420709442215442,
                0.0056290149717241325,
                0.002408770635488648,
                0.0026538571030470712,
                0.001866926390711061,
                0.004687850090276978,
                0.007116933028760565,
                0.008724692094482215,
                0.003339882205001415,
                0.0009500974344369179,
                0.0008067078825377618,
                0.0013260574441420823
            ],
            [
                0.0031147554499232287,
                0.005243205921919335,
                0.014691182456299023,
                0.022994086442087915,
                0.023185153054851637,
                0.014367697495839084,
                0.009055477964405517,
                0.00710103871046739,
                0.0033206246515138345,
                0.00442519015086671,
                0.0050200389727930615,
                -0.0016895798935290301,
                -0.0015616597630361542,
                0.0001479890531224647,
                -0.002136990738315792,
                0.002719117970993657,
                0.0030680683904984606,
                0.004146588231301282,
                0.0018543246987331764,
                -0.0037208208243951916,
                0.0006088897728431447,
                0.0027274389126953217,
                0.011118216935078628,
                0.005661171074908364,
                0.007949676268831278,
                0.008459346657256946,
                0.007345512839843566,
                -0.006405047616616799,
                0.009366062528872548,
                0.020912550581699815,
                0.024384690080146983,
                0.027766296143004923,
                0.024057114391431336,
                0.018106113554497497,
                0.015613588615598348,
                0.02329941827174039,
                0.027536409441159405,
                0.025515384310880115,
                0.013583684559307183,
                0.020014327991078294,
                0.024588950815982676,
                0.025683522372966686,
                0.014282962688265883,
                0.026886561411055745,
                0.025820633274544397,
                0.02402093737765868,
                0.02393470944509554,
                0.024636297873992807,
                0.01572578182034027,
                0.021593740664827533,
                0.022762485835080323,
                0.014102100305603932,
                0.016004270693497778,
                0.017116128393852216,
                0.013322868448887732,
                0.0039933874445614165,
                0.010920104873269073,
                0.02665644388125289,
                0.02179487292946667,
                0.0329726373056124,
                0.04310464339448338,
                0.042833588155852566,
                0.046021531636048454,
                0.05081423434393669,
                0.06224422263345412,
                0.06014603857210472,
                0.05639006583862176,
                0.062293729192148505,
                0.06300659121937784,
                0.061145832743497185,
                0.04983547877653032,
                0.057713938420350136,
                0.056369116265446786,
                0.05635437224959366,
                0.049110263133580176,
                0.042293630158215384,
                0.04230945477183966,
                0.0337862318633053,
                0.029509581754224117,
                0.03147081551500225,
                0.038154019964493635,
                0.0372366970153242,
                0.03384852086116484,
                0.020869229635117687,
                0.013532139102813284,
                0.022202734733465058,
                0.03447909766244687,
                0.040351659443773405,
                0.05504012608318855,
                0.06540610732670857,
                0.07928741547776803,
                0.07744753133389069,
                0.08376082439679103,
                0.08768073036119989,
                0.0897738111839649,
                0.08132691126492995,
                0.07305367589458144,
                0.083457235000242,
                0.08631714599822359,
                0.08538090270551967,
                0.07377230003978086,
                0.06304805277046947,
                0.06466467143611494,
                0.06367599998653964,
                0.06157791736642852,
                0.04877538017330837,
                0.05204205638335891,
                0.050272214377234656,
                0.04268134840602933,
                0.03540590796746568,
                0.04345312486378688,
                0.035640119260149275,
                0.009292276547054038,
                0.028009694403149456,
                0.03500678373209597,
                0.04113336753655672,
                0.05672300157162862,
                0.06702774984563872,
                0.06764782014543613,
                0.06881581357789648,
                0.08739835579767881,
                0.07243015015812002,
                0.07522169037480672,
                0.07923409676560182,
                0.08169672406394929,
                0.06852942208058359,
                0.08146250326192923,
                0.0810905137344755,
                0.07178649653714281,
                0.07129153289810884,
                0.07321207338527458,
                0.07261501004607826,
                0.06670990478538998,
                0.0556414421918365,
                0.04786513565159318,
                0.05138094893556926,
                0.03258672429332524,
                0.025795906764584178,
                0.033127802913341574,
                0.033113437448229935,
                0.005546983894353158,
                0.018534232399363432,
                0.018685444258869435,
                0.02444007477572802,
                0.03231403877993778,
                0.03889225585242352,
                0.0438516997464881,
                0.0495966310849947,
                0.07145322808870462,
                0.06472723207141019,
                0.06205962352298457,
                0.05564697123685591,
                0.056638048205893805,
                0.040216439276910175,
                0.0504328108075812,
                0.060204031452804625,
                0.05586088847400008,
                0.05743216018895402,
                0.055686843733416015,
