{
    "1": {
        "biases": [
            0.12270947058854396,
            0.046661738817890756,
            -0.10497664922903953,
            0.004445664087135521,
            0.11756138527004557,
            -0.10402988016737905,
            0.11421895165274916,
            0.14869540048111718,
            0.155425777429565,
            0.04528687682646577,
            0.05366917794322576,
            0.031082711915757448,
            -0.04889406196274246,
            0.0777761093007473,
            0.043077092076277704,
            -0.007019918308123002,
            0.10812387570835574,
            0.1576078730739308,
            0.021237165507784515,
            0.10099726883217902,
            0.1118107900322223,
            0.15370967368175087,
            -0.08903684429992878,
            0.07321414135595318,
            0.008273320290323584,
            -0.15715383952349032,
            -0.03697547583352089,
            0.023709562031236687,
            0.022746829034191295,
            0.054954862713857584,
            0.10783761439312241,
            0.09725808063219309,
            0.05228075040099527,
            0.07128165433536478,
            0.1454370622850909,
            0.06455968846713417,
            0.010715270611255124,
            0.17911027699645468,
            -0.019006924580776418,
            -0.03813528478205125,
            0.13325981411735657,
            0.08701144447520714,
            0.05179509844255457,
            0.08747070199480167,
            0.06857300908518292,
            0.07550648712610462,
            0.03723935471059834,
            0.25637308331239905,
            0.18742706110767807,
            0.04358267386108981,
            0.023930864399214602,
            -0.01595924524005133,
            0.0007969070266932138,
            0.1551338336836045,
            0.012720139023542664,
            0.0981274886384176,
            0.045204560351143674,
            -0.03174604635583004,
            0.09342441376764554,
            -0.06448633556291496,
            0.05039399459050442,
            -0.0779813913019553,
            0.10839714792543015,
            0.13077587748390399,
            0.1553871818445423,
            0.08189989528966818,
            -0.022078205409467023,
            0.11736282803931647,
            0.0037912990704608096,
            0.09234691568324169,
            -0.00960693627492457,
            0.025548715369364608,
            0.017684236120344875,
            0.11559968808421266,
            0.06328977277144401,
            0.08446698309541405,
            -0.0005432214402840621,
            0.057222342159508076,
            -0.036809467432197304,
            0.0023846798844749184,
            0.1202951087270183,
            0.02610053040681622,
            0.09059452664263248,
            0.0555947715125778,
            -0.0474684187709602,
            0.08089448870791012,
            -0.08209784376777825,
            -0.1408495203623559,
            -0.023527172054315967,
            -0.06688517241450324,
            -0.107665679899838,
            0.012661881000599095,
            0.2055667033182792,
            0.05382328653927427,
            0.05155667738328575,
            -0.09423549486440333,
            -0.08498141233877325,
            0.0804638293128685,
            0.0560636470387102,
            0.06290315092102901
        ],
        "weights": [
            [
                0.0001684693288722434,
                0.0005874242014969566,
                0.0002804358183740298,
                0.0008694678935264436,
                0.0011971243217326114,
                0.0006652516292407012,
                4.42788368866083e-05,
                0.0006784228135203417,
                9.859586827680185e-06,
                8.560936781382185e-05,
                0.0008795961976881295,
                0.0011916728611636564,
                0.0004197401740093806,
                0.0004446174386029413,
                0.0010825132739262595,
                0.000983883972358135,
                6.079100806621878e-05,
                0.0004203917425150829,
                0.0009687859978591735,
                0.00046791391093195793,
                0.0012584185135338024,
                0.0009648737001046149,
                9.30937193616985e-05,
                0.0011331041733505984,
                0.000558941562446146,
                0.000611863337783159,
                0.0003520917574047519,
                0.00021325701725271974,
                0.0011496890344854273,
                7.756882481126871e-05,
                0.0006461765472224799,
                0.00040860703526159623,
                0.0006316351573831375,
                0.00011879949037276205,
                0.0005277274937462038,
                0.001369907056762944,
                0.0022101514292609675,
                0.0007899814131134035,
                -0.0003485041399558494,
                0.0007416300341116002,
                0.0004595446470358333,
                8.78053812343497e-05,
                0.0006085142945148778,
                0.0018331425671597736,
                0.00625586954740885,
                0.0017913972377257498,
                0.00031346534033348104,
                0.00038182022789459035,
                -0.00043790648436437,
                -0.0006918163658137868,
                0.0007779731703148697,
                0.0003248761078218256,
                0.0007321569258707388,
                4.2334175598438213e-05,
                0.0006384371560265328,
                0.0009583889384277076,
                0.0011408276534175508,
                0.0010784570037199988,
                0.0002723149137245275,
                0.00016966572812585908,
                0.00028496607618288275,
                0.0006134321611373548,
                0.0017260456713513422,
                0.0021025116801683865,
                0.002460906669042396,
                0.003667539967542362,
                0.0039796998763885726,
                0.006788730058989884,
                0.009836705872879119,
                0.013207722438044153,
                0.012599451692861174,
                0.012967300080460856,
                0.015993068184720172,
                0.00950031310418016,
                -0.00011239205464083215,
                -0.004760681935252478,
                -0.005340366019396704,
                -0.004836153939712824,
                -0.0033162094428017173,
                -0.0002042160124129559,
                0.0008346022836444597,
                0.0006669506826409625,
                0.0011548341494978726,
                0.00018189592773188194,
                0.0005255156175533578,
                0.0011343096859679292,
                0.00033781329617143315,
                0.0005317427244773309,
                0.00032883144786322835,
                0.0009309739561886357,
                0.0024681383682825402,
                0.005386879017533122,
                0.007949097865837928,
                0.01288449827832972,
                0.007594032379109036,
                0.013016390444331827,
                0.02115499592386046,
                0.017848228441631604,
                0.017126147474239642,
                0.020598962854910207,
                0.036438159579274064,
                0.03750635189290226,
                0.015625814891627895,
                0.010871102044180375,
                0.005576403546059134,
                -0.0037064119245785133,
                -0.01025357102798433,
                -0.008150471479713374,
                -0.0027083557195321253,
                -0.0003519638355007772,
                1.8711996206979645e-05,
                8.349819599966011e-05,
                0.0006262225277084105,
                0.000870724977493747,
                0.0017668155474540597,
                0.0012617043214227693,
                0.0002089016108635862,
                0.0048247555696735445,
                0.006298884392928437,
                0.0035844215946640875,
                0.003158086021438249,
                0.0028739018912609833,
                0.003251660542465013,
                0.0034691638209087545,
                0.007619618613589158,
                0.011098708105382415,
                0.00978288287548924,
                0.02728864519394064,
                0.037521489837250385,
                0.0168156847834336,
                0.010175255490323134,
                0.020619247071575586,
                0.028389682681233815,
                0.009335675338721199,
                -0.006406520045366977,
                -0.011405546160239258,
                -0.009459269389394568,
                -0.002779440602439942,
                0.0008098639158527965,
                0.00028998385038787655,
                1.4493455492057797e-05,
                0.001259296494536447,
                0.001180351148922514,
                0.0014454719151786508,
                0.003902440458955924,
                0.0070258490361458795,
                0.00941981194956054,
                0.010614206953093577,
                0.01672759355894215,
                0.01730622510678999,
                0.019375048748540638,
                0.0003494002264374803,
                -0.017239051864760543,
                -0.011237220732793412,
                -0.010503521539337002,
                -0.011231641001119575,
                -0.0113512511503478,
                -0.037237518927201105,
                -0.030878139445093277,
                -0.02675124459023871,
                -0.005603002340161118,
                0.003852572822598241,
                -0.0011333563729738784,
                -0.006402542624868945,
                -0.0037062707273803606,
                -0.0034559616878452287,
                -0.0002447949247090366,
                0.0003885050437353911,
                0.00010023697642364076,
                0.0003329624844400175,
                0.0007197939748961558,
                0.002635395759774525,
                0.004010625932284232,
                0.011462834760170413,
                0.013779143979899728,
                0.024378828409668166,
                0.020341507412734175,
                0.03391458442641882,
                0.04309511804118283,
                0.02826170863518915,
                0.010188930641752974,
                0.013094435660566197,
                0.028413353698006488,
                0.019839161244714215,
                0.021494234829887476,
                0.005335519931854381,
                0.024206471672164814,
                0.0014218450336981809,
                0.0046676527704772154,
                -0.0010793072126609113,
                0.005002920838996481,
                -0.013856279068065015,
                -0.008658200014704482,
                -0.006379901165773469,
                0.00041845155122564246,
                0.0009651932774265558,
                6.994269262872502e-06,
                0.0010774637391664798,
                0.003451840895004769,
                0.005656486852649181,
                0.006866771823606945,
                -0.0011599124372948639,
                0.0035016108600631718,
                0.01587004548770201,
                0.009858778931722085,
                0.015768511613207154,
                0.00584351380649683,
                0.011891479085417388,
                0.00032202849332550943,
                0.0350136984428359,
                0.04621180715138031,
                0.02608768609975431,
                0.04428859628750539,
                0.055182380542921364,
                0.022301727179381673,
                0.037227542349839715,
                0.033615863970388835,
                0.016934417246835427,
                0.015265110329293957,
                -0.01775439081645035,
                -0.021785642012543228,
                -0.00856700177975222,
                -0.0006898706768230382,
                0.00021551716542626427,
                0.0007823610275766749,
                0.0007796036536941687,
                0.001644019167840675,
                0.006070127874202153,
                0.009578970961938646,
                -0.0026767317280593558,
                -0.020061667155012956,
                0.009508112602063655,
                0.015942439233633237,
                -0.004689861993726271,
                0.009851606335286969,
                0.04128411199824339,
                0.006527240965832794,
                0.0067103459525638676,
                0.041937472935835426,
                0.04046655224072286,
                0.04054109342096115,
                0.04561759970783607,
                0.025579174622310862,
                0.0060277978460632296,
                -0.0005774655750667634,
                -0.00315471085739567,
                0.005658147989407005,
                -0.030249441760637777,
                -0.04371953348395688,
                -0.011698345716515438,
                -0.0006521201760480562,
                0.00028080465861759476,
                0.00021177062805132187,
                0.000702979300685637,
                0.001487011445999625,
                0.002025218765514387,
                0.005249130785679742,
                -0.011053373524925353,
                -0.01291218621804352,
                0.001381146594892854,
                0.010993089985152547,
                0.012045488441144057,
                0.012800702913892157,
                -0.007436585927158149,
                -0.01992953076094755,
                -0.09588025738844064,
                -0.09124370461439038,
                -0.006753889852363781,
                0.030297321456705488,
                0.004835538660476766,
                -0.005616491598187188,
                -0.0013649740007842387,
                -0.03536863068561266,
                -0.01905327554056625,
                -0.004758984250955688,
                -0.04981110987682728,
                -0.04122680190461343,
                -0.013260387978303607,
                -6.053720132692502e-05,
                0.0012837396171313216,
                0.0005399442510676308,
                0.0003999577232470957,
                0.0013763090910793125,
                -0.004155991261760467,
                -0.010944076250148224,
                -0.01618531421643149,
                -0.012591274327746873,
                -0.023827223322703317,
                -0.014269871630422242,
                -0.028288449874225872,
                -0.06079654074465313,
                -0.10196867911946093,
                -0.12856755880008866,
                -0.19058831560304254,
                -0.1621327586311744,
                -0.02532678939673125,
                0.03963871891409046,
                0.016087537150217372,
                -0.005496910222286585,
                -0.014046838813680101,
                -0.0342532302544958,
                -0.03574020767606073,
                -0.04248094694314918,
                -0.05399644128405533,
                -0.027108239390072005,
                -0.003580784722440574,
                -0.00022713481294728635,
                0.0017970508959055224,
                0.0002979162758174047,
                0.0005224240166367549,
                2.1826266321659523e-05,
                -0.008078824129642588,
                -0.03074442684385664,
                -0.04570401354816945,
                -0.05262996117203107,
                -0.09746439917864468,
                -0.11404098954875312,
                -0.1495210209929217,
                -0.17395625752912466,
                -0.20861216600537635,
                -0.20141149031920727,
                -0.16674012928502138,
                -0.08803422437156595,
                -0.0002805340309154088,
                0.02742116573671592,
                0.003435670908527039,
                -0.011281177530268601,
                -0.007398703279645173,
                -0.019000364676465605,
                -0.04477913285034341,
                -0.049651342349982294,
                -0.03527024563452998,
                -0.020001314935571095,
                -0.0019715856540056366,
                -0.0015343817543548395,
                0.00038838165961833693,
                0.000750549996662273,
                -0.0007326171014028663,
                -0.0011937859941938214,
                -0.013809370998472046,
                -0.04990756902061526,
                -0.08477354894746185,
                -0.11312859518336776,
                -0.15773660237431467,
                -0.1827367500616682,
                -0.21355656324805744,
                -0.18160388725427412,
                -0.14550723800927376,
                -0.0870331629379839,
                -0.022316176572293588,
                -0.01539445017540501,
                0.0029474025736381296,
                0.02132345831093951,
                -0.010225160604707236,
                -0.0004174232365582802,
                -0.015033525939986338,
                -0.03084862996364015,
                -0.03701450404794988,
                -0.03888907747356777,
                -0.028902298466053848,
                -0.009284136355661282,
                0.002563090322387385,
                0.001679474798744214,
                0.0006039244045593233,
                0.000914911711834961,
                -0.0011123356511316123,
                -0.00039596646751633666,
                -0.015838277369642106,
                -0.06017339584669756,
                -0.10949981390862094,
                -0.12425421961713472,
                -0.14322508581384394,
                -0.1411586633219226,
                -0.1048512179815197,
                -0.04395530274391825,
                -0.00535370711134316,
                0.030893464106719625,
                0.03701387742311074,
                -0.0038550987046954313,
                -0.022026895406389597,
                -0.0005371339653104383,
                -0.013284657578045282,
                0.011151834796904235,
                3.6152686950540914e-05,
                -0.017043879766049895,
                0.004740123918206325,
                -0.012401821820002223,
                -0.005150741367885207,
                0.010471324457725487,
                0.010369165255499049,
                0.0017352844294095655,
                0.00044001347147395537,
                0.00047712560659370263,
                -0.00015663083068917868,
                0.00030845976606184815,
                -0.016334192045705614,
                -0.040303733208520556,
                -0.07732990324584885,
                -0.060747882299457365,
                -0.04945013724896625,
                -0.026192261210085943,
                0.03453242235765944,
                0.06770314001754367,
                0.05263253389929467,
                0.04887922503091109,
                0.02616553811351869,
                0.03168515543963479,
                -0.012014229494128332,
                0.013315019490163352,
                -0.011707379858484905,
                0.04390970185307906,
                0.03959573828924612,
                0.015180352923549235,
                0.01650261314689162,
                -0.0017059684445485878,
                0.004535061699411653,
                0.022280282868239423,
                0.012142459470978497,
                0.006855448838999958,
                0.0010386354383795779,
                9.507160821421056e-05,
                0.000451441077421219,
                -0.000542676380289787,
                -0.005592543140793403,
                -0.019338343503587496,
                -0.010542811997105474,
                0.00812821895928549,
                0.025941647522822294,
                0.04440232671433361,
                0.04614157745845148,
                0.03293619784892639,
                0.029637196862721225,
                0.01041673568949653,
                0.024850836828052284,
                0.022188858880798797,
                0.009395694979683114,
                -9.128147130956514e-05,
                -0.020327335503818645,
                -0.004021897888407326,
                0.029014447191955298,
                -0.002377563877036756,
                0.011288595944598946,
                -0.012987316341383665,
                -0.005374796150546827,
                0.024147771075629196,
                0.013477871728067036,
                0.006888139132509019,
                0.0015967105680638246,
                0.0010237671875955865,
                0.0003910817295426185,
                0.0011387279332427122,
                0.006344589846579188,
                0.0007872450288730897,
                0.022139452027870207,
                0.05047661342029503,
                0.048202901742006296,
                0.020048851835529184,
                0.00352185116225886,
                -0.002967837053180163,
                0.009809812413894971,
                0.03774306693661562,
                0.03864146976190225,
                -0.0052955326473860176,
                -0.004186512959455735,
                -0.020506255063760304,
                -0.014939728439062674,
                -0.00641838652188148,
                0.03174339092010257,
                -0.013738420644050075,
                0.0003220778238304774,
                -0.019334590674273126,
                -0.017897952185487336,
                0.01067639436187021,
                0.008699175816263331,
                0.005487702258862393,
                0.0014226783596799132,
                0.0012096235433145409,
                5.508969271192257e-06,
                0.0021105317471622263,
                0.013138882873804339,
                0.026570273056682372,
                0.03934166255251108,
                0.029338095861354278,
                0.014450233701603383,
                -0.005028384319366514,
                -0.02925829268453414,
                -0.024679999304587107,
                0.02020959176232158,
                0.03636168829430829,
                0.030339086179463338,
                -0.0038630848909199486,
                -0.013465501040898813,
                -0.031769113976245,
                -0.011610834779787055,
                0.0062951108615203625,
                0.008097396891199841,
                -0.017781471667022646,
                -0.016351811374555512,
                -0.014601443049546504,
                -0.017831553165978363,
                0.005867607833469954,
                0.006317800960020546,
                0.0007207331100445601,
                0.001440780630533602,
                0.0008005876398126302,
                0.0008228869376835569,
                -0.00017496623883343722,
                0.017333491774498312,
                0.03880895820019608,
                0.03865889463969392,
                0.006598060524819965,
                5.6486403445247785e-05,
                -0.00979109032093605,
                -0.0038689710886032143,
                -0.01466638174884899,
                0.0021546225012025674,
                0.04008085630609637,
                0.03789175739195518,
                -0.010421196263882776,
                -0.005434867314732239,
                0.0069028491015315765,
                0.01688687108910178,
                0.013341148126878939,
                0.012527747331031762,
                0.0028927181907349307,
                -0.0015674988551205287,
                -0.013696413962376653,
                -0.00880297122352313,
                0.0074029040822275825,
                0.01006674579333257,
                0.0013484823802514762,
                0.0022766500244881887,
                0.0006461200974003737,
                -0.000558836131820778,
                -0.002009373860393748,
                0.014286024673994799,
                0.03445191270056369,
                0.027989641664157242,
                0.014861471792465322,
                0.004107801573067552,
                -0.010851981955952744,
                0.02248308819521182,
                -0.009470564896889175,
                0.007425490173680289,
                -0.0011564831206393228,
                0.02384270218151361,
                -0.00774285329997655,
                -0.0015397304469492923,
                0.012727933870888134,
                0.022916788544128004,
                0.010770366458565302,
                0.008657656524494838,
                0.01962174298886422,
                0.019292709204620888,
                -0.007890311424957107,
                0.002225220294048523,
                0.006478263244716123,
                0.009281088423589321,
                0.004143224073716551,
                0.001118102770604306,
                0.0010153672005759205,
                -0.001164987861066435,
                -0.002256574903466519,
                0.02266836648650423,
                0.027218740280850053,
                0.031053659247784627,
                0.029388508724572604,
                -0.0032592720423413666,
                0.00943872599148649,
                0.034628828641913835,
                -0.003888482476863096,
                0.007499226231806871,
                -0.0024438382574291447,
                0.010652591233508283,
                0.025442088894893713,
                -0.020224572797588533,
                0.005844667927004516,
                -0.010168790258903932,
                -0.00891802393888969,
                0.008864950547038031,
                0.02533067022380455,
                0.012335299456211755,
                -0.0060639353221003875,
                0.008091204190074495,
                0.006881691400612744,
                0.004037493295013517,
                0.002587208715726438,
                0.0007816316254018944,
                0.0004026888063760763,
                0.00041872025822395353,
                0.0009238929025704204,
                0.018725327263444988,
                0.0253836358124867,
                0.0410705487417718,
                0.030220336056350595,
                0.01782831634956188,
                0.025636004316954918,
                0.018926147838756385,
                0.009225053729021672,
                -0.0194850253593589,
                -0.012456355160212046,
                0.010084364016709861,
                0.003131677958645716,
                -0.012962335103357866,
                0.014175915520819387,
                -0.0017021632320885207,
                0.005690501119865458,
                0.02684608111224,
                0.019240448165685146,
                0.02392004967046164,
                0.0070656570151668265,
                0.0075203938989518776,
                0.0047226975489019,
                0.004690970381439399,
                0.0018227608609606028,
                0.00077784662870384,
                0.0007989630280932047,
                0.0008321806444393366,
                0.00020701125824864906,
                0.009820619459882076,
                0.03168159165712647,
                0.04682870482678543,
                0.026713067360106594,
                0.023373868589214083,
                0.021202323695319793,
                0.002752282846961232,
                -0.019514451962011244,
                -0.02659337866299902,
                -0.025116255497799504,
                -0.005936406660039839,
                0.015565891537215758,
                -0.004073145140691344,
                0.007228198335503626,
                -8.827795710591886e-05,
                0.02341572477643019,
                0.026964886167179028,
                0.019289461219851776,
                0.004822176557751948,
                0.0018997247592154576,
                0.004022184042841874,
                0.005027828736729025,
                0.0035864150471443383,
                0.0006020615020288468,
                0.0005182962423238728,
                0.0009250893232970073,
                0.0008106471794491848,
                -0.0018276579820859277,
                0.0025314369340371477,
                0.025156652059126632,
                0.051584203421233,
                0.04172891708814772,
                0.029595581225217812,
                -0.00835253642668753,
                -0.022284463331288196,
                -0.019749935370426883,
                0.014152247096684988,
                0.021090806821985403,
                0.015869329145625673,
                -0.02936685930933702,
                -0.012097455950473568,
                -0.002130737686459054,
                -0.007272581601289857,
                0.010334037811948596,
                0.0032744463729538027,
                -0.015321648033332623,
                -0.013934484885578925,
                -0.0019330473054231794,
                -0.0027164715911088136,
                0.005252733118927523,
                0.003460378945537166,
                0.0016593443389179639,
                0.0007114058332439218,
                0.0007870334314738149,
                0.0007862966534843149,
                -0.0009907211765502423,
                0.003973591610426944,
                0.01441463038229525,
                0.02768517270445186,
                0.01728589947229276,
                0.006372083700784231,
                -0.0035427524421201076,
                7.521599494518401e-05,
                -0.002983098651022952,
                0.0017068412150604473,
                0.0005515437169648446,
                -0.013014523892102557,
                -0.007916986621025099,
                -0.002878727899215819,
                -0.008117226082629174,
                -0.0009650171701942991,
                -0.030870262277596042,
                -0.04511731734407818,
                -0.029405133086156467,
                -0.017915183770412464,
                -0.005040524160756033,
                -0.001845095069523609,
                0.00295657731725029,
                0.001846261516629182,
                0.0011802350797568968,
                8.054239483456602e-05,
                0.0012159531490538722,
                0.0003614725956784156,
                0.0003368219906934036,
                0.0010420664945938914,
                0.005589311720016487,
                0.0024939000060405256,
                0.0002762208648831705,
                0.007727800906697924,
                0.013127033541421196,
                0.008913459111593492,
                0.01776929292800613,
                0.02653854860246322,
                0.01932939155369065,
                0.02165506731709606,
                0.018443688121424582,
                0.02531336608344934,
                0.012047714992457843,
                -0.011188356166164204,
                -0.030798324863385976,
                -0.039798834399104956,
                -0.02590411127525956,
                -0.022546913092906695,
                -0.008400386007165321,
                -0.002208734711299575,
                0.0010516058931951682,
                0.0010555577052915165,
                0.001050404947766072,
                0.001199578070439059,
                0.0007030216438104403,
                0.0009648493750270446,
                0.00022087947369215573,
                0.00047952091260264064,
                0.0009233464599492667,
                -0.005333455929266768,
                -0.004831549902837532,
                -0.0037031824592788976,
                -0.007668528989028725,
                -0.006480401271827262,
                0.0005577301938198501,
                0.0052389466326860645,
                -0.00445838269382741,
                0.002974350889808765,
                0.005345513753199587,
                0.0009435165638445237,
                -0.002860115111666855,
                -0.005849475149384484,
                -0.008082576184970743,
                -0.015418381539920577,
                -0.011887443379266458,
                -0.007172261084290009,
                -0.0024644007552406875,
                0.0002451816780846173,
                0.00041220742040834664,
                0.0008222593314363765,
                4.826292846261487e-05,
                0.00010017405346385261,
                0.0006290131477979371,
                0.00032367361259266303,
                0.0008435314390652321,
                2.1316424257558406e-06,
                0.00012919073886687605,
                0.0012247473920642608,
                0.00022138785147046084,
                0.0001678833765481175,
                0.0012936177671104684,
                0.000904410594592129,
                0.003615699974399461,
                0.0018191767959512648,
                0.002060976003468588,
                0.002653023332187925,
                0.0019804316160632563,
                0.002154813927267825,
                0.001878839634370049,
                0.0015894417637328838,
                0.0005534218215367799,
                0.0009689378647871872,
                0.0009749848355041252,
                0.0005900280325593577,
                -0.0030443781901649926,
                0.001105764365785826,
                0.0011923626534699181,
                0.0003729161278431229,
                0.0012492603734230764,
                0.0010638939628748359
            ],
            [
                0.0002428615755916233,
                0.0009800550180260885,
                4.1418502475408926e-05,
                0.0004808475236121217,
                0.00024737693725319525,
                0.0007645509714590855,
                0.0007037541985116151,
                0.0009951359628813908,
                0.0009072936787305451,
                0.001131640966504696,
                0.001273929712315008,
                0.0006400932268534729,
                0.0010775809309980645,
                0.0011684589965618622,
                0.00024658120296699944,
                0.0003633729122071682,
                0.0011665907137853124,
                0.0005114206397293314,
                0.0011558845181713247,
                0.0007023282614758087,
                0.0003370373806981059,
                0.0003020482939411657,
                0.0004298326682953203,
                0.0005800380204310555,
                0.0008544055181045677,
                0.0010492110875311277,
                0.0006939150600773863,
                0.0009558161786125108,
                0.0009717169865657375,
                0.0005209519665147251,
                0.0008994569602949093,
                0.0008468144370290214,
                0.00035774360145082024,
                0.0004110610758643021,
                0.00213697354105648,
                0.0031711714516205313,
                0.0026044852662335015,
                0.0016964621497279188,
                0.0031489693012671668,
                0.0036938935236818776,
                0.003935963849309924,
                0.003428289345586717,
                0.002867212648010114,
                0.0035071509565466224,
                0.0035818534021245514,
                0.004034673393725527,
                0.002599698361324478,
                0.0022919659995903237,
                0.0019268596554742794,
                0.0009353442954393886,
                0.000722040668382965,
                0.0013972596245349852,
                0.0002454859912724733,
                0.0008301350149021271,
                9.331001111367595e-05,
                0.00048535342871591504,
                0.0006317446903420226,
                0.0002769602298984626,
                0.0004587177963551073,
                0.0011480641808113278,
                0.0006927077419354591,
                0.0012972603346399084,
                0.0020528657947767102,
                0.0041019510618037335,
                0.0046462784256158145,
                0.0035197584166428383,
                0.007615560433044412,
                0.009438912250864398,
                0.011317508473650482,
                0.01233723554822097,
                0.009509725000988768,
                0.005509236577382796,
                0.006861522404394686,
                0.008826257670151409,
                0.008863241266518506,
                0.006066897651346444,
                0.00456178359436121,
                0.004408710281743549,
                0.003415851085492011,
                0.0021272234999147955,
                -0.000230519687386272,
                -0.00011245803773626451,
                0.0012413455764611566,
                0.0002653867287957144,
                0.0010639121042993196,
                0.00039199381371050326,
                0.0012189940279799679,
                0.0004957916294151736,
                0.00026596469731480246,
                0.0019231967423474698,
                0.003802476619475248,
                0.007301506465376699,
                0.006666557659679842,
                0.0036359287112243716,
                0.004914216660319465,
                0.010160942014873775,
                0.013978059276351065,
                0.018764674761797016,
                0.012770685395059354,
                0.015767655554750213,
                0.014940662913419204,
                0.01234552533552934,
                0.010499262575177483,
                0.005547182826191163,
                0.006045251119486697,
                0.0067191593495013685,
                0.005389239181296849,
                0.0033747235502939892,
                0.00046867334002155764,
                4.2424019970822257e-05,
                0.0006047556660184448,
                0.0008428277872129727,
                0.0007201834324365027,
                0.0008541534361201414,
                0.0006743292391229164,
                0.0004212620225416896,
                0.0005875285603877116,
                0.0009994136472241764,
                0.0046502519195120344,
                0.00900230276023198,
                0.011210483705772703,
                0.011856951195508267,
                0.01879768800148017,
                0.01592860063528786,
                0.009509529524799875,
                0.00428648304765748,
                0.018467593295778593,
                0.029700963583511663,
                0.032662088729853996,
                0.025046863096919572,
                0.019094943493284548,
                0.007460801195540976,
                -0.0017967408101177515,
                -0.007930840624496309,
                -0.007590261027930364,
                -0.007880686140155715,
                -0.004749316778153594,
                0.0008403682835647165,
                0.0006545914685131242,
                0.0011932006651217033,
                0.001210082641890145,
                0.0012115585844735984,
                0.000483631391957322,
                0.0011716559991427422,
                0.0001237428555161383,
                0.0007186571396393267,
                0.0055211293475027606,
                0.008470702509410746,
                0.001012005983896586,
                -0.005684745888665658,
                -0.005662846588991876,
                0.0034985420650035432,
                0.007805187216957762,
                0.018606890391654623,
                0.0269360593299056,
                0.04047501333461164,
                0.047976020491130894,
                0.05022712098690032,
                0.02954931580963725,
                0.022572287235300754,
                0.006171381834598748,
                -0.0078396364700503,
                -0.011129614049331483,
                -0.013394203857770378,
                -0.005931523170657208,
                0.0021777833393166117,
                0.002246442735419041,
                0.00025219178675193663,
                0.0002599497633983653,
                0.0009392035912951861,
                0.000746912984762613,
                0.001388986413607959,
                -0.0031504473617109483,
                -0.00919956749195716,
                -0.00410932260365971,
                -0.002258730387756881,
                -0.004457351922086495,
                -0.0005459651636063769,
                0.008577503326135858,
                0.027022509401306394,
                0.03399815955522909,
                0.05258283816585299,
                0.061673055198882845,
                0.09317949040120768,
                0.06828494814822726,
                0.02707851008812443,
                -0.0033219382419342777,
                -0.014898404226696102,
                -0.012498577361731133,
                -0.017311900943286405,
                -0.0191746708145287,
                -0.012336572275125211,
                -0.007217219245912744,
                0.002448081548980016,
                -3.9747365343025246e-05,
                0.0008697919001099386,
                0.0009264194843540753,
                0.00015475749356133156,
                -0.0034176198915287534,
                -0.004062119462185186,
                -0.004180287479285308,
                -0.005358794596709575,
                -0.000552967487293585,
                0.0015884723449405217,
                0.01341856184145074,
                0.018245400659861015,
                0.03885512185382455,
                0.04855483451015163,
                0.06702463764422646,
                0.07786433935341934,
                0.08313524419847859,
                0.06747688017373367,
                0.014296634800570914,
                -0.025248704905224538,
                -0.022354412079473866,
                -0.03523965965114218,
                -0.02468754915263446,
                -0.020344588535476178,
                -0.02938383341700026,
                -0.0203144496683496,
                -0.0071521860932608145,
                -0.003792314813833236,
                -0.0018835777502899185,
                0.0009750143907624007,
                0.0005826269951261417,
                -0.0014759805947215069,
                -0.0037127859458737818,
                -0.0014297336056427355,
                0.0001413560261498366,
                0.0031912017446140807,
                0.0185328187734287,
                0.010192370392960452,
                0.020321956640398476,
                0.035096496229053684,
                0.05142910237572949,
                0.056342097593819924,
                0.07624288124106095,
                0.07427344293125741,
                0.02912936988209572,
                -0.014684862496940333,
                -0.026590398262171824,
                -0.02432986969291708,
                -0.018514210154169545,
                -0.01570036445267694,
                -0.021832369241714538,
                -0.011651223252807754,
                -0.033040903348181716,
                -0.034325555147631054,
                -0.009472254621843434,
                -0.0015418814397810628,
                0.001556074778965578,
                0.0014363394922516529,
                6.383409835199819e-05,
                -0.0014405377765229503,
                -0.0009046774423803594,
                0.002790513264426978,
                0.0046967220648863675,
                0.009747598408427767,
                0.032388199067496966,
                0.027322747068869307,
                0.036269258769838636,
                0.04420339457375931,
                0.051443218416038064,
                0.03996042437313537,
                0.009397109592358463,
                -0.0021827227987939487,
                -0.009700618856666673,
                -0.029902441922862334,
                -0.029902369676248573,
                -0.0017894049654570868,
                -0.0015022084332827334,
                -0.01541862682144439,
                -0.017488731577840554,
                -0.01475261570059246,
                -0.032767667120897986,
                -0.02550891908809635,
                -0.009978741903507858,
                -0.002726776934303024,
                0.0033213352208002877,
                0.0002414642080958725,
                -0.0001128029735196753,
                -0.0005783952922480695,
                0.0015998846227872007,
                0.0075360982782571575,
                0.007266973279703701,
                0.013625662179023569,
                0.02611691377618388,
                0.01763786967066689,
                0.015382543155572208,
                -0.004419205366470358,
                0.012462257176482174,
                -0.005456965573553392,
                -0.029986693797424486,
                -0.021960741497348047,
                0.0002405438885316757,
                -0.008804252147429472,
                0.01208578966648883,
                0.008089551592410205,
                0.015431164950244708,
                -0.0008338771020363902,
                -0.001976972020193218,
                -0.006737757350701715,
                -0.018843743533586976,
                -0.008851842890308341,
                -0.009444696520582116,
                -0.004697427933646032,
                0.0007252818541062896,
                0.0010673638092030026,
                0.0007316668426118796,
                -0.0010612768996171498,
                0.0023030303423249797,
                0.009253110192912334,
                0.00857679193046709,
                0.020598355901206105,
                0.012373296034291935,
                0.004631500046318195,
                -0.007751883503220805,
                -0.0145099421761789,
                -0.019290028618910986,
                -0.01776470758310141,
                -0.013018402925810692,
                0.013943726105842134,
                0.029165589369664853,
                0.014851708039557477,
                0.017344984237938472,
                0.02185527172161046,
                0.00403202082486104,
                0.0017886032294022751,
                0.013560696048431544,
                0.0012758762901090893,
                -0.007912759620561502,
                0.006531450405403549,
                0.01268853682517445,
                0.004203261861744984,
                0.0016638519175452091,
                0.0011896755316143503,
                0.0009713780061830941,
                -0.0009485900795833509,
                4.967076878004027e-05,
                0.0022476883093050536,
                0.007037503334974675,
                0.020768755404856457,
                0.016750411266232067,
                -0.003516017630472035,
                -0.027187795639221787,
                -0.0033441392537854344,
                -0.021980246934225827,
                -0.019357834633639295,
                -0.0011640680197091376,
                0.028388626085467914,
                0.03449740271958499,
                0.004996238736185267,
                0.0020514589740521327,
                0.017724875440088914,
                -0.009225233238579501,
                -0.005933141443375905,
                0.0024556388387059072,
                0.004584927773790898,
                -0.006385379574414827,
                0.012354077680437316,
                0.01718929405807872,
                0.004063978024532685,
                0.0012979514820398272,
                0.00014133655557517025,
                0.0006604466893199645,
                -7.055353691990972e-05,
                0.0007309856693864195,
                0.001816649994646839,
                0.0046852525187364834,
                0.010537574821086935,
                -0.0019120698392707703,
                -0.0006657119469382249,
                -0.014692170820282591,
                -0.0063851391664181715,
                -0.03176674644751071,
                -0.03522251434206167,
                -0.011469829250799481,
                0.003969815192040959,
                -0.011493168401346893,
                -0.008646367645714085,
                0.002237504927078034,
                -0.008828892661599901,
                -0.01742494308603682,
                -0.010340724846795678,
                -0.0072456603858989214,
                -0.023089471004017058,
                -0.016898011072195105,
                -0.0026879505186415023,
                0.006935729416393353,
                0.0004850476624195574,
                -0.001609777418921334,
                0.00017558799663783094,
                0.00010102272539260638,
                -0.00022745204088110273,
                -0.001123560579204761,
                0.0013600776695735063,
                -0.002740765153827318,
                -0.01128423001252303,
                -0.01158941405811229,
                -0.007173039089005973,
                -0.006788721846494097,
                -0.012037411377350704,
                -0.020959194405415982,
                -0.023739701295143495,
                -0.023423782202225154,
                -0.010273305201201843,
                -0.038482772134603695,
                -0.014860615843409178,
                -0.007747959038655906,
                -0.002412680104551717,
                -0.017231770137458902,
                -0.024990810695373362,
                -0.019482817374748957,
                -0.01803156397072474,
                -0.017734066829182122,
                -0.009774877172353261,
                -0.00040559290852925484,
                0.00024109250158063612,
                -0.002662675555417105,
                0.0009590517399006538,
                0.0003436650254385232,
                0.0007337827168878868,
                -0.0006783734097331445,
                -0.004257915248971677,
                -0.005785426543874247,
                -0.014401868273181986,
                -0.011144077271308226,
                -0.005395232873792516,
                -0.012741895554978474,
                -0.014287012498570777,
                -0.02417247366937912,
                -0.026522412236812575,
                -0.012754503166688224,
                -0.016189897937073813,
                -0.0231929634140641,
                -0.01925980552734295,
                0.002430886787601705,
                -0.001366515161045517,
                -0.0015199545816742593,
                -0.0048475409765895055,
                -0.011629491154710457,
                -0.007908177283758814,
                -0.009987003839810151,
                0.0005863549225219055,
                0.010303839586491724,
                0.005234033160068897,
                -0.004232776847970054,
                -0.0004701231386462829,
                0.0002280536799114136,
                0.0015324307045640525,
                0.0015482210425422829,
                -0.00047477315163804175,
                0.002817179771590846,
                -0.008290327808156958,
                -0.028209120059462047,
                -0.02579537707237309,
                -0.02595121873795709,
                -0.024921364746392092,
                -0.017169652568746502,
                0.008032945026317398,
                -0.006258892603853892,
                -0.029202834988621054,
                -0.022092019615674766,
                -0.01229324854874791,
                -0.011577830568382956,
                -0.01381772187516842,
                -0.015401149505574033,
                -0.004513812077136911,
                -0.006804117319777975,
                -0.007809836401905061,
                0.0007959074606947874,
                0.013325461665175939,
                0.012853189876345027,
                0.0035103292102229787,
                -0.002821500706786589,
                -0.00038429985065298485,
                3.1724410308485664e-05,
                0.0007633776548239944,
                0.0015028101470185339,
                0.0027662168454196663,
                0.0022760999292934163,
                -0.010402349989736003,
                -0.02328659895361503,
                -0.027878939195440045,
                -0.024720636113849403,
                -0.013173118123607113,
                0.005903250793381555,
                0.019479781561489835,
                0.0026699544995749352,
                -0.021508576627548716,
                -0.03767237612945468,
                -0.02735984424458184,
                -0.0294111598927242,
                -0.03110226704644096,
                -0.039470443315389334,
                0.0011747633160257656,
                0.0026590411177438793,
                0.0035234053790254793,
                0.011269096103068784,
                0.014652536102731251,
                0.01289770536412391,
                -0.0028531602222001064,
                -0.00039625456750388933,
                0.00015529945884503905,
                0.0006893008435017295,
                0.0001097784982058447,
                0.0010695729928819567,
                0.00300382354905071,
                -0.002055802832994214,
                -0.005938074122001613,
                -0.007175173449366776,
                -0.029990115216083323,
                -0.03397533280297499,
                -0.008542545201312037,
                0.02577274648203531,
                0.019916158820919974,
                -0.008501816523116584,
                -0.03443506969929726,
                -0.053214104387478936,
                -0.04772810077721005,
                -0.054593918959161984,
                -0.03087016752752119,
                -0.007893682555257901,
                0.010333057960459784,
                0.007502597266140162,
                0.0016220964233600217,
                0.020795232144667275,
                0.01765642812726443,
                0.00415012214721204,
                -0.006197712232679144,
                -0.0011602501262708417,
                -0.0012200135071938432,
                0.0003416279432198102,
                0.00024865491528295854,
                0.0012293637779777803,
                0.0003108495689980359,
                -0.0037183680027792617,
                0.0007071791515554534,
                4.594014179104037e-05,
                -0.006865235893195719,
                -0.005657166225253718,
                0.007273406269841081,
                0.026762739454159874,
                0.00237568238374601,
                0.0011341191549316828,
                -0.03506022676696893,
                -0.05142263602480839,
                -0.06154989485097728,
                -0.02587704658525935,
                -0.004835655701980906,
                0.023821407010423103,
                0.026252153038296075,
                0.015275551223232833,
                0.009730022836889193,
                0.03478041342657521,
                0.01958141352707321,
                0.0016188541337219576,
                -0.00627587856671974,
                -0.0017407737293836858,
                0.0007136753614492982,
                0.0011550390823410713,
                0.0005398466018044719,
                -0.0002577319821049785,
                -0.004578408557105403,
                -0.0029857053241466314,
                0.0012796983051709745,
                0.00014297307455218462,
                0.014693240224030053,
                0.016261060503329188,
                0.020055035881438737,
                0.028663304826653222,
                0.0009610890031811187,
                0.00546956919545213,
                0.012114729333556644,
                -0.014176241080156611,
                -0.020172042275241133,
                0.004123027672811156,
                0.02229530425199261,
                0.03632218532937979,
                0.03451698676031599,
                0.02971021810987473,
                0.025075842479599524,
                0.02511625183627789,
                0.011142003509515053,
                -0.0007209861318020182,
                -0.001221479500703959,
                -0.0009848707205645567,
                0.0010985185911366229,
                0.0009346714160524696,
                0.0003928741151476442,
                -0.00010067498730857636,
                -0.0036668385905549777,
                -0.0029142264241425685,
                -0.00134399477937517,
                0.010709944211663965,
                0.016755589492458544,
                0.013618881707631767,
                0.02451385224461094,
                0.008080418887318431,
                0.001461629119836927,
                0.013707445983005433,
                0.016408607273699943,
                0.018524021018346583,
                0.02691424333670489,
                0.018090942367123407,
                0.017932722150677337,
                0.01620328478171731,
                0.007596467533213086,
                0.023617349311940424,
                0.008924527810740813,
                0.0032251989714960918,
                -0.0011184242771624144,
                -0.0022626591141929418,
                -0.0025667359011471757,
                -0.0002471256201606013,
                3.396787990881614e-05,
                0.0007869680085949666,
                0.0001941119729420772,
                0.0012938532933169647,
                -0.00039513210841765145,
                -0.004734917692848488,
                -0.004565648330842552,
                -0.00179265800410195,
                -0.0051986791728298445,
                -0.005516499253952014,
                -0.004439128251451964,
                -0.007086997698204386,
                0.01123137614110406,
                0.0313023878067552,
                0.03596786836019063,
                0.03626406267712988,
                0.03169387733322415,
                0.020589165637991295,
                0.012790969599481105,
                -0.003355544569336216,
                -0.012866456761870976,
                0.005060016092462954,
                -0.006612840346846892,
                -0.0047391179144191,
                0.0016987303522100685,
                -0.001617387146791228,
                -0.00080164270676982,
                -9.532422809516702e-06,
                -2.024194058782599e-06,
                0.0011037598086846606,
                0.0008853043932358769,
                0.001886708088972129,
                0.004138953884998422,
                -0.0029337687819576317,
                -0.009421749043745419,
                -0.010795747649167235,
                -0.011769385400051296,
                0.006977100319334282,
                -0.005847433553897325,
                -0.005094251463924653,
                0.0106525384986847,
                0.022227895876352207,
                0.03330937874499768,
                0.03672336232663113,
                0.02735126158139222,
                0.02551531047812821,
                0.01426326550186097,
                0.007465152418706941,
                -0.005527857283809496,
                0.002995179059456914,
                -0.001883317719083077,
                0.003103867624266862,
                0.00854774629847541,
                0.0010517436992057985,
                -0.0008858869627157435,
                -0.00013406601389803375,
                0.00013094516950372772,
                0.0005516955734449138,
                0.0005909888894440522,
                0.0024309864076982953,
                0.003123014895461716,
                -0.0019627309944532895,
                -0.0088824185285535,
                -0.0024394979384560946,
                0.0050556185652568955,
                0.02021363417754551,
                0.011764257623993244,
                0.014172527110423818,
                0.00908784940678756,
                0.011550408569687283,
                0.016783348421084626,
                0.019259207570791602,
                0.03444539486953558,
                0.04260101927917565,
                0.0237189826546552,
                0.01344986457964636,
                0.011233858338292093,
                0.006448319162652369,
                0.0010579576171539475,
                0.001779046954049263,
                0.0049945877817998505,
                0.002251757278991619,
                -0.0010828350603388245,
                2.8913779229637276e-05,
                0.0007607595643696907,
                0.0010693698411178715,
                0.0007713187535570782,
                0.0005052124846341936,
                0.0007739695930794132,
                -0.001326261160215932,
                -0.0003405822089495032,
                0.007686586443923272,
                0.011807696938996038,
                0.019396546447719296,
                0.022578020030091964,
                0.038217700602376004,
                0.02637540367008198,
                0.022880953389290276,
                0.02903919400297634,
                0.03333329302482507,
                0.031526842370275684,
                0.03524994890685858,
                0.03948421237288492,
                0.019437810011983143,
                0.015727947669821263,
                0.010994305657141096,
                0.003917162273613948,
                -0.00047030346528665034,
                0.0021345640863689994,
                0.002709240098438533,
                0.0002919181714189403,
                4.516646475109548e-05,
                5.968494170789063e-05,
                0.0007785215112566383,
                0.0007271564546678437,
                0.0005337496869065181,
                0.0008062434761257049,
                0.0004923042616495058,
                0.001840090986710098,
                0.004736169734287207,
                0.006714238659119116,
                0.012032341738260616,
                0.015227642075528626,
                0.01739148730253122,
                0.018961188510688835,
                0.022603790711065462,
                0.02049300250892168,
                0.02547559833163203,
                0.016694514832479312,
                0.015168171606236487,
                0.02187595389613417,
                0.012284306439672939,
                0.006649207008076679,
                0.00937374047935788,
                0.006748905067745292,
                0.002220689789872564,
                0.0014895754286942766,
                0.000956482656337495,
                0.0005201754102799257,
                0.000634823853514427,
                0.0003777875871775978,
                0.0011059831239632065,
                0.0004277469579372841,
                0.0011095353128790244,
                0.00014107524941349897,
                -2.6505317885519737e-06,
                0.001113658319302152,
                0.00013624317623880835,
                0.0010935146770211755,
                0.001330087553959065,
                0.0008583074054290624,
                -0.0020788976279733137,
                -0.0020256263346550684,
                -0.0034515199557247204,
                -0.0025543447436080766,
                0.0015772158180948953,
                0.003142125097425341,
                0.004574911888814974,
                0.0023344825820490935,
                0.001986628331626258,
                0.001988558233808282,
                0.0009151282029190217,
                0.0002775353268645764,
                0.000260702007692675,
                0.000637859361582074,
                0.0008960133759373538,
                0.001005003493969014,
                0.001099639737716933,
                0.0010119275383061528
            ],
            [
                0.0005910223909041779,
                0.0006464425855976661,
                0.0006554042933207187,
                2.1739632648399346e-05,
                0.0005557730035184006,
                0.0011999091547227453,
                0.000997624890891816,
                0.0006331117853658454,
                0.0001029236576114728,
                0.001210357592415756,
                0.0009065604874164177,
                0.0006520355755405189,
                -9.176268434639722e-05,
                -1.7018305486186086e-05,
                0.0004046174382556788,
                0.00021985714961130753,
                0.00012292336894849482,
                0.0012231768529577729,
                0.0004983154607934356,
                0.0007825421798052578,
                0.00025266143392155683,
                0.0005816050179340101,
                0.0004701051161239559,
                0.0009763571745377175,
                0.0001249344486535915,
                0.0008863306839679774,
                0.0002823104167616185,
                0.00022654841843068767,
                0.001038959387561204,
                0.0003152584319643423,
                0.00072725360574612,
                0.00033907248428021293,
                0.0005635064224078596,
                3.4616671798425295e-05,
                0.0004050592818557453,
                -0.0008180028807169349,
                9.972761630754023e-05,
                -6.081677917472848e-05,
                0.00021166585565883932,
                -0.0006153765787713917,
                -0.002258171239614083,
                -0.0015886353969027265,
                -0.00204537554223755,
                -0.0029156553125971284,
                -0.0038009863136416115,
                -0.0031244396384363738,
                -0.0028368156222971733,
                -0.0026028864056446698,
                -0.0020629612316010173,
                -0.0007332651642660333,
                -0.0006062431025521831,
                0.0008230652167274671,
                0.0007322587146888225,
                0.0009207360190382701,
                0.0009927813570732036,
                0.000936987058545921,
                0.0005261778749933195,
                0.001041626121499483,
                0.0006632538437248983,
                0.000770614318805791,
                0.0008295839704383904,
                0.0002466624906959879,
                -0.0005653456213178934,
                -0.0027432917205458714,
                -0.0018333545499582824,
                -0.0019983702585828506,
                -0.0024004400008606143,
                -4.09155678998375e-05,
                -0.0027022362929204455,
                0.0015289672141077933,
                0.0027903074645181263,
                -0.00034986811470810546,
                -0.0039812006292381874,
                0.0012780991660698716,
                0.0010378638258017458,
                0.0026950735002714303,
                0.002081393350107585,
                -0.0003928972713356073,
                -0.001808323666816718,
                -0.0014092735675411581,
                0.00041151228984470434,
                0.000273101461343463,
                0.0006096714430866857,
                0.0007287437920446096,
                0.0001042725596975744,
                0.00048726939870125265,
                0.0007989364397962093,
                9.033978944627725e-05,
                -0.0004049954015806711,
                0.0009216741497730905,
                -0.0023440347298945264,
                -0.0006336548032817034,
                0.0028272056675353336,
                0.002970097063396077,
                0.008841146597331859,
                0.016795008151953013,
                0.02208402280990819,
                0.02316854449904569,
                0.021926731410659886,
                0.009475789642640295,
                0.016521286550529257,
                0.015086728537941109,
                0.011565622167046864,
                0.008653302515199144,
                0.00693337276296605,
                -0.0054665985766398015,
                -0.008760592230219851,
                -0.0051291505300852195,
                -0.00038370044420262613,
                9.491582785041774e-05,
                0.00033432052105799437,
                0.0007415434739739699,
                0.0008198893139686333,
                0.0011707661923670758,
                0.0010880039995599484,
                0.0010065636390911884,
                0.0023771223546918993,
                0.003554720754912033,
                0.0057837321789229726,
                0.008151625862157199,
                0.020262312167638356,
                0.018238388429104923,
                0.015258461520348786,
                0.01620328066672061,
                0.0025890994050259473,
                -0.007353546209369042,
                -0.02713430226232228,
                -0.015568325068261918,
                -0.007007798456932222,
                0.003661864774050031,
                0.00528309505882878,
                -0.003180915953093937,
                -0.007710651438881006,
                -0.01495358313761539,
                -0.009506299910026206,
                -0.004724140549332961,
                0.00020988377705732694,
                0.0011941656030695286,
                0.00029168153654790264,
                0.0011135756185664094,
                0.00101014625325584,
                0.00029999988937428354,
                0.0008160902928278501,
                0.002869480266188624,
                0.005344720886446771,
                0.012270795919762783,
                0.015239556275833864,
                0.01619347917775636,
                0.02010941531688245,
                0.016069562990274584,
                0.01863639265907474,
                0.0168865250919075,
                -0.0008058366524763491,
                0.01485505936164715,
                -0.006409623865645709,
                0.0018007866913200257,
                0.007222212392441705,
                0.012718787032278942,
                0.014251981506416917,
                0.008429837156819834,
                -0.009902334139508433,
                -0.022983052706355072,
                -0.028255564376939254,
                -0.010711811696453095,
                -0.0006790587975614448,
                -0.0005814192562513442,
                -0.0012477652092148476,
                0.00016245216904362745,
                0.0005844551608793046,
                0.0010302777992824504,
                0.0003658015728993958,
                0.0053826097267983845,
                0.00676653086533359,
                0.008611584897823965,
                0.011905218689182422,
                0.00606427669566325,
                0.0165201947221508,
                0.02529142575966027,
                0.028233693549666643,
                0.026536949384156086,
                0.028387917343270053,
                0.049817215729628904,
                0.03816197934779845,
                0.015623825971100905,
                0.02951087390407452,
                0.028108203768241517,
                0.04585696185149393,
                0.007983095227877114,
                0.006339281265651784,
                0.003908711582203459,
                -0.017438751346217092,
                -0.016187160652869934,
                -0.005202579265888199,
                0.0014096613342635424,
                0.00039080108517471903,
                7.608713538206591e-05,
                0.0007518912256616245,
                0.0012849861313473502,
                -0.00046683102213907336,
                0.003426701714530748,
                0.006402826755271662,
                0.008760508825955778,
                0.004573605856379937,
                -0.004439442725548364,
                0.007422479911922399,
                0.018944753529140632,
                0.022146436636450714,
                0.040732125582832394,
                0.047803932614667,
                0.043061830533073886,
                0.04419689250913986,
                0.030159967384996256,
                0.0169775052219053,
                0.03289076598174205,
                0.012696519407787052,
                0.02220195470659409,
                0.007628275809855205,
                0.0001218698120534878,
                -0.0036220783724475896,
                -0.013227168562573034,
                -0.008473577266284005,
                -0.000473503288350236,
                -0.0024625524997323937,
                0.00031010763540843724,
                0.001149501969352507,
                -0.0008636286564304294,
                -0.001138232028030878,
                0.0017356122016607034,
                0.005888712648608581,
                0.004001034403630007,
                -0.0012306578350545886,
                -0.014614614142378262,
                0.006086702218683537,
                0.0010986528097121626,
                0.005932500165869023,
                0.00652579954887618,
                0.008172145280767068,
                0.0015440793121843286,
                0.008993777976055061,
                0.005519203478714122,
                0.00602202713907314,
                -0.005379029348902887,
                0.008868335975429194,
                0.0008632775993667414,
                0.0008148179701122533,
                0.010377824637521385,
                0.014611404061344544,
                -0.00873652644956401,
                -0.013409939773281384,
                -0.010164292166084173,
                -0.002907040573632625,
                -0.00014283771976617184,
                0.0003667753912522574,
                -0.000887975357929446,
                -0.0003374377251766464,
                0.003346291065288527,
                2.0077741088634468e-05,
                0.0028332538375117414,
                0.00569688567720872,
                0.005454983409019117,
                0.01375973061163701,
                0.008763129205173118,
                0.018544322190044052,
                0.0027096527750241134,
                -0.005525450369065916,
                -0.007603993217640875,
                -0.01905076108442945,
                -0.01496033068944232,
                -0.004560295565977887,
                0.003539782909559317,
                0.00460670286662147,
                0.0052714389203421435,
                0.009021919361137214,
                0.0020670310969131632,
                0.017647102612591524,
                -0.0039739759035835615,
                -0.005746177349254653,
                -0.007034255710362151,
                -0.0035814935248639577,
                0.00035961747026102945,
                -7.082836417508146e-05,
                -8.893693268139744e-05,
                -0.0009984127451871441,
                0.006305388298471418,
                -0.004947501730536343,
                -0.005093780606765256,
                0.005445876553195583,
                0.002925927581633854,
                -0.001961087762948619,
                -0.00927101984127159,
                -0.007203865012781732,
                0.0031913009943794644,
                -0.014946167476282076,
                -0.031950229848048205,
                -0.05533967063972843,
                -0.04122850196404265,
                -0.008311767894555304,
                0.01158526291972546,
                0.006858734220394959,
                0.017803036694037756,
                0.01815802640637765,
                0.021161963534336834,
                0.02907599446909293,
                0.009820046454949688,
                -0.0011821240251733848,
                -0.002624758261977969,
                -0.0037234026315198557,
                0.00045229612056238894,
                0.0010414409049323806,
                0.00025506832946670555,
                -0.0004899007563616949,
                0.006025634352434034,
                0.00010648042497680254,
                -0.01091851283293271,
                0.004608225295863731,
                -0.005125484850785787,
                0.0069103635721234034,
                -0.009197678687563575,
                0.015951205584117955,
                0.011665710867996627,
                -0.007212006939661126,
                -0.021380592049071688,
                -0.039230774684618,
                -0.018866456081805025,
                -0.0030267472189702497,
                0.03191923194314059,
                0.02145040030016305,
                0.024384792762338407,
                0.037833848990226,
                0.031827723829431255,
                0.033378251232895714,
                0.011998751244406178,
                0.0022793602627263,
                -0.0030600281989054227,
                -0.00016988475735289077,
                4.412503621053925e-05,
                0.0001488320503749026,
                0.0007329558859540137,
                -0.0009931837056423554,
                0.0011790539298905005,
                0.01101119109310159,
                0.0002936243219246603,
                0.015106872512717036,
                0.0005569012603400184,
                -0.0016643821401473586,
                0.005258936235713721,
                0.025570998100438412,
                0.014911222928960782,
                -0.013134987641231026,
                -0.005752140184647139,
                -0.00947514922095659,
                -0.003039918735994295,
                0.005347355160518012,
                0.02666097871098245,
                0.03300595483624996,
                0.03515802510837153,
                0.022253371738379237,
                0.01879283329555655,
                0.02567776439906801,
                0.011730308940293432,
                -0.0014501623737635443,
                -0.0007261684817638262,
                -0.0015451087267202412,
                0.0008785265913893282,
                1.718859176325128e-05,
                0.000259733500895478,
                -0.0009550044084470605,
                0.0027668563547665424,
                0.023179118883760803,
                -0.002582055321087348,
                0.0011778109765373968,
                0.01319088672688651,
                0.004604401483444923,
                0.007266973146134144,
                0.01820043355040625,
                0.005028222423315003,
                -0.0061503837206789685,
                0.003013161588418315,
                -0.0022774850476123994,
                -0.00959020861217097,
                0.014910820805946138,
                0.02158303459966868,
                0.017628811100843578,
                0.024069121219444944,
                0.010508700237177086,
                0.01286612232540213,
                -0.0008073254207371351,
                -0.007883763389047312,
                -0.0043523016151938215,
                -0.00035211112727482816,
                -0.0006463148832248381,
                -0.00020994834478257324,
                0.00024233849851626395,
                0.0015519245519021875,
                -0.0004527583977157449,
                0.005347335181240142,
                0.020331818826204467,
                0.0023794715665414385,
                0.005675593625182411,
                0.016617492631121528,
                0.007925309390500778,
                0.004184806652554312,
                -0.0016240520790433012,
                -0.006111797095960589,
                0.006495045938347678,
                0.0062906925465202644,
                -0.01879056988977852,
                -0.007909993916256273,
                -0.0072206006259341645,
                0.010247757911686453,
                0.016818921314156868,
                0.012796159796094652,
                0.01812846199048146,
                0.004882302966013304,
                -0.010195098400744233,
                -0.005741164200179607,
                -0.000548040353758954,
                0.0013230046620259215,
                0.0019198212888484625,
                0.0002539565671998831,
                0.0002547371748963384,
                0.0018420634950338565,
                -0.00013870119410311295,
                0.0001706314819554206,
                0.019336638944745646,
                0.017952416830743646,
                0.014110267891492214,
                0.015270967713168852,
                -0.0004791855851189786,
                -0.015373730436482224,
                -0.004447805045023003,
                -0.002696886896594455,
                0.0008993156086172457,
                -0.017808161799112494,
                -0.02973463817618094,
                0.0003858739408722788,
                -0.00638254225986778,
                0.01047321900960176,
                0.013546425433575579,
                0.021996327405242506,
                0.014233851048638602,
                0.0019998115659720156,
                0.0018550070748031573,
                0.006485304918409842,
                -0.0002579879854484171,
                -0.0018588979765460415,
                0.0025755851205904764,
                0.000990595696910692,
                0.0005147444579214235,
                0.0008443419749738392,
                0.0018408932193084034,
                0.0014259423244377006,
                0.019823926747927562,
                0.019427459885688638,
                0.002671603664691807,
                0.007500831453553485,
                0.003994500545645006,
                -0.020128494761987137,
                0.0051699832984003,
                0.010410084552226624,
                0.0025162776277154316,
                -0.017349069736518417,
                -0.02259024606581748,
                -0.017669505646326786,
                0.0025388519618899873,
                0.009011388644369416,
                0.036795462741556366,
                0.024184513513827534,
                0.010588940671164584,
                0.0030745314045040667,
                0.013006176435003713,
                0.003236703715047121,
                -0.0009884475381674678,
                0.0005814624022962433,
                0.0016809117602971733,
                0.0008854733731078056,
                0.0006379558859954334,
                0.0013372462723606976,
                0.002465162221675108,
                0.0068596672020082745,
                0.010786065232892866,
                0.005973326022833333,
                -0.007566878130656378,
                0.014048649220530573,
                0.016475249077519873,
                0.009278181996542456,
                0.015256607292072165,
                0.006714841881803713,
                -0.0014746145826439704,
                -0.009945530476100509,
                -0.025044357575972637,
                0.0011030594606711637,
                0.017720086291182935,
                0.02910411986133117,
                0.021160554756666748,
                0.02635619650250122,
                0.000781047390793684,
                0.0029251987642638184,
                0.00619182236792883,
                -0.0022088420174278343,
                -0.010266272860222579,
                0.002247348181331433,
                0.002431843901696131,
                0.0004080730312853572,
                0.0005336004800500546,
                0.000904633322520033,
                0.002574616706552808,
                0.010727270483050985,
                0.010291380907282236,
                0.0045656507716942225,
                0.0033758395042755214,
                0.017190576051561827,
                0.025467072620529517,
                0.018723071945108437,
                0.036415108765440206,
                0.033706776553812635,
                -0.013938438227858462,
                -0.031171538178881006,
                -0.014564880462520916,
                0.027988593663082942,
                0.022504726278725483,
                0.02748679941605085,
                0.0037921440436458117,
                0.014970666068733776,
                0.0013532693667727786,
                0.011474996011976556,
                0.014755221109520567,
                -0.0027561357711053543,
                -0.005801592329466946,
                0.004910817063671781,
                0.0016049185746491177,
                0.0005013116414457792,
                0.0006725685076747056,
                0.0008937859401031503,
                0.0015184430364011167,
                0.014144132116498976,
                0.010706800131341399,
                0.01167179041963828,
                0.0027391790992296757,
                0.013470904653173181,
                0.006346181994854679,
                0.0003081096585858991,
                0.01654387309743003,
                0.002393515159698154,
                -0.008356369793334928,
                -0.017122954428547568,
                0.0025561337077308144,
                0.004745045042687321,
                0.0011381242726773186,
                0.0017107706942315136,
                0.003436724830443999,
                0.004767971562457831,
                -0.00030560740572455427,
                0.010329685111059441,
                0.012377841263924296,
                0.00020285531643120664,
                0.005140400460823627,
                0.007281229121226989,
                0.0014067043586996318,
                -2.277511066349105e-05,
                0.0006223707849888871,
                0.001671873442992598,
                0.001069029638180714,
                0.0101800681643807,
                0.013824408188388376,
                0.010736661030442114,
                0.005797536970370097,
                -0.009938721784566755,
                -0.015412108677200506,
                0.0004705542997178034,
                0.00017278871510361784,
                -0.020568398858525967,
                -0.03306714418236774,
                -0.010741182736815805,
                -0.010851603140791538,
                -0.016835025692837353,
                -0.0050384033802516525,
                0.0015059571044267574,
                -0.00038804078527564977,
                -0.0060346387406381265,
                0.002766838322894008,
                0.0016764879563349016,
                0.009798434304982383,
                0.0010297068841923127,
                0.011214279967162021,
                0.0069830442520855025,
                0.0007120993756001952,
                0.000297411940133011,
                7.079918246166521e-05,
                0.00026346807946403165,
                0.0017427860410636473,
                0.006244662196414198,
                0.0031990837626374013,
                -0.008439235522584907,
                -0.010335981458145417,
                -0.016256674585016683,
                -0.02468993675725958,
                -0.023360721874904265,
                -0.023383477909571786,
                -0.018217888454429343,
                -0.011703233734295066,
                -0.006663989332849688,
                -0.014166688921226314,
                -0.006285557305077157,
                -0.006600643449519852,
                -0.027505307654955655,
                -0.010755562829522208,
                -0.006497565921628518,
                -0.004648428058523465,
                -0.0021881023485212916,
                0.0035796111361883222,
                0.00771519781262918,
                0.012729708547436306,
                0.0032511231022924057,
                -0.0004675841738641223,
                0.000896924041133516,
                0.0004672209150769981,
                0.00010986785495758003,
                0.0019654504244695594,
                0.003459277453476352,
                -0.003669434211210151,
                -0.02697548685721799,
                -0.016579217512136545,
                -0.013553662504194507,
                -0.008341124194736763,
                -0.01133606171296519,
                -0.015849186151494762,
                -0.006253865767810863,
                0.003878592533824215,
                0.009841647066377752,
                0.006893742045836041,
                -0.011647598565466958,
                -0.022808981109163535,
                -0.015396835838607383,
                -0.012802972541885442,
                -0.014347587286637455,
                -0.0008214297576105454,
                0.003845004655257965,
                0.0129493971097755,
                0.013729219396210657,
                0.007655512487556795,
                0.0016957422627578355,
                0.0007080366025637274,
                0.0009198204292325847,
                0.0007134721928494213,
                0.0005860065148384134,
                0.0011477443216264792,
                0.005126458640002047,
                -0.00034637668354310056,
                -0.011893214314893128,
                -0.01601078134178978,
                0.006518554194407542,
                0.001054903335238625,
                0.0025684502356438225,
                0.013447906447462563,
                0.019818385505528304,
                0.02101539994854297,
                0.01632102829249336,
                0.02041834208034595,
                -0.00039535506789331766,
                -0.002810465362714404,
                0.002313496191200826,
                0.011438976336541652,
                -0.0020479541870946283,
                -0.0022630851793878797,
                0.008331080718295438,
                0.010076892534586514,
                0.00826035617904836,
                0.006278466460134425,
                0.0011494523455565305,
                5.179067447988237e-05,
                6.743074933378598e-05,
                0.0005041848475016976,
                0.0010089362873099065,
                0.0013394347635672693,
                0.0047804992743584115,
                0.012275791522550239,
                0.012049059352400719,
                0.012608833380821345,
                0.016190150194496895,
                0.007553793044035269,
                0.002522795046475773,
                0.023641113846707154,
                0.014470286732070719,
                0.020560950844241938,
                0.022127837405579276,
                0.02915617588737515,
                0.027819111065677398,
                0.027733245360399724,
                0.026485353577694933,
                0.005747776522866382,
                -0.005490461026684558,
                0.006512268615887567,
                0.010254763475740825,
                0.009157055427197237,
                0.00807205823384741,
                0.0018755449623982245,
                9.681550041694291e-05,
                0.0008588188846339336,
                7.302547451785621e-05,
                0.000942548549258582,
                0.0010372324636684063,
                0.0008796984417849349,
                -0.00010950818124880243,
                0.006694423285800283,
                0.017265956778558123,
                0.019170757821991024,
                0.019996011107441928,
                0.018787958638686608,
                0.01363803154674083,
                0.017044426589316538,
                0.014086060178589778,
                0.012479545978209907,
                0.02191769333962544,
                0.02435758601306841,
                0.008295204111039376,
                0.001961938897909594,
                -0.003281791850612176,
                0.006383154783364116,
                0.010618508340511932,
                0.015939544786416612,
                0.013041140892233138,
                0.004167214179511145,
                0.003059088040138199,
                0.0003752133484757842,
                4.843533093527706e-05,
                0.0008659247245191466,
                0.00039439559335704554,
                0.00026405160229978606,
                0.0008390152666039904,
                0.0003567374499552491,
                0.0011263760668712437,
                0.00369395279894307,
                0.00789953396047494,
                0.013581425694196956,
                0.012488247479111824,
                0.012199585232380745,
                0.019129483879920726,
                0.01954913548648049,
                0.01637592657872174,
                0.018526689880232462,
                0.018857774053376953,
                0.031597735553019216,
                0.018595261631251327,
                0.014293451879339345,
                0.017425811056470723,
                0.016770577464643166,
                0.014917041382767888,
                0.01365617663264268,
                0.009426340899069833,
                0.002707584238505223,
                0.0008217751348831978,
                0.00036242563801431243,
                0.0008695770174615173,
                0.0009267793800229701,
                0.00040208175092786155,
                0.0012513264039112173,
                8.30601315136242e-05,
                0.0008557757275640123,
                0.0007347123338303223,
                0.0002558306253050378,
                0.0012401278459778769,
                0.0013918393437850022,
                0.001970403796546518,
                0.0023736924106584744,
                0.0005737832607334917,
                0.0007082269723545809,
                0.002834499455716619,
                0.0044229662735733736,
                0.0017089723469830569,
                0.005687079391422184,
                0.005241613341068219,
                0.0029843598246023623,
                0.002143813399794542,
                0.002663621816282508,
                0.0029239735236985466,
                0.0026556570789449535,
                0.0009234598305174939,
                0.0006449437754317823,
                0.0007557030956864431,
                0.0011282775881479479,
                0.0009151534193318258,
                0.000931950448994725,
                0.0006728146595557777
            ],
            [
                0.001230297550074843,
                0.00010038490690080824,
                0.0006304961780270764,
                0.0011258059620636602,
                0.0009071774138114802,
                0.000656432671616873,
                0.0004636296462406978,
                0.0012027851810435055,
                0.0010552684309407883,
                0.0010918466152904252,
                0.0007497704678805836,
                0.0008861437861898189,
                0.0006377900935274936,
                0.0007087000765105822,
                0.0006250430488824652,
                2.048287603494795e-05,
                0.00023253734668667877,
                0.00020382753649726392,
                0.0005268284913945544,
                0.00032637840374974024,
                0.0006335366381306372,
                0.001209696753093351,
                0.0007390691960657639,
                0.0010462859755784322,
                0.0006944471236612277,
                0.00013615119954737975,
                0.0003275439571882199,
                7.312881593519354e-05,
                0.0010433484373385193,
                0.0012203295871454037,
                0.0006286343271852604,
                0.0009453788798269738,
                0.0007153274047405442,
                0.0007988529598070101,
                0.0029315869039713543,
                0.005576917692737206,
                0.0036517712590939636,
                0.0020201710270427576,
                0.0024220700509240693,
                0.0031691702368363043,
                0.005405075852887495,
                0.0035388051353042846,
                0.0031385232255392455,
                0.0031946794492116975,
                0.001071702424820538,
                -0.00014738859307462308,
                0.000941006608246298,
                0.0008987870629198857,
                0.00027022754558202644,
                0.0008935038514616102,
                0.0010241363972104446,
                0.0004144420262957635,
                0.0003970151646687624,
                0.0007782696544678674,
                0.00010320705551561168,
                0.0008665438776508911,
                0.0008985390262029884,
                0.001124999747747543,
                0.0012369715722853874,
                0.0011790084805885887,
                1.8106126954654765e-05,
                0.00015020677648407144,
                0.003189713223218137,
                0.008103845001053373,
                0.006932287940517986,
                0.005686666594677854,
                0.010027834777878835,
                0.013358922815233909,
                0.015348775510671117,
                0.018753311162636233,
                0.015774213080856046,
                0.011852531641940237,
                0.0067020621338440885,
                0.004199388001571819,
                0.004089138456162007,
                0.0055122588494325485,
                0.003657337324146062,
                0.001893127302036994,
                0.0014493232407399865,
                0.0010612716458423324,
                0.0004422663562096432,
                0.00026985646212028774,
                0.0004710145373757047,
                0.0012484050260966602,
                0.0007983777550731616,
                0.0008154270237391491,
                0.0013295840568027738,
                0.00016612830274826296,
                0.00018500943534802052,
                0.000931413812620818,
                0.0018482766035105215,
                0.009983190858126479,
                0.015521138821524609,
                0.015719001630594826,
                0.022543831218912586,
                0.022849711509082563,
                0.035391533262558256,
                0.04441419175264179,
                0.028121386555424347,
                0.017324665052714155,
                0.007577215820907438,
                -0.004530824204003702,
                -0.009758917659502517,
                -0.0027422422276599345,
                0.0012385932945944576,
                -0.001515084360797744,
                -0.0012583313288373622,
                -0.001360611170510032,
                0.0006693642509113874,
                0.0015254797005345242,
                0.000489233176984944,
                9.94392822300825e-05,
                0.0006935564737609531,
                0.0011709202402597522,
                0.0007643518866575714,
                0.0012697772727352156,
                0.0022078873516289672,
                -0.0017931347450179564,
                0.0025490145483784343,
                0.011437465828850944,
                0.018150375102579542,
                0.02334468249972632,
                0.026164939828894767,
                0.024462006560861692,
                0.008488503643299374,
                -0.007633941799457763,
                -0.01776572238537147,
                -0.01639031706269787,
                -0.03074559032788228,
                -0.024263373817676837,
                -0.014429734130912574,
                -0.01770337219958683,
                -0.014568418788266438,
                -0.003350811323215922,
                -0.003008929236281756,
                -0.0021456950315068765,
                0.001231369350654191,
                0.0010054719529290145,
                0.0012382502338042104,
                0.0005902683800960473,
                0.0012188031765880815,
                0.00042518603046343096,
                0.0004941765616265807,
                0.0023985632113288943,
                0.002474154119560393,
                -0.0005425576733278449,
                0.005495341287044809,
                0.012730639617630888,
                0.01608499753602423,
