{
    "1": {
        "biases": [
            0.02634085756966352,
            -0.0781939443173371,
            0.1391581243758529,
            0.07522699093279005,
            0.06422287850591969,
            0.014025538524410143,
            -0.042856759488592765,
            0.04450885793452146,
            0.1722502944435873,
            0.08082667173652686,
            0.12586498583850936,
            0.11634453660337907,
            0.13116566650339764,
            0.04984108517223349,
            0.04566120054044085,
            0.0733410006745969,
            -0.016166203446071538,
            -0.06442340011709466,
            -0.09660917191070416,
            0.1444867519373305,
            0.023602890170888166,
            0.0785178087454731,
            0.021499643887980178,
            -0.08459593195435589,
            -0.0027407403896222027,
            -0.05990582371438165,
            0.05586192058851229,
            0.09209885905877813,
            0.11505522162643199,
            0.14616345311204537,
            -0.014663956108912355,
            0.09897246521329586,
            0.11542350137158833,
            -0.018726461747836293,
            0.01404415492238559,
            -0.060974021250854125,
            0.0412274420966448,
            0.0024267389761751606,
            0.08421738855531125,
            0.13886357307265682,
            -0.014998841834420096,
            0.05085237505926327,
            0.059327831048073494,
            0.04656952543079466,
            -0.0334101215542476,
            -0.10447682663113228,
            -0.02324504985374258,
            0.089510017460028,
            0.03940912758220176,
            0.09049294236089078,
            0.07978369043858524,
            0.030805425102075398,
            -0.04816103039396416,
            0.07970033696158055,
            0.12077698165023254,
            0.027518715436656967,
            -0.06335045564328712,
            0.22580845827394383,
            0.10288211118407099,
            0.06731211185703882,
            0.06598298634458548,
            -0.03598987976583842,
            -0.034667459871263975,
            0.07116836737716405,
            0.08858420872988236,
            -0.005736476865048355,
            0.13684980997167545,
            0.0017368112317809644,
            -0.022069049591794777,
            0.0877095361379266,
            0.21121342027663415,
            -0.00434822766693858,
            0.13317485931553438,
            0.05308880828214611,
            -0.06742611081942586,
            0.12083072584522322,
            -0.016046481758276644,
            0.09464661193160807,
            -0.005030374932102136,
            0.0666027633472661,
            0.06784618241672932,
            0.0724138556363484,
            0.15899030690004798,
            0.10122917437384711,
            0.03322087432865322,
            0.10914443620067188,
            -0.15212613779105366,
            -0.011548414827820546,
            -0.0380878862533852,
            -0.00716106924606805,
            -0.0674257250363144,
            0.043046500876604235,
            0.2020724565833015,
            0.0021472442913404487,
            0.16559047870713559,
            0.10685964851355577,
            0.1687246327958406,
            -0.032125569024393515,
            -0.010204051607420302,
            -0.041082689781826214
        ],
        "weights": [
            [
                -0.00015620981736837335,
                0.000876416348238914,
                4.261046548557486e-05,
                4.304163104485746e-05,
                0.0005923960278138877,
                0.002721216920897502,
                0.0013076159236687242,
                -0.0001637357474028253,
                -0.0008800856060449882,
                -0.0011985959213553924,
                -0.0009896997164011215,
                -0.0025811156968150576,
                -0.0011730057217496674,
                -0.00026408832419994266,
                -5.883092089333892e-05,
                0.0004842205112421404,
                0.0017960293120990551,
                -0.0004293547070308186,
                0.0015516795562530692,
                -0.00036516540469817713,
                -0.001683281372019622,
                -0.0006031890550081176,
                0.002143065182178401,
                -0.0005194895050656079,
                -0.0007773744416139024,
                -0.0012655536474469869,
                0.001414865646388035,
                -0.0012445843844083627,
                0.00020330744633459367,
                0.0018163499860356176,
                0.0007274197076140479,
                0.0006603644513819304,
                0.0014267719319623294,
                -0.0018491707935571326,
                0.0012049440322890806,
                -0.0005373669311606352,
                0.00010435240294343228,
                0.001104390353162474,
                2.320621092842383e-07,
                -0.0005520938937741693,
                -0.0010435664317997812,
                0.0011028559600881661,
                0.0019777274323363077,
                0.002531723134055781,
                0.0023293141641552257,
                0.0009714430069865239,
                -0.0017781896102024002,
                0.0019236707641118326,
                0.0004684835890858603,
                0.0014456904873670338,
                -0.0006797865535569209,
                -0.0007438011385398422,
                0.001172071672698429,
                -0.0015897077572554425,
                0.0007070436470758751,
                -0.001185297086536869,
                -0.0009020460707560594,
                -0.0004910255605295638,
                -0.00044868230762124575,
                -0.0005701094842921578,
                0.0015302690306749451,
                0.0009176806115911375,
                -0.0019986557347481306,
                0.0005016488061081717,
                0.0024860482357825374,
                -0.000503826277334353,
                -0.0022761771647692476,
                0.005397078030605128,
                0.001563421796784259,
                0.004951347089914797,
                0.009662240950951261,
                0.01468650711727335,
                0.010404944135739521,
                0.0005495641367037234,
                -0.002885137521865512,
                -0.005512789051510589,
                -0.001330833354411345,
                -0.002259051151630608,
                -0.0022945846956865024,
                -0.001173342974579195,
                -0.001975370813508643,
                0.002018274105294685,
                -0.0010607324739170228,
                -0.0008308328824999368,
                -0.0006353197558443879,
                0.0028774301701966413,
                0.0006909850647120659,
                -0.002236641081837044,
                -1.995385202310648e-05,
                0.0006414497091355177,
                -0.00019992401509148658,
                0.0010750185731458616,
                0.005853373562559726,
                0.008315426779201175,
                0.008506635649094678,
                0.00799350307533561,
                0.015802227549001926,
                0.015337423753155992,
                -0.002790200252095317,
                -0.0005009985246073388,
                0.004783746209662904,
                -0.004079044566460857,
                -0.013073006696408398,
                -0.017938149389702916,
                -0.01751162857341078,
                -0.01650792841265933,
                -0.008211207426782675,
                -0.005370094738427613,
                -0.0028550496679957955,
                0.0009704326710635096,
                0.001048017459764641,
                0.0010232134299656029,
                -0.00023324349844392516,
                -0.0020203636645412205,
                -0.0009763136652014675,
                0.0003441892279070092,
                0.0004953027823423272,
                -0.0016917460274282461,
                0.002046600704327022,
                0.004489346290164482,
                0.00979037646813474,
                0.00862556758964198,
                0.0032319920911542893,
                0.013844272509899473,
                0.013370190111868041,
                0.0010428873636109377,
                -0.003065260909466865,
                -0.011280305448498274,
                -0.01944473393820636,
                -0.0279909185178747,
                -0.017889492443987777,
                -0.03244495223058052,
                -0.027634661689281824,
                -0.027890780721446372,
                -0.01559740525854904,
                -0.0056735990083070864,
                -0.005278532163022138,
                0.00016423933311594018,
                0.00033158276640424906,
                -0.0021790701014157,
                0.0013465849593735707,
                0.0007370447860365079,
                0.001245500025017808,
                0.0005141452289916049,
                0.00017023054405278882,
                0.002068861663536125,
                -0.0017433071731607298,
                -0.0022358733832425603,
                -0.015765947161945144,
                -0.028872808150556237,
                -0.020803132411662466,
                -0.004452183370676481,
                -0.008677077962734678,
                0.029825202648338427,
                0.011396461600523489,
                0.02169522908733216,
                -0.0006722823888842027,
                -0.022923115253610658,
                -0.002419483077045355,
                9.578464067097736e-05,
                -0.010566864433010864,
                -0.008583096917994065,
                -0.006020654183021484,
                -0.007354774188802669,
                -0.002499303203920467,
                -0.003262129967363517,
                -0.00206287105583457,
                -0.0011280266549077757,
                0.0019215181831450038,
                -6.0863023980819815e-05,
                -0.0020461467320456363,
                -0.0002895452676668866,
                -0.0028907652615851086,
                -0.013743615808105177,
                -0.01861070018224755,
                -0.02995987148518903,
                -0.03859858101751194,
                -0.028736296882889194,
                -0.01845421735612108,
                0.008236970632454207,
                0.01749217889294826,
                0.056872616150621655,
                0.07296798545942705,
                0.048654632089198145,
                0.032783314014302095,
                0.011807669464686282,
                0.0334323155891353,
                -0.0004881574760370081,
                0.005894533449512414,
                -0.007339560728919324,
                -0.03392968331722776,
                -0.028222820892445127,
                -0.012781152158935136,
                -0.005295580571539901,
                -0.000584136420327699,
                0.0015937195121516804,
                -0.0025348406970207805,
                -0.0026110910777314283,
                -0.0016605623991377404,
                -0.005682521333743823,
                -0.00428313481475392,
                -0.01362908650758099,
                -0.029890960915786843,
                -0.048559822728017656,
                -0.04025031744680566,
                -0.0268123866890618,
                -0.010928479085353363,
                0.0023710876760150686,
                0.0459495745533572,
                0.059564909539362956,
                0.08689899298823298,
                0.06488242713183442,
                0.06666964100277196,
                0.029454052493453068,
                0.02743343924184177,
                0.030184094926393252,
                0.029016920927499478,
                0.01691264190274699,
                -0.011987051949984364,
                -0.025215470849598205,
                -0.0234874710258714,
                -0.013529702355129798,
                -0.004441996885774368,
                -0.00024388659916234665,
                -0.0002874169370748337,
                -0.001501404326820184,
                -0.001541614576685873,
                -0.004850573942557711,
                -0.0025116327156531697,
                -0.01657488119743551,
                -0.027705446482650636,
                -0.04654163950211887,
                -0.02847805684942101,
                -0.021966274586020806,
                0.0005152569045628961,
                -0.013189408849532427,
                0.003354001079362222,
                0.03463931550851831,
                0.06078425470289499,
                0.06235924429085381,
                0.053835812726085744,
                0.03335230888953852,
                0.02489068086502726,
                0.01950394599893228,
                -0.0006256502721886585,
                0.009416379546959218,
                0.009058962139989005,
                -0.012791812981189293,
                -0.017368774686053655,
                -0.013033226765224682,
                0.0002592679771998779,
                0.0027063053791574394,
                -0.0031682287465295052,
                0.0007326298919205108,
                -0.0026055341893414254,
                -0.0008880801332022364,
                -0.0062438946722876525,
                -0.021543327256610005,
                -0.017266355260629022,
                -0.01995665192359568,
                -0.0110743815437603,
                0.004680723379855443,
                0.028131938239767527,
                -0.004980915062065059,
                0.000993683197643036,
                0.03547876040151748,
                0.050881999000870426,
                0.054688452833186414,
                0.03439864952473002,
                0.02308254140415448,
                0.024960687377488605,
                0.002341842992790189,
                -0.007510087207060183,
                -0.003716921740207857,
                0.017876939034902325,
                0.00988166920593709,
                0.0028320196466966735,
                0.003185538013340237,
                0.002397843720463069,
                -0.001167523639205938,
                0.0008608692148559925,
                -0.0013194105720825365,
                0.0007154937798914907,
                -0.00027603122999391084,
                -0.00703830817490809,
                -0.009420758250215322,
                0.0009500357417079418,
                -0.0027779134664632347,
                0.005542649354742555,
                0.0033442026607177606,
                0.007506622146954248,
                0.003779003812468379,
                0.001780756364820384,
                0.008832298863340346,
                0.040550564895065165,
                0.03330847523151069,
                0.04744809699482784,
                0.031860450649517064,
                0.034308149645675474,
                0.026725101897967944,
                0.013746244568459893,
                0.012191635532696027,
                0.03228067027774577,
                0.0293748357733914,
                0.021145495921668585,
                0.011993504954220599,
                0.0024976177829901854,
                0.0008502279920709371,
                -0.00017596164395699548,
                0.00021073480604587378,
                0.002889414507537501,
                0.003050999637494684,
                0.005738804336175803,
                0.007448151653208554,
                0.010896450410869042,
                -0.0007996311636446488,
                0.008684158851399533,
                -0.025215432518650032,
                -0.015167627003999127,
                -0.015063901751353238,
                -0.04195971165576169,
                -0.009552524040602818,
                0.029000528153778966,
                0.052410142468957685,
                0.03334611387020063,
                0.04476288887347417,
                0.06357255040555335,
                0.0553744267982361,
                0.057981576365536656,
                0.04688263448831165,
                0.04241399944502372,
                0.029474477174138973,
                0.023272805332993803,
                0.013831614901272514,
                0.0023276629548436754,
                -0.0012697247390286836,
                -0.0011265541974672022,
                -0.0007687367473596053,
                -0.0004727792089631882,
                -0.0011551996829013429,
                0.015720759635544045,
                0.005579386312678287,
                0.004925324862083646,
                0.005400331425346247,
                -0.012978591064473365,
                -0.017072529056468912,
                -0.03638430008404058,
                -0.07439850413089319,
                -0.08333685629420177,
                -0.026659196402453865,
                0.029397711284179444,
                0.03058188324305519,
                -0.0038884676042946877,
                0.03891063257093084,
                0.03511403227122124,
                0.04188902385873471,
                0.03999245968782305,
                0.022926488382334166,
                0.0030267063315003984,
                -0.0029949028855668983,
                -0.0022656186803214733,
                0.0008751920018861968,
                0.0003246478141829903,
                0.001683277312021381,
                0.0017841190694324527,
                0.0024422404344291997,
                -0.0017244503727634538,
                0.0044199245194377285,
                0.019055495946021375,
                0.00046686131566953,
                -0.012403893311942582,
                -0.009750362331014156,
                -0.012900946453950261,
                -0.024858355855331905,
                -0.05187098539904727,
                -0.07280145668989124,
                -0.04795481127750521,
                -0.023317800333410278,
                0.03170256639807181,
                -0.019250321497227454,
                -0.009889594378004888,
                0.006693188690889932,
                0.009269809231094179,
                0.021785214474742166,
                0.00045550534070438174,
                -0.013767749918408645,
                -0.020373943712300432,
                -0.029858243414817683,
                -0.020379634239481484,
                -0.005957857600900212,
                -0.0004548365170043084,
                -0.0010422630660788953,
                0.0007666704691747574,
                -0.0031225559625948046,
                -0.0019342599572378298,
                0.00518317080682686,
                0.00402238566881958,
                -0.009245381332949353,
                -0.0007858882066214505,
                -0.021855339837127626,
                -0.017496303344526832,
                -0.0269727278524346,
                -0.04106664976609627,
                -0.03421006029334331,
                -0.0226305500697918,
                -0.02447764844090247,
                0.01631312511513693,
                -0.021787900048004506,
                -0.009579001113422796,
                -0.01606445733020405,
                -0.000816560381344304,
                -0.02191913172880802,
                -0.022112563035742223,
                -0.030623765377957732,
                -0.034153602587492754,
                -0.033771256784886884,
                -0.01822423864584018,
                -0.009058250743053591,
                0.003921503731229983,
                0.0016765574028724415,
                0.0015248025959039946,
                -0.0008544637370687495,
                -0.0013183618474547011,
                -0.0043184447066366574,
                -0.004269927787839399,
                0.006227403123744091,
                -0.0015214703289735654,
                -0.009334222276649,
                -0.003664928655320608,
                -0.024593336515879166,
                -0.025100916277838527,
                -1.8674392325340337e-05,
                -0.008270182781323956,
                -0.009966321379639823,
                -0.01662240947601504,
                -0.023704799544850108,
                0.0049720227213812425,
                -0.013882783127215666,
                -0.021613991061582866,
                -0.04133967020155457,
                -0.045328742670381034,
                -0.047075054826546905,
                -0.03725675648525286,
                -0.02280217724744811,
                -0.017835766627706078,
                -0.005536335580405562,
                0.002742061376324856,
                -0.0004473377477780852,
                -0.0005220293332579503,
                -4.413672270608385e-05,
                0.00204178638446351,
                -0.002659751712308708,
                0.010693101304051678,
                0.019111773932197755,
                -0.004413755953937348,
                -0.011923547088518043,
                -0.003953468548226201,
                -0.015063161003042471,
                0.007917362984582945,
                0.012515338664801083,
                0.0022176044629667623,
                -0.02200947494834436,
                -0.031829297722229144,
                -0.03564801901182872,
                -0.0035994326974539076,
                -0.0430424349502291,
                -0.04796133734918589,
                -0.06107453711956014,
                -0.06627940674621952,
                -0.04982711379894391,
                -0.02447797549987265,
                -0.024346200137315182,
                -0.016570006075788388,
                0.0008032406082835813,
                0.0021824946637661142,
                0.0007957133547782318,
                -0.0013438813451646285,
                -0.001264855577067805,
                -0.005971572360581991,
                0.0011655923746693067,
                0.006337089072556662,
                0.01838837551115848,
                0.004641748728118461,
                -0.01368596144780054,
                -0.004582196330503317,
                0.001912356772896508,
                0.0022222148953023467,
                -0.005140376286026136,
                0.020730272823846818,
                -0.0018165111488166116,
                -0.0036578569792308567,
                -0.0070683524244167465,
                -0.04379295146124115,
                -0.05281162384473501,
                -0.05263153176454959,
                -0.039354079358450055,
                -0.05262625722166981,
                -0.03956371849594235,
                -0.01980325879044647,
                -0.022219866560486187,
                -0.007497532387051552,
                0.007997250455621835,
                0.004933896350028522,
                -0.0016975393183597605,
                0.00016692577250366036,
                -0.00480362962840605,
                -0.002200635340998786,
                -0.0025762977507860978,
                0.00744330328677192,
                0.008829761627509296,
                0.006765913618159501,
                0.0023935589405748654,
                0.0007934696206879558,
                0.01554695445199684,
                0.018416278656383723,
                0.015326295724241793,
                -0.002991107265036016,
                -0.009735831505859155,
                0.011946370637128247,
                -0.026566999165975776,
                -0.06421669130476136,
                -0.03231958342540779,
                -0.007314368248192659,
                0.009579796994016485,
                -0.0005363569214190575,
                -0.004602909195295951,
                0.003866512398264248,
                -0.0007263086705223456,
                0.007717458950445445,
                0.006426081241376649,
                0.0013908136323480737,
                3.7559272413400794e-05,
                0.0014467723237842477,
                6.0436932640418184e-05,
                -0.0007774801142151134,
                0.002326622443711638,
                0.002775498665907941,
                -0.005740965410360939,
                0.0067082000215150555,
                0.01767817768585352,
                0.012280279362490648,
                0.011485417540557777,
                -0.004879567354558935,
                -0.0015747749674567392,
                -0.0069020729336649895,
                0.01246357399943772,
                -0.00873056536868244,
                -0.03647764886099051,
                -0.0294195262855613,
                -0.006525738332829219,
                0.009286407838277815,
                0.03155848367673187,
                0.02563872760984081,
                0.017259794870375024,
                0.014513999196974513,
                0.010315818237086919,
                0.009797618614875889,
                0.005985725814984485,
                0.0019835307673361207,
                -0.0009890405062715078,
                0.0005357740216913679,
                -0.001081192758121627,
                -0.0008954910308386436,
                0.005142427649545215,
                0.011965795550415586,
                0.008758737539521262,
                0.017489247485990317,
                0.016534118923773503,
                0.02385839780741593,
                0.008737173443882654,
                -0.012783289202369357,
                -0.02147471031059553,
                -0.026050412038132912,
                -0.010228271943776795,
                -0.016504643628691498,
                -0.017311525430502427,
                0.01722716702683708,
                0.015749323986935855,
                0.012833428875477846,
                0.03163165619946333,
                0.028828214229731246,
                0.02090275165423878,
                0.02720860202659779,
                0.014182154853346339,
                0.012789551742440014,
                0.0043443926255212414,
                0.0012819879529310466,
                0.0038452093360196024,
                -0.0014499259106754041,
                -0.0008415698410286562,
                0.001812050867992423,
                0.00370060699640238,
                0.009225367322557155,
                0.020129616486357062,
                0.020706960784500242,
                0.008857728014959477,
                0.004627800898899839,
                -0.004009474492334496,
                -0.00899556979919852,
                -0.0278391839728536,
                -0.03590921322181224,
                -0.027670344474672242,
                -0.007740877010093631,
                0.020061260548789556,
                0.00769150119262791,
                -0.027559891299728776,
                0.0034337176411866,
                0.011137066920597516,
                0.020958164722558004,
                0.028335290270872754,
                0.021109540203218164,
                0.013001956704273463,
                0.011723052812725959,
                0.005896836878293552,
                0.0002598053474517293,
                0.0005003800669431212,
                -0.00047364518422003254,
                0.0008872083176773247,
                0.0007141483155491396,
                0.004639059748961571,
                0.007740955105555339,
                0.011761002809443139,
                0.014576781631212992,
                -0.003005407880071228,
                0.004821800197494053,
                0.008988401504122048,
                -0.016505632388024084,
                -0.012474694985348549,
                -0.01792622744145784,
                0.002089077127080844,
                0.033165919493247056,
                0.013896583297503628,
                -0.0035628451896295853,
                -0.01256517627912435,
                -0.001979698508482042,
                -0.010030811742618398,
                0.005287225707267469,
                0.01938424034934264,
                0.025021818555445514,
                0.019873240391056937,
                0.006240491059434212,
                0.00045220218006456636,
                0.0010450870405935531,
                -1.5696264001907775e-05,
                -0.0003192870287060392,
                -0.0026634887046467896,
                0.0007153754815983095,
                -0.00022674916719314417,
                -0.0016908070547702603,
                0.008215690424585637,
                0.0013451622195531983,
                -0.003233380569858351,
                0.016544685195691574,
                0.006616087994089404,
                0.0074385669763851955,
                0.008613594579154588,
                0.03489382380852389,
                0.030889624502309514,
                0.02583112694173405,
                0.01955172251776514,
                0.013818893581118173,
                0.005997200881644951,
                -0.007158085783844352,
                -0.0044677601559194105,
                -0.008110027010597163,
                0.01523614440943337,
                0.03056857012672597,
                0.024643178021168215,
                0.010691021491893046,
                0.003790438239340199,
                0.0012437582263216977,
                -0.0006317116373265613,
                -0.0003797169100643854,
                -0.0005129780954673436,
                0.0010136187128089687,
                0.00015405273699084732,
                -0.0010494486267170434,
                0.0013185459667412614,
                0.0019997924916923104,
                0.010703166632615129,
                0.020801115521419385,
                0.01064281166280995,
                -0.001440980248015516,
                -0.010011795033112293,
                0.010277998378898225,
                0.010174140641512704,
                0.00891413307508752,
                0.020511465700589922,
                0.013974877630777375,
                0.008093209531293279,
                0.014681418208585909,
                0.0012802438793618962,
                0.009787847796078547,
                0.024040446731975963,
                0.020441525722151296,
                0.016389624643187592,
                0.007519639254346343,
                0.0001574135695399556,
                -0.0011239984869471963,
                0.0013156395853250165,
                -0.0006985268091587968,
                0.0003529856789863205,
                -0.0016113769883677128,
                -0.0027297535758568237,
                0.001290247930406122,
                0.009960174185879071,
                0.011979595851080332,
                0.012985740791213321,
                0.020816852975728734,
                0.007376287571074454,
                -0.014822326347833169,
                -0.005230497092538858,
                0.008103719027327514,
                0.009819243435298577,
                0.004445621739613351,
                0.0010063984622888553,
                0.018787585021367917,
                0.021450240537514712,
                0.014752799004347745,
                0.019652250956661545,
                0.024712890700522797,
                0.016179027920964897,
                0.004988621702880907,
                0.0018007514049172022,
                0.0016762314227236014,
                -0.0002959737971681278,
                1.4374696249835216e-05,
                0.0009906369815259194,
                -8.748880496083952e-05,
                -2.6455934966467887e-06,
                -0.001214057755806158,
                0.0006043640891139712,
                0.0005952423555776312,
                0.007622321468870645,
                0.013086617314374079,
                0.01381194593311726,
                0.016260704969410983,
                0.024963844803272864,
                0.02659336683808806,
                0.02617202453329297,
                0.0328742809899231,
                0.0316809411380056,
                0.04458510030830737,
                0.029291756345587762,
                0.02823873239684893,
                0.029413090160375625,
                0.0225837442845199,
                0.015548581397142344,
                0.012675662538740692,
                0.0058981845242205,
                0.002424699901569005,
                0.00021025503202900454,
                0.0012540865835622076,
                -5.5052362101256424e-05,
                -0.0005117317449591259,
                0.0021347579006311345,
                0.000441567619828185,
                0.0005000269589920601,
                0.00042078264627685253,
                0.0002158522559910561,
                -0.0001763685809782297,
                -0.0020466746221678633,
                -0.00014685175179248602,
                0.000646163187972071,
                0.001150023266701062,
                0.0019526047813361977,
                0.0035211739025261877,
                0.0025783935022701127,
                0.0012034389384154816,
                -0.001804664672918078,
                0.008377136916247753,
                0.004865123422047726,
                0.0035091525820880615,
                0.0032165335991184525,
                0.0012323748216113931,
                0.0026141222282124775,
                -0.0003509468248146721,
                0.0011051742953261097,
                -0.0018908755471160673,
                0.0005031615874162252,
                -0.001062043144114784,
                0.0008487061539770885,
                -0.0006304163783119659,
                0.0007631639069738637
            ],
            [
                -0.0029461132467804834,
                0.0008607127904089973,
                0.0006922068047810329,
                0.0006272475060853145,
                -0.00034462463476427253,
                0.0006482667718896058,
                0.00079145656566748,
                -0.0006703091152238538,
                -0.0022153378967347966,
                -0.00030118100890151367,
                -0.0002832162603835139,
                -0.0010532748904964937,
                -0.0012173479660409511,
                -0.0011293305326379743,
                0.0009581182380771118,
                -0.0018822264433514273,
                -0.001623560271431477,
                -0.0012635805167012478,
                -0.000994676091016169,
                0.0009308984683327797,
                0.0011376698554327882,
                -0.0020601334053390865,
                0.0009213024921135943,
                0.0006787809982106972,
                0.00027984209454499963,
                -3.8931010866724455e-05,
                0.0009516228492539913,
                0.0007732752354836644,
                -0.0014790742222996046,
                -0.0015841591620603817,
                -0.0008418691069548034,
                0.0005171675701748213,
                2.8352192592170292e-05,
                0.0004537571900980427,
                -0.00013451468823443246,
                0.003294148152495486,
                -0.0010869110560983964,
                -0.0012778043259554987,
                0.003289453002920216,
                0.0004034661394327616,
                -0.003865236572662217,
                -0.00034415075420474867,
                -0.00026624099999759216,
                0.0012709669135034596,
                0.0016468815642740684,
                -0.00023315999292944508,
                0.0006601155731669663,
                -0.001162816572335428,
                0.0038409425186148455,
                -0.0009102851467268883,
                0.0020623827885035456,
                -0.00011781256847352093,
                -0.000834278164019808,
                -0.0006077362499677555,
                0.0009881218345468398,
                1.5274519517741096e-05,
                -0.0005744091267214741,
                0.0005609068582392706,
                -0.0005384036678099814,
                0.0007828751078445788,
                -0.002151641395367215,
                -0.0002794705274361332,
                -0.0004026018563572645,
                0.0032201019887606566,
                0.0027740868742846723,
                0.008357863267985113,
                0.010754598493498895,
                0.010311849970388767,
                0.010933504343271457,
                0.01397710102617928,
                0.01741345398656826,
                0.016259008253530546,
                0.0192153423417696,
                0.015362875004966426,
                0.011581847122622634,
                0.00839240695107267,
                0.006251087494668001,
                0.0010312367570717938,
                0.0015408296298389087,
                0.0028093392525054117,
                0.0015727571610589899,
                -0.0009113724366958095,
                0.00028929414099027897,
                -0.0008880946030291451,
                -0.0005424873377055432,
                -0.0013323585096161308,
                0.002354914418230574,
                -0.0019811029406502857,
                -0.001117000284899297,
                0.0007839908437380028,
                0.0033342938328839757,
                0.008444350822360091,
                0.01604178554066605,
                0.026243935300383846,
                0.026753279234122046,
                0.031395894242123405,
                0.03031175158076598,
                0.023142767860709134,
                0.016730919129330522,
                0.006825590778238289,
                0.009244986495576644,
                0.016397498101569076,
                0.03039117667955637,
                0.0312306479809251,
                0.028096067275731176,
                0.020782074445948727,
                0.004166967970966068,
                0.00020375225322361644,
                0.0028712599806325558,
                0.002039150350101569,
                0.00011410208290137789,
                0.0007993897389400761,
                -0.0017056071925724858,
                0.0005994283567459054,
                0.00121290387562569,
                -0.0010899208363715088,
                -0.0005748928184374779,
                0.004919179512909777,
                0.00887459378131633,
                0.01824807916991837,
                0.02413179321183905,
                0.02757632620389601,
                0.027495081777306227,
                0.01869662286587845,
                0.020298364798852817,
                0.0248758757364371,
                0.020220330972873207,
                0.008823286198382338,
                0.00012221413514923628,
                0.0059882639724940494,
                0.011816124633409832,
                0.015009918860207925,
                0.012989579536885272,
                0.005980454169240576,
                0.005056342173593042,
                0.0067479248291485655,
                0.0020204967065862813,
                0.003187295779016685,
                -0.0001786998742706703,
                -0.00022161534431432806,
                2.5441253245279316e-05,
                -0.0008755273340955435,
                -0.0006329393117344188,
                0.0036494090760477433,
                0.003345205599747061,
                0.009618878938771294,
                0.010068558035320056,
                0.014041296399804422,
                0.01966790568139572,
                0.011409767290800605,
                0.025825951863182414,
                -0.0008892632456766563,
                -0.0014129544452236762,
                0.018691729783714892,
                0.018922365102782716,
                0.029285565082873288,
                0.018364563306440075,
                0.013260872936741126,
                0.013690325764582843,
                0.01211747230824719,
                -0.0026122113089495024,
                -0.0077922263614794846,
                -0.011401858599055183,
                -0.0001168406121548286,
                0.0027809137963759395,
                -0.0016063734353814274,
                0.0012191470701464994,
                -0.0012554705625215502,
                0.001853246811423731,
                0.0008312120693161103,
                -0.0007753409227382248,
                0.00399160913635734,
                0.01010032650700579,
                0.01145496313664004,
                0.010751141131738426,
                0.0028018389527631206,
                -0.0015548811449624272,
                0.002536299245335639,
                -0.0035893862473276705,
                0.0022305485075046704,
                0.00616420216998334,
                0.007839598179825626,
                0.004503741082189324,
                0.006143441574451522,
                0.013468739132333327,
                0.013016295048458025,
                0.019565160320857547,
                -0.022596002200990294,
                -0.03760761038655996,
                -0.03365720000076184,
                -0.030485515986146725,
                -0.02728795916280303,
                -0.00514810425721505,
                0.0038749754518994156,
                0.004296882417741674,
                0.00013128564726474752,
                0.001090827897897474,
                0.001416417960036958,
                -0.0006620684137034605,
                0.0045856553181784524,
                0.015594759698299314,
                0.01845709833817486,
                0.015683546186058567,
                -0.00038005934938469086,
                -0.008451046044933934,
                -0.018648345037182837,
                -0.02059937483656656,
                -0.002856606790373265,
                -0.01267815210893636,
                -0.0131327702616384,
                0.018444334337058593,
                0.01156539809844647,
                0.007415498287465979,
                -0.0015457830625494958,
                -0.015661857784249167,
                -0.02725528549013668,
                -0.03205207264058075,
                -0.03947152291017981,
                -0.028292215875282453,
                -0.037520959704962234,
                -0.01389322792907065,
                0.004496194398747812,
                0.002832058889250656,
                0.000327085499480735,
                -0.0012080358371391114,
                0.0008282359379449015,
                3.81526464715833e-05,
                0.005448838286697258,
                0.014560706173603956,
                0.0076107066806591975,
                -0.007087313291410248,
                -0.026570989499361437,
                -0.02940170323140587,
                -0.03215353964981127,
                -0.021925929237595832,
                -0.03876590788013356,
                -0.055808118453078384,
                -0.020309038239873192,
                0.020457603876418314,
                0.029513853641299742,
                0.0066980537125706785,
                0.00035505788137555423,
                -0.035084486566323396,
                -0.0476916511560265,
                -0.02757351568506818,
                -0.022610905659118274,
                -0.017328988128011372,
                -0.03151771559876557,
                -0.014775364636029947,
                0.013071386556518497,
                0.0005346272355767668,
                -0.00046363554236949405,
                0.0007222320267269256,
                -0.0005912311613657245,
                0.0009879569726317624,
                0.003314352802756159,
                0.008725718206019382,
                -0.004070047002377813,
                -0.02794442751025455,
                -0.04697301086236621,
                -0.04888599523187954,
                -0.045533060622348215,
                -0.051900721780237746,
                -0.06495004248259548,
                -0.05853788706587753,
                -0.035260338252915566,
                0.008418788486385753,
                0.03765937017244637,
                0.020613410453811595,
                -0.014582667123039812,
                -0.027362372992024257,
                -0.02879304877470893,
                -0.010631957657387944,
                -0.0038140295471115987,
                -0.004047528046700709,
                -0.013004666065073545,
                -0.008597075338520973,
                0.013611959135172668,
                -0.00026103075837092475,
                0.0020645704527720503,
                0.00013754501229674293,
                -0.0012355430529473203,
                0.0010300925700210668,
                0.0005120586050409698,
                -0.0029949894936838316,
                -0.022961708838258064,
                -0.0465582404434612,
                -0.05673983556976787,
                -0.06015730264804459,
                -0.058032571550771114,
                -0.06376038563331295,
                -0.058672981287184386,
                -0.049142596651553745,
                -0.017117467772134593,
                0.017907361088263504,
                0.01832711356600444,
                0.01026411884018584,
                -0.013973852844234804,
                -0.020815617806711578,
                -0.006300395295657862,
                0.008164048105353167,
                -0.013235015641056908,
                -0.0171457994566516,
                -0.004923886219192342,
                0.001552697564236492,
                0.004719540538583621,
                0.0009391967286757283,
                -0.00031893649140279803,
                0.0007301078726746504,
                -0.00026705311147099244,
                0.002231227705103015,
                -0.0004943381675375246,
                -0.00983266739322888,
                -0.0323828300870631,
                -0.051992465370717944,
                -0.05159136517247929,
                -0.043243522309760536,
                -0.04525196683186612,
                -0.02241325915580387,
                -0.01812937479093817,
                0.004800690049153768,
                0.01601189593766302,
                0.009677963911056936,
                -0.0069381711088322496,
                -0.014122080950802316,
                -0.03214964936436237,
                -0.03678898778238115,
                -0.018145193530903603,
                -0.014035174200947428,
                -0.01948144609534575,
                -0.012751865282976364,
                -0.001868004363928038,
                -0.005116612065367828,
                -0.0007383176751243896,
                -0.0007310038477959381,
                0.0017804743989231092,
                0.0003529687715971626,
                -0.0005052792172210488,
                -0.0016320097685253083,
                0.0007585615840089158,
                -0.014299414132786752,
                -0.029757824576391888,
                -0.04261999212657822,
                -0.03396004833209211,
                -0.011929052860894877,
                0.004246803340358172,
                0.018592382692044638,
                0.020278601143850397,
                0.03851050403594369,
                0.0032611464990026486,
                -0.02497617368078509,
                -0.034899449113704566,
                -0.01995292149309448,
                -0.05694692030949356,
                -0.03684848521623316,
                -0.03789327947540169,
                -0.03740807266980717,
                -0.025891803425950728,
                -0.011486205554428532,
                0.00932466345689204,
                0.007545605138860111,
                0.0024892069784692356,
                -0.0030818072223249364,
                -3.2828422563648845e-05,
                0.0009923582157230185,
                -0.0006606728436646906,
                6.820428183572799e-05,
                -0.00016795823720096688,
                -0.01302408966227233,
                -0.025604188055675284,
                -0.015364459370282857,
                -0.020220789942837963,
                -0.0011165437494819713,
                0.026560715836788616,
                0.042965482151330836,
                0.03827807493049472,
                0.005630861259840598,
                -0.02536282109094079,
                -0.043556420969862036,
                -0.03665830305066646,
                -0.025552093738319334,
                -0.03269467567505359,
                -0.01702761766757089,
                -0.03095436170830211,
                -0.022408681210044287,
                -0.009201795667730467,
                0.004061951366776605,
                0.02722919325115338,
                0.02203390471710318,
                0.005553253781728403,
                -0.0020471935914855325,
                0.0006609090469938691,
                0.0007231308693295162,
                0.00013669239404176964,
                0.001986503518893227,
                0.0005526140701774797,
                -0.006592854689526348,
                -0.019407297372635097,
                0.001110711760317867,
                -0.0024800975033321517,
                0.004993468019790508,
                0.021270039161961726,
                0.015890969031857712,
                0.004946199610897499,
                -0.02629788278603472,
                -0.059305735888713004,
                -0.02615533365062152,
                -0.03569325372942457,
                -0.015066166173164579,
                -0.02171032620074429,
                0.00031566301607638175,
                -0.011687476137245259,
                -0.006349036648425219,
                0.008143912538513669,
                0.016986109297606328,
                0.02748063260530631,
                0.02109170459768609,
                0.0073595284077702565,
                0.0038494438996984244,
                -0.0007183076557450074,
                -0.0003618065692045769,
                0.0013290950925626739,
                0.0009899171849561865,
                0.002361471907842041,
                -0.006338623752565227,
                -0.0034650265513498607,
                0.02036321210749315,
                -0.001313059743103705,
                -0.0010185853407790185,
                0.00045480295849025713,
                -0.008125944701722967,
                -0.02087867330832406,
                -0.033515418481097015,
                -0.01289804009991647,
                -0.007895030825148254,
                -0.01811787654040279,
                -0.011425124674322988,
                -0.004205361880013331,
                0.0022931169593240056,
                0.01140646736182412,
                0.025914195136847284,
                0.022904025484574597,
                0.01768313575115181,
                0.028283931737139157,
                0.023923236165202297,
                0.010091689660535485,
                0.0062084283447307615,
                0.0003414765437228258,
                0.0011424442333184612,
                0.00016773477976953654,
                -0.0002403718149625899,
                0.00044230897895716634,
                0.0018206334862755143,
                0.011924831715304085,
                0.0043641266972811255,
                -0.004092647539832545,
                -0.01568639773869805,
                -0.009103456606757808,
                -0.01995255814050539,
                -0.016806826245812475,
                -0.0255108824679735,
                0.008686650444458564,
                0.0011301411435141059,
                -0.03854298398508188,
                -0.028384620345000486,
                -0.010774512649176393,
                0.016452969703828448,
                0.03599825944014311,
                0.031165443865970654,
                0.032661118889549326,
                0.03858704292455884,
                0.03038202924110378,
                0.021809018772420703,
                0.016456459980520453,
                0.004967045594175902,
                0.0009332023860240003,
                0.001357559107786838,
                -0.0017956575048653366,
                0.003383355243829426,
                0.007606001837580907,
                0.008785317101815564,
                0.025626877290719437,
                -0.00026954960190722925,
                0.008315980614837116,
                0.012803201595436136,
                -0.0029860046030237603,
                -0.012165840938834086,
                -0.021567561327196717,
                -0.026415722337101807,
                0.0009759969718104678,
                0.005171870531892159,
                -0.024178903579835823,
                -0.015572286203763778,
                -0.004207246947000374,
                0.028075762681780858,
                0.03542922584674103,
                0.020713075796806847,
                0.03542500386218758,
                0.04128252408425431,
                0.028952077698331694,
                0.015870758746063158,
                0.017079411749932414,
                0.005094351635087228,
                0.0014803356454468266,
                9.807877629860495e-05,
                -0.0026109084293266293,
                0.002898080068619118,
                0.014677388081344764,
                0.019899560506163535,
                0.03497854649096735,
                0.023382138749698363,
                0.03286379954480336,
                0.0256226001026222,
                0.010966751521180328,
                -0.0031179313554290655,
                -0.0176094918828818,
                0.02057458420805973,
                0.03116103968523808,
                0.030593680871409023,
                0.024131252475995846,
                0.03229538072100181,
                0.03937939027020494,
                0.044075904661739926,
                0.018280951514041303,
                0.021394188109084684,
                0.042472461188158075,
                0.028979220375871376,
                0.02432067458474241,
                0.019932376382140706,
                0.012153856178948331,
                0.0006786917588699532,
                -1.1883338969481174e-05,
                -0.00028770341733068265,
                0.0002973417328019953,
                0.0014718262182199003,
                0.015703720230849382,
                0.026827304729475827,
                0.03428453981175555,
                0.04778170517096486,
                0.04068410527172285,
                0.021139167692053616,
                0.026967296221799626,
                0.025982702220396735,
                0.042029500057681225,
                0.0589550906585378,
                0.06779502190187947,
                0.04271178378039161,
                0.04610912167948377,
                0.049156964880616445,
                0.043963693013186346,
                0.039689182746461805,
                0.02360300391754191,
                0.029157998352839134,
                0.030432642050862616,
                0.021184688755578593,
                0.020616627146486564,
                0.016207338975353463,
                0.009761346827836744,
                0.000633677693625679,
                -0.0019747878663432506,
                -0.0005480675572234416,
                -0.0008244806699204771,
                0.0027054279074924274,
                0.019724082481870454,
                0.025973473686730572,
                0.02490324914931892,
                0.048648586269361395,
                0.048827055770002625,
                0.041958217614060316,
                0.07439802474493504,
                0.06441226832860503,
                0.07149401823565532,
                0.07244385979424572,
                0.052559083758614365,
                0.06463766595481882,
                0.034904235689387254,
                0.05342188951246353,
                0.029418876806873773,
                0.037569020646313185,
                0.03213608434689236,
                0.030455260537043508,
                0.016048209446572377,
                0.01374771683680046,
                0.015039696061489626,
                0.009681120916755546,
                0.0067463023985989135,
                0.00028510966683241993,
                0.0008790190670155382,
                -0.000892899698888868,
                -0.002061050914020921,
                0.003944757840472293,
                0.017163659159604685,
                0.0222500132635202,
                0.022442808915294085,
                0.017920173073239204,
                0.031552359296554124,
                0.03268886953611926,
                0.03398392924381536,
                0.04969466757758765,
                0.04440537157864213,
                0.043500096406757,
                0.04211084306203275,
                0.04067531785105687,
                0.024366313178690098,
                0.02069437234466858,
                0.013403755070774303,
                0.027154328388705684,
                0.02853080853762658,
                0.013259907489194991,
                0.004301124392441072,
                0.004078223117282633,
                0.009379873049194054,
                0.01050879280946937,
                0.002906447550615896,
                -0.0003583819052033482,
                -0.0009037120061970926,
                0.0017107628226343265,
                -0.002149391192246327,
                0.0008628610109775545,
                0.010719044779727594,
                0.016089010830539263,
                0.012490828080320886,
                0.002151222125558152,
                0.004595262467535428,
                0.00788348485036922,
                0.02122127674911047,
                0.021496279982579018,
                -9.553043402435845e-05,
                -0.008722582826720086,
                0.000326915799107981,
                -0.002288829574584569,
                -0.00782035863157683,
                -0.015947471815851485,
                -0.01781423482612627,
                0.00589255635795586,
                0.0062585600487796355,
                0.0001483333892443579,
                -0.0013872468696279688,
                0.005193346889926371,
                0.011816331679628667,
                0.0038194509718863776,
                0.0010078921983116872,
                2.373855685284083e-05,
                -0.0008836892790628593,
                0.001958027481482531,
                0.0009911591237718239,
                0.002190620054975622,
                0.005767240150407387,
                0.0072221158078523764,
                0.0019011051646074058,
                -0.0055050124803385486,
                0.0006161136267969672,
                0.0046241866050837025,
                0.02417006265264892,
                0.03306239985072321,
                0.037986096431368084,
                0.03448993470099018,
                0.013471159504367808,
                0.003406478858274923,
                -0.003499206610994181,
                -0.015444147297411009,
                -0.029910899837135487,
                -0.018904678045343643,
                -0.013415555045476143,
                -0.004834592142953884,
                0.0018189919466220198,
                0.0036145674670699187,
                0.0038169450799261863,
                0.004294537962323733,
                0.0007851206009424545,
                0.0025119264065078333,
                2.0790662056675886e-05,
                0.0008404480502579501,
                0.0011855716319389246,
                -0.00044987483944364893,
                -0.0008033948517262046,
                0.0006118641660460109,
                0.003292932730189611,
                0.0025473542709518173,
                0.006622464372946714,
                -0.006903824510789496,
                -0.013261615522212718,
                -0.00412952003208404,
                -0.0056481374904639005,
                -0.00394163747420224,
                -0.0026805256435267844,
                0.006518059880304558,
                -0.011477900355777861,
                -0.012990525043428328,
                -0.00508356732101073,
                -0.0032447593468279477,
                -0.006799785695782296,
                -0.004359410910601918,
                8.568454413676869e-05,
                0.0008904666853228108,
                -0.0005225415247388739,
                -3.929372889323723e-05,
                -0.0010562534813492168,
                -0.0015155919591843198,
                -0.0012427762755441304,
                -0.0021655466065130993,
                -0.001564732332488418,
                0.0010818681151971204,
                0.0013763524513618493,
                -0.0013688370073232125,
                0.0008141344036823814,
                -0.0024493207390528333,
                -0.0029459483975668834,
                -0.007586816489157941,
                -0.011207392860049705,
                -0.015365303821492435,
                -0.011919253783562903,
                -0.004458229755288664,
                -0.0036487113928819186,
                -0.0018431725880930167,
                -0.0045408002696337825,
                -0.0028210823912709956,
                0.003388325279079585,
                0.004582050268004948,
                0.00020496767872736085,
                0.0003927090768604507,
                0.0001297899737271612,
                -0.0011672963905438845,
                0.0013423480267824364,
                -0.0006808940821228831,
                0.0008299443174383119,
                -0.0029134651080063505,
                -0.0011907308530903697,
                0.00012966389899114663,
                0.0008442405130208834,
                0.0015232128905802733,
                0.0005463665142689744,
                -0.0008311807249677686,
                0.0003062525839980217,
                -0.000509587881869789,
                -0.0013910652233234666,
                -0.0016544166113110468,
                -0.0012934694786587448,
                -0.0007118730809452879,
                -0.0027686843019706048,
                -0.0016459989447883715,
                0.00044310336743967924,
                -0.0023217152087873475,
                -0.00035634675118400715,
                0.0006218345368364275,
                0.0031910223525861117,
                0.00202786190417968,
                0.0013339137569242604,
                0.00023653281044928756,
                -0.0013561653597261296,
                -0.0026121129348443406,
                0.00010928728264515922,
                -0.00099184318153585,
                -0.00047125285317553485,
                -3.213694578734211e-05,
                -0.0017357510359575744,
                -0.0006676213447130508,
                -0.0009144149504240794,
                -0.0015582528155169261,
                0.0014768439052928648,
                0.001881985419584827,
                0.0005518524477848345,
                -0.002773160067196219,
                0.000858669026742577,
                -0.004297845738867817,
                -0.0001027170202772689,
                -0.0011339957544963006,
                -3.800498438106342e-05,
                0.0009684571883170203,
                0.000560094639568418,
                8.439968417529903e-05,
                0.0010659988817432406,
                0.0007582750383325513,
                -0.0009470970098401792,
                -0.0007036712785873431,
                -0.0012908539610965166,
                -0.0012305633971076196,
                0.0010741042599380361,
                -0.00152883958514047,
                -0.0014140750447585644,
                0.0001510244617062936,
                -4.332269423804387e-05,
                0.0003643951852900278,
                0.001880011633215646
            ],
            [
                0.0004884348146189962,
                0.0009068284794418507,
                0.0002055313015367119,
                -0.001960456872242078,
                -0.000767838249211976,
                0.000675473808523221,
                0.0015471323691833628,
                0.0017377283179990963,
                -0.0011809293073210985,
                0.0011433702740859498,
                -0.0014647253043536593,
                0.0022875292782491732,
                0.00037297536398518054,
                5.2332640194261305e-05,
                -0.001019906076146695,
                -0.001292508647638787,
                0.00041455981772461155,
                -0.0005735205991942872,
                -0.002668669187906994,
                0.0025659715778593296,
                3.213780624981098e-05,
                0.0012995314684577648,
                -9.356174272594499e-06,
                0.001876906478827893,
                -0.0003616676469940342,
                -0.0005319597459277375,
                -0.0004306099696363409,
                0.001049265236862026,
                0.0007134970711301274,
                0.0002638039819010331,
                0.0007692827219443236,
                -0.0011903546617833968,
                0.0007491232128691413,
                0.0004899852633947043,
                -0.001375579491882046,
                0.0005410320317591921,
                0.0006381199585868226,
                7.48055800593024e-05,
                0.00032245288807293256,
                -0.0026370364084051705,
                -0.0005695246089322267,
                -0.0025110101840851366,
                -0.00022883114006237194,
                -0.00154888124324167,
                -0.0027987851235202004,
                -0.0005355464497164217,
                1.707210643857306e-05,
                -0.0010157988452010208,
                -0.0011311928510326986,
                -0.002893156746667621,
                0.00024042235616800493,
                0.0005869305213961534,
                0.0006352673996910858,
                0.002256698710284763,
                0.0003600574871231897,
                0.0018995735005865695,
                -0.0016251241546892535,
                -0.001246141690063465,
                -0.00207027288240647,
                0.00040135077839423755,
                0.0010640271041453375,
                -0.002194338862876949,
                0.0005266538464572868,
                -0.0032931283990912164,
                -0.00272726011596546,
                -0.0036532461659071693,
                -0.009458299286901726,
                -0.007622597255613267,
                -0.006079081409322826,
                -0.005574982531548603,
                -0.007824641240745193,
                -0.01460936620499544,
                -0.01591536105782521,
                -0.008310692324861757,
                -0.006843083453292362,
                0.0016129529338196277,
                -0.0020033545992432784,
                -0.0016591881782014597,
                -0.0010595511903521125,
                -0.002141023339698889,
                -0.0011198518063776678,
                -0.0018511441535594632,
                0.00016795113551661755,
                -0.0008258966085501773,
                -0.0009635653346385759,
                -0.0020539620339401848,
                0.0017286424259679142,
                0.00015350978099555913,
                -0.0009091696851791135,
                -0.00038237685693000913,
                0.0013690227518304214,
                -8.511042720127165e-06,
                -0.010168590557801418,
                -0.012356971915723219,
                -0.0158180219056224,
                -0.017727149663139565,
                -0.015471054684947685,
                -0.026242425136633555,
                -0.026124023128154268,
                -0.01455266656119696,
                -0.015319517072527107,
                -0.0117288427850957,
                0.002167300326331956,
                0.005717557735865338,
                0.004732924398294998,
                0.0024837581179433135,
                -0.002061265209298105,
                -0.002863137412890239,
                -0.0031725714895378377,
                -0.0018098750190528132,
                0.0004972637432786794,
                -0.0016338668445393535,
                0.0009113309622242914,
                0.0002461726932357993,
                0.0005476134020581045,
                0.001602644485966053,
                0.0057459862143050405,
                0.0005398451371305905,
                -0.0007136178333837759,
                0.0011691264689979626,
                -0.009955844071197364,
                -0.020724743155668253,
                -0.0129137019110814,
                0.0012598156155929122,
                -0.0008244544044847867,
                -0.004106370456854372,
                -0.0071752955591644265,
                -0.010708098143339671,
                -0.004571257143324323,
                -0.02324953952340283,
                -0.013994468341277882,
                -0.0016955060390824025,
                -0.0005140031295330839,
                0.009585712855424575,
                0.004630285802088772,
                0.006099303578424322,
                0.0018880614706295875,
                -0.0006375362032259998,
                -0.00020537969359440804,
                -0.0009506505213560596,
                -5.498876168043755e-05,
                0.0023130615011611425,
                0.002090828009898121,
                0.0013721284993175838,
                0.0002752682710478965,
                0.0025946670180673026,
                0.00012014389197771678,
                0.0012383904711881317,
                -0.018869813991078913,
                -0.004975538807664972,
                -0.01117485830061158,
                -0.013131825661052096,
                0.0006074658722072362,
                -0.009747277246258486,
                -0.014577222761102364,
                -0.025215930076325676,
                -0.019601419939620866,
                -0.02229627450863619,
                -0.029894516988286397,
                -0.009300526646071002,
                -0.026370504261959485,
                -0.013423682764994067,
                -0.005844006755460304,
                0.0035025217700941844,
                0.006951445481542103,
                0.0007057938493094516,
                0.0011152456062943532,
                -0.0010981699182609757,
                -0.0020428603716644146,
                -0.00010902302811487417,
                0.002519475398164496,
                0.0029066106866876395,
                -0.0005756130209060746,
                -0.00012233400315778616,
                -0.008488587651265304,
                -0.015192184470076081,
                -0.00519268961688895,
                -0.002982428314964899,
                0.01066385736715175,
                0.03819053682846247,
                0.00874598801935704,
                -0.004831742752876817,
                -0.026595207749254654,
                -0.03461006708283879,
                -0.030533822693654337,
                -0.013983895960859362,
                -0.017436801639953717,
                0.0032149111074602395,
                7.629599306704818e-05,
                -0.014543926591226228,
                0.015156207686227182,
                0.026302202207044295,
                0.01580499889567094,
                0.007584792547612271,
                0.004481732779677076,
                -0.0010335196017299615,
                -0.0010613130450608404,
                -0.0015162650742940045,
                -0.0002890086316312215,
                0.0031186558279816977,
                -0.005484198495967919,
                -0.011150123540411217,
                -0.021160833454798605,
                -0.010928376729775122,
                -0.008791167681469734,
                0.009600059955039448,
                0.019259917809379464,
                0.027656812166327958,
                0.018661132487555628,
                -0.008351292179292633,
                -0.013217858393777211,
                -0.025722344908997358,
                -0.02100570373993489,
                -0.01754619518001193,
                -0.020931169277789402,
                0.021159196818656387,
                0.019111131139063164,
                0.0025005123908049985,
                0.01490529399051827,
                0.038557661012890695,
                0.03139332083440613,
                0.02046091626193248,
                0.008060898014533479,
                -0.0005279071870971317,
                0.00015355509433491517,
                0.00023610083418385472,
                -0.00057636463939211,
                0.0009282971785711785,
                -0.0014768654015825165,
                -0.02511556786305768,
                -0.022412706499993804,
                -0.009151046610358963,
                -0.004384260695227992,
                0.011273215138449776,
                0.009870509513309911,
                0.02060188407527562,
                0.0150679893300539,
                0.010236524653623364,
                0.02227050358140955,
                0.02191213412378079,
                0.010367225516319484,
                0.013911218069770548,
                0.03032788404308407,
                0.03414924226940325,
                0.01896587500036006,
                0.004789488696276677,
                0.02524450595220851,
                0.017134740313428334,
                0.03716273324180956,
                0.02310527128625925,
                0.0015929064620393222,
                -0.001013833303690002,
                -0.0004319455432015251,
                0.001177064543422366,
                0.00021306104935257792,
                0.0030213469219679476,
                -0.0066465300023197255,
                -0.02545313438227799,
                -0.013216490086899653,
                0.002775429616174048,
                0.028223456712667558,
                0.02169547277887997,
                0.025050867293572768,
                0.009346573484900388,
                -0.008379127424131314,
                0.007641318953480753,
                0.026574662063701966,
                0.025196764020605916,
                0.03315576055060885,
                0.041842834982149024,
                0.023351761523946506,
                0.034833602682894274,
                0.030854526865665977,
                0.02568233597509697,
                0.039666360893194925,
                0.02436428897830051,
                0.034070756021588655,
                0.020967371795743046,
                0.0014899686645867315,
                -0.0007588819056733189,
                -0.001061650704446296,
                -0.0012703939515863424,
                -0.0004752243691163234,
                -0.00044650288686283365,
                0.0012288584620860213,
                -0.02726914238702514,
                -0.03293084926155841,
                -0.018353497271834412,
                0.0018826568713422357,
                0.0012385255843954306,
                -0.01517804381430707,
                -0.019552156581600814,
                -0.026678420894257697,
                -0.00749872265017371,
                -0.0015246922997996233,
                0.011786180266295174,
                0.03599455782655807,
                0.028943141859681273,
                0.03294402767882862,
                0.04703650637296311,
                0.04849240251099919,
                0.038496676561672015,
                0.042163601878094065,
                0.028905305341181516,
                0.021440930544108543,
                0.013740721567013097,
                0.0043543161693343916,
                0.00020457468652648628,
                0.0002061694091777033,
                -2.866970319389641e-05,
                -0.001481499427682818,
                0.0025851392051711953,
                -0.004525183419142422,
                -0.016951718323895682,
                -0.026495809859948014,
                -0.0266331831811809,
                -0.003693202528850894,
                -0.0011038375046501755,
                -0.019130961502745496,
                -0.024703527907059878,
                0.01095345652043006,
                0.02373945068741384,
                0.02748651521590312,
                0.010344147375561682,
                -0.000666918449071203,
                0.032162673448305,
                0.031783470424614345,
                0.02908692834487939,
                0.030924139565688406,
                0.028130765473351315,
                0.025165593281237963,
                0.01668630510497335,
                0.0086338513902001,
                0.0034284413202239233,
                0.0020196943538047006,
                0.0005499223809599347,
                -0.0004672405020128449,
                -0.00036097303406596885,
                0.0003486212004774785,
                0.00013660341562263343,
                -0.0022931458957612997,
                -0.015268059929626787,
                -0.008812857961351141,
                -0.013034610363833663,
                -0.009051410485047687,
                -0.008337119295746162,
                0.02172018698268293,
                0.025400171433090295,
                0.048960743711950167,
                0.04834848515336177,
                0.0405216351416144,
                0.0004050251525899574,
                -0.011632072149735516,
                0.015456878078415713,
                0.0227725567041538,
                0.006370330496650437,
                0.01928090664961132,
                0.023352649305601426,
                0.008439228212016283,
                -0.004782070740271443,
                -0.012979434586654646,
                -0.007728857485007248,
                -0.00432618861415727,
                -0.0013291496282570867,
                0.0002976397218086746,
                -0.0002907129349371309,
                0.0007973797579036738,
                -0.0028074580211738887,
                -0.003638977449832785,
                -0.011590697072359959,
                -0.010911004791294724,
                -0.009062189242390028,
                -0.0026307580167046203,
                0.008564150141775969,
                0.03971711318022933,
                0.04670772548094742,
                0.05543337853973924,
                0.03789238525851533,
                0.02752841994996007,
                0.01701086559647884,
                -0.013786821262392562,
                -0.004973105678122381,
                -0.002885061431682423,
                -0.00512588019747052,
                0.009690671329825781,
                0.006076786529801338,
                -0.02391243983542986,
                -0.030789110411207916,
                -0.026094187973338862,
                -0.01569353682792353,
                -0.009750948900180101,
                -0.004493527251045876,
                -0.0025243185535793545,
                0.0004952076381236218,
                -0.0008391342479797002,
                -0.002325372971804652,
                -0.004728440818547291,
                -0.011601133418776326,
                -0.018016491944691394,
                -0.02836287826427133,
                -0.01993329895309673,
                0.01869142045893152,
                0.01916267838840735,
                0.025768537797136445,
                0.05837645570148854,
                0.05218954856719489,
                0.06420939112761806,
                0.05529751731262257,
                0.004598762018677598,
                -0.004728224243054169,
                -0.03594446830260588,
                -0.030874426631401563,
                -0.011818607945225662,
                -0.02083052291393696,
                -0.040164315142527364,
                -0.03696983909582573,
                -0.027240454491083862,
                -0.02009932983817605,
                -0.009008100094236658,
                0.0013978849251618367,
                -0.0009620538863003897,
                0.004441770011608929,
                0.0020152498310704913,
                -0.0020805925227952815,
                -0.010088519659636655,
                -0.025220103265929914,
                -0.0459293239255807,
                -0.0724099612902387,
                -0.06747917504440784,
                -0.019659099582691734,
                0.005644707017503548,
                0.016455945976285313,
                0.053184740441642515,
                0.04223948008040472,
                0.051892318989471393,
                0.0533506598926968,
                0.024005819315769988,
                -0.010599250779815696,
                -0.05250578287196757,
                -0.033664292463188965,
                -0.015534537174985251,
                -0.015928984255323145,
                -0.017948326698210233,
                -0.018756606071823067,
                -0.028612222878688906,
                -0.025820934303567602,
                -0.009458265621196553,
                -0.0005930556987768124,
                -0.00014937948559680297,
                0.00428490346996726,
                0.0028677936541952062,
                -0.0054303370085693045,
                -0.01022414431546354,
                -0.02297990680351101,
                -0.05526100391470168,
                -0.09399123657915495,
                -0.09739268134950847,
                -0.047454815116911846,
                -0.007458830385757294,
                0.02190521589277339,
                0.06653228062624944,
                0.04052838865601946,
                0.03267932729134398,
                0.035113559222837654,
                0.04718297302107817,
                0.0030679540042290315,
                -0.04268516397429802,
                -0.03498428962278846,
                -0.04237763786755846,
                -0.04061680502614855,
                -0.052735268079527005,
                -0.0465605405370987,
                -0.03989686051680766,
                -0.026878903187134352,
                -0.017349616388604328,
                0.00045880581769158866,
                -0.0015129933081733766,
                -0.000850659870546162,
                0.003235842727845831,
                -0.008193904240560556,
                -0.015781456393065295,
                -0.034780774315808796,
                -0.05266299650254776,
                -0.07103580540183174,
                -0.08763256758307385,
                -0.052253920724589197,
                -0.034833145145058614,
                0.003914722682909369,
                0.03281410642810815,
                0.042042532081309536,
                0.0381327044343376,
                0.04565485917417306,
                0.03637492513525396,
                -0.002858053028367272,
                -0.03906199142060725,
                -0.05315694445203033,
                -0.06579878046426785,
                -0.05182840646378092,
                -0.051919881358564346,
                -0.0500985699687186,
                -0.038887360124763425,
                -0.02101548515239862,
                -0.012037750023068712,
                -0.001239735106292137,
                0.0008305531185336478,
                -0.0006952452082367262,
                0.0033041049454075972,
                -0.012261659581457826,
                -0.028382139133312716,
                -0.03413789315930185,
                -0.025800604105850184,
                -0.05214696606267867,
                -0.08877638701081074,
                -0.0805581608309574,
                -0.07797296360527177,
                -0.03391369310231299,
                -0.026166948604587435,
                0.022050532954554076,
                0.03182618263431885,
                0.025228609180333244,
                0.004486760501582449,
                -0.02678720982993432,
                -0.028119248716860164,
                -0.058901572925160864,
                -0.0633451706545548,
                -0.05847612706911848,
                -0.061957841296462625,
                -0.05677210900871763,
                -0.039932477331070686,
                -0.005371372271337375,
                -9.72991950154807e-05,
                -0.00010457326354943435,
                -0.0013224013729345688,
                0.0019591443738545605,
                0.0018005261216592688,
                2.913240021872426e-05,
                -0.020320702334011367,
                -0.027506003898759256,
                -0.010024848756856474,
                -0.02091630541550069,
                -0.06190386688464645,
                -0.08267019254984447,
                -0.07172931774527981,
                -0.08358820361174595,
                -0.08180305901316129,
                -0.015096469392359098,
                0.03835539482355608,
                0.014329707845752573,
                -0.013723338690992742,
                -0.038576641487163006,
                -0.020608858437733864,
                -0.029182353146948788,
                -0.05613981035890947,
                -0.05798876158229835,
                -0.05855498360347907,
                -0.05170429804895572,
                -0.027098663851212675,
                -0.002158997312407686,
                -0.0021967127175221302,
                0.00015029300484650126,
                -0.0014212433538421494,
                -0.0017270065696361663,
                -0.000265720067931601,
                0.005450554391191927,
                -0.002376841762208747,
                -0.00962352855550844,
                0.012141808514379711,
                0.004211470296532069,
                -0.018620661789070354,
                -0.03336160833274854,
                -0.04943062377738461,
                -0.05964667751075784,
                -0.06426590342375073,
                -0.030057451229383202,
                0.021266855809858154,
                0.00964937827952277,
                -0.00798811738056147,
                -0.0277345758667662,
                -0.032694290561097315,
                -0.02996745582954726,
                -0.05804984018681949,
                -0.04473680402939394,
                -0.03599612586520507,
                -0.03714438105816782,
                -0.02037032652285568,
                -0.007380216894493521,
                -0.0005714625697678616,
                -0.0014779360321904966,
                0.0029478893077708886,
                0.001883606616186768,
                0.0036302475714810154,
                0.006902853724794494,
                0.017660634077355217,
                0.01971593240760529,
                0.043112899698621754,
                0.04953695051036644,
                0.021271977839715107,
                -0.004541750866197082,
                -0.0015509364326990406,
                -0.026055918708804734,
                -0.014678493374743785,
                -0.017785855483734483,
                0.0038434313908453557,
                0.013715712466762021,
                -0.007957072182778885,
                -0.04641081336700197,
                -0.05402024885460643,
                -0.06875832236329504,
                -0.057604804641282675,
                -0.040134859966556066,
                -0.03672331834004994,
                -0.0320235218308181,
                -0.009012604578191693,
                -0.0013505001887608274,
                -0.0013891089485231593,
                0.0010871823384042416,
                -0.0007966352757823551,
                -0.00011341985274406229,
                0.004102388205590381,
                0.003971367331146515,
                0.015013268799887187,
                0.02701808445959812,
                0.049343322092199486,
                0.05037081878329358,
                0.025355711700079962,
                0.005857775017522625,
                0.007864584703590142,
                -0.010723004816478221,
                -0.0015124872495887976,
                0.00568178051848554,
                -0.0023067357034514406,
                0.009099800754918595,
                -0.029531514570508812,
                -0.05413489584796496,
                -0.07790208707696893,
                -0.069660674492059,
                -0.07376398538804177,
                -0.04421744948786553,
                -0.033963155503969555,
                -0.02133280008139709,
                -0.007645012447138457,
                -0.001341661204628259,
                0.0010033804528504064,
                0.0019134503652382777,
                -0.0002778788797080739,
                0.0022307102765950744,
                0.0023855637525085696,
                0.0035568412959427614,
                0.008931039317445261,
                0.022100705171047952,
                0.020802237428105788,
                0.02811273339420752,
                0.00231646752915508,
                -0.005740161589288545,
                -0.00019397211448276454,
                0.010163526405682013,
                0.026970939907845173,
                0.03112332802754689,
                0.02093849633272195,
                -0.0026433178851932846,
                -0.041384335218336135,
                -0.04960876471540691,
                -0.07641777441637912,
                -0.0736538060461105,
                -0.05694140109706997,
                -0.036017043535782264,
                -0.01729016464855431,
                -0.010991395653141323,
                -0.00037428672129191274,
                -0.002386271695488717,
                0.001242357873182772,
                0.0044645443824788055,
                0.002259456981395545,
                0.0008728965021403619,
                0.0022723185671427257,
                0.007772939825464688,
                0.013468022581900796,
                0.033127986606964976,
                0.0413009834663751,
                0.034469896513533306,
                0.012110013467277343,
                0.007414424598480827,
                0.020576130568231432,
                0.030509607395083085,
                0.025742991629320998,
                0.01909378860733131,
                0.011481446828119662,
                -0.018431127773118932,
                -0.03386045912212883,
                -0.04161392425288026,
                -0.03983272770083224,
                -0.027048402900781865,
                -0.023149282337713958,
                -0.01193238969443625,
                -0.0025876811541543305,
                -0.003725874323781747,
                -0.0041036423390357615,
                -0.003629396894866994,
                0.0016891266998279807,
                0.0019350506878704232,
                -0.0017525354947568405,
                0.002364288762860196,
                -0.00027055821913170265,
                0.00025212609057328024,
                0.006621235621519216,
                0.017359946331409935,
                0.01678639661649215,
                0.022327596728375643,
                0.02789163454196231,
                0.023873824843324582,
                0.023816090203357086,
                0.01707267769323671,
                0.01553201046322466,
                0.011510127583632622,
                0.006637903058960044,
                -0.008413133577289296,
                -0.011911786902982315,
                -0.015189132176682558,
                -0.001985184273665637,
                0.0015948072668977107,
                0.0013295271091046364,
                0.002648170169349859,
                0.0036471733267394164,
                0.000559373063537716,
                0.0022661212949946865,
                0.0007365499406843611,
                0.0004368127444206415,
                -0.0014232052997748168,
                0.0007821964608198249,
                -0.0004858388958638896,
                0.0008666510382022552,
                -0.0012643064898124202,
                3.809562175858087e-05,
                0.003778938390861318,
                0.0063056862628311,
                0.006523470056020751,
                0.003925818540384633,
                0.002950272913127574,
                0.00383335749019109,
                0.0011417167240379297,
                -0.004210896112052187,
                -0.0026179069755449327,
                0.003410934897674681,
                -0.001322710180183405,
                -0.001251965876058349,
                0.0020993810388683747,
                0.00013523215857613903,
                0.0018705736002610715,
                -3.7104595300462505e-05,
                -0.00037039869357183806,
                0.001966098822161973,
                -9.230516775117828e-05,
                -2.1328077404054906e-05,
                0.0010039688150040133,
                0.00033792188152736676,
                0.0018820305642000467,
                0.0007752225054225394,
                -0.00013709745402975095,
                -0.0001997385891607062,
                -2.2894270719229103e-05,
                -0.0009124106514547926,
                -0.001989574634585515,
                0.001473702925313782,
                0.000819343373249944,
                -0.0015568734885607575,
                0.00062253511990461,
                0.0004187284128386321,
                -0.0014688049761737096,
                1.1157491585398263e-05,
                0.001851035664226014,
                0.0006146460770119303,
                0.0013172628936738123,
                -0.0020777835632073125,
                -0.0010101968105749976,
                -0.0027932059723518358,
                0.0006570635422415697,
                -0.0018256971619982961,
                -0.0017068962913860696,
                0.0008320250149713772,
                0.0010892808314466435,
                -0.001681093802822234,
                -0.001884340601815594,
                -0.0007171273230959446,
                0.001833653540059238
            ],
            [
                0.0005251783954670695,
                -0.0014370580878155558,
                -0.0005809883956125773,
                0.00034120942127663454,
                8.233610362920716e-05,
                0.0001906855588851546,
                0.0006772538724087405,
                -2.322042962494664e-05,
                8.165646466088778e-05,
                0.001819033033250544,
                0.0022150003493520017,
                6.04498488088888e-05,
                -0.0015287031643809435,
                0.0003450695926222405,
                -0.0003424984269051274,
                5.65861310879334e-05,
                -0.000567873464594891,
                0.0012553949214551769,
                -0.0009083982625619931,
                0.00126411303043174,
                -5.4772270247795046e-05,
                -0.0007174112764923681,
                0.0013203575823132585,
                -0.0004936746998379211,
                0.0003623135134500929,
                -0.0012284441796544152,
                0.0015370367668240115,
                0.0003917154850555341,
                0.00048436005169302587,
                -0.00016000595740602242,
                0.00023328345470652572,
                0.0007272179669900655,
                -0.0028610893787346706,
                0.0004690201146562057,
                -0.0006290439266042079,
                0.0017646018776962494,
                -0.0008493329666037642,
                6.836732681222625e-05,
                -0.0018228144437714038,
                -0.0003433254116432422,
                -0.003136469506177518,
                -0.0002467741154097437,
                0.0005693388330078879,
                -0.004547004367765038,
                -0.0018357131302197604,
                0.0014322620972376386,
                -0.0005236697382128791,
                -0.0013578536642149732,
                -5.006581245791421e-06,
                0.0005688017507107568,
                0.0002817723014134503,
                -0.00018336558501202887,
                0.001296114497502538,
                -0.0016202775636726624,
                -6.979689965656822e-05,
                -0.0002765268786690704,
                -0.0012024767279773,
                0.002798697996544567,
                -0.0018406812518323489,
                -0.001268119574540974,
                0.003395395098375138,
                0.0012991861390902425,
                0.0006084190480367281,
                0.0009779346783529363,
                0.003534351378973544,
                0.0018713372647222004,
                0.002433319067293951,
                0.0022486172764142032,
                0.004446664641780403,
                -0.004364971377034955,
                -0.008098701461966422,
                -0.01714185269843372,
                -0.011987865445881351,
                -0.00694686537406598,
                -0.010457309726197109,
                -0.007660011957360572,
                -0.0033602818756866383,
                -0.0014229211663740412,
                -0.0013797341091950144,
                0.0004405622810836703,
                0.0013827645104955279,
                -0.0007684516276785132,
                -0.0014942761781455095,
                0.0012083847710807779,
                0.0008390793649945141,
                0.0001423165802920518,
                0.0021585099237998767,
                -0.0012991440330819394,
                -0.0008983177105254299,
                -0.0008690805786355917,
                0.00044560371558430046,
                -0.002205829899826066,
                0.0002636146046775969,
                0.007495467466164452,
                0.009711392196109878,
                -0.0024201718548115987,
                -0.009922274556797074,
                -0.01638656153163173,
                -0.028185880098149436,
                -0.02168244216501158,
                -0.024563848143196173,
                -0.03326767645192936,
                -0.023398230278938482,
                -0.015705174046977844,
                -0.018385405560526265,
                -0.011320028294067004,
                -0.002954697089083249,
                -0.0013377656779270338,
                0.0022660071122934805,
                0.001208647460777977,
                0.0014651685496469328,
                0.0003285912319510397,
                3.305425817036263e-05,
                0.0023489352547884164,
                -0.00016840273278714035,
                -0.0009112267043151572,
                0.0002795911780078638,
                -0.0034538832850274557,
                0.0023232570222422476,
                -0.0009958070989866455,
                -0.00873979034415023,
                -0.004091242295713551,
                -0.011620495364437598,
                -0.024601454239474647,
                -0.0222588317244588,
                -0.018967009580471105,
                -0.012641608001383087,
                -0.009521685832269327,
                -0.005655102225826643,
                -0.00035944881726203133,
                0.007182670785456526,
                0.0019578362255305627,
                -0.0036157269160282104,
                -0.0017476916506749124,
                -0.0027558755606742432,
                -0.0006998697472992899,
                -0.0012072249684412176,
                0.0007176745970183242,
                0.0012322185068265842,
                1.516630907191567e-05,
                -0.0016508148286635265,
                0.00011907506379054494,
                0.0009044433362432263,
