{
    "1": {
        "biases": [
            -0.08420875619295351,
            -0.025632835125712943,
            0.046829366593538625,
            0.0979293357564693,
            -0.0364404340270899,
            0.024095987044246266,
            0.04681755811049289,
            0.13498835701071413,
            0.13836852210495618,
            0.05852629966605817,
            0.20154279726353413,
            0.004855393999223486,
            0.13834890841995548,
            0.04706166454558087,
            0.09899934824271289,
            0.1143209450539764,
            0.13040170939664297,
            -0.04783752992066068,
            -0.011581137486845989,
            0.0819193441657441,
            -0.01870493671829995,
            0.1368055338058176,
            0.08458455321246182,
            0.12178440341069809,
            0.0004751468124280491,
            0.1544902659198955,
            0.024886529377906013,
            0.07831473458166126,
            0.02039460214835357,
            0.19355823718807338,
            0.10589045006439363,
            0.04749947068568385,
            0.08092726450510662,
            0.14271621474798518,
            -0.02684066722454669,
            0.053650272668545086,
            0.10847087184261771,
            0.007166396893202295,
            0.03795883621815295,
            0.12587129412115217,
            0.04161176435753465,
            0.07682466585767976,
            0.012332527236800327,
            0.06965747207403114,
            0.020923514138154416,
            0.15048221959413796,
            -0.02873415722769743,
            0.024415219899023094,
            -0.05514605827778917,
            0.1147234383650911,
            -0.23480390265577664,
            -0.04154833856452599,
            0.12530436557943947,
            0.12794200123363353,
            0.1280778777342932,
            -0.11956906664264774,
            0.004223465876393956,
            0.17433104742849934,
            0.15265139907062383,
            0.09323924417286476,
            0.0396277862343234,
            0.08526016727754811,
            0.010073191962134267,
            0.10415672399639177,
            0.02154814382494704,
            0.207888139332619,
            0.07086925894798558,
            0.09024683473695452,
            0.030214187909875116,
            -0.0035128068092838026,
            0.1616885162672049,
            -0.015787527545143225,
            0.06618161991907806,
            0.022034624690491944,
            0.16804784588281108,
            0.1425381869054813,
            0.0239640696214617,
            0.0918278817340223,
            -0.02553017561494716,
            -0.025164035480319737,
            0.058028265392325244,
            0.044156903423996606,
            -0.05111484504737754,
            0.01687430387372768,
            -0.03776430872429079,
            0.14803118915239608,
            -0.018832394651230665,
            0.10451788508057462,
            -0.01022153406632018,
            -0.033342244276655504,
            -0.015484640751052568,
            -0.058442288726738956,
            -0.020758958631770207,
            -0.05640539828630709,
            0.13014506582244662,
            0.042609988442122756,
            0.0541273252923513,
            -0.014711853114279156,
            0.0939282497818134,
            0.13677624865005253
        ],
        "weights": [
            [
                0.0010765770728848234,
                0.0005053437562602045,
                0.0010034265591830427,
                0.0010230835521194102,
                0.0011681420997613147,
                0.00025313304462304897,
                0.0004295386920604813,
                0.000984373315152613,
                0.0003559274659365871,
                0.0007098310785785492,
                0.000611714156496017,
                0.0008058056617339182,
                0.0005687596436424903,
                0.0007220863366833925,
                0.0010446910028917935,
                0.0011666588453166917,
                0.000814571145604597,
                0.000919110590301224,
                0.00018144286264290934,
                0.0007777414056300583,
                2.088678675891498e-05,
                0.0003112236982617766,
                0.00017584209603061285,
                0.0010304343166067677,
                0.00020076122495892438,
                0.0005137513123958856,
                0.0001663073815903731,
                0.00013942248761467712,
                0.0012799749528201235,
                0.00027966414583188644,
                0.0006572474751544139,
                0.0010751990001787505,
                0.0007867324575055659,
                0.00039687065333606,
                0.0017605449290041878,
                0.00262218544843444,
                0.002638358838304213,
                0.002689262108770261,
                0.003677085880418702,
                0.004126678591246535,
                0.003654633453719694,
                0.004089778616186671,
                8.913383946342395e-05,
                0.0006866796275486747,
                0.00013569307139003827,
                0.0024495840375108663,
                0.0044966684369144826,
                0.004685639628626366,
                0.0028745327815772447,
                0.0029796522011623265,
                0.0013882078821009437,
                0.00032052815231968973,
                0.0002462937929982939,
                0.0008498278291365684,
                0.0011407022381669076,
                0.00044705501795721636,
                8.222611600624954e-05,
                2.5656594231080127e-05,
                0.0005865505466958436,
                9.93233007643733e-05,
                0.00042957933925545937,
                0.001236111534473533,
                0.0021478436591320935,
                0.004899532205605706,
                0.005525049723032491,
                0.005079081424550395,
                0.009337152778456611,
                0.013285297857709271,
                0.013193570565588985,
                0.013876710638823057,
                0.005737260742385233,
                0.0012106632993731312,
                0.00446610679552329,
                0.013286302000238118,
                0.019182884074160102,
                0.018142440085816676,
                0.012338710415398335,
                0.011886153889498036,
                0.009212352325721904,
                0.00321192941066849,
                0.0007136844088490688,
                -0.0003446893176775856,
                0.0005639292677304162,
                0.0011276870661485075,
                0.0010624993292128481,
                0.0004232784803711228,
                9.412095895343761e-05,
                0.0013084879493989294,
                0.0008407222643859905,
                0.0018033929959715487,
                0.004138508039805069,
                0.009821866705938454,
                0.012292055640604194,
                0.009377283409445292,
                0.012130519084750217,
                0.02135892174034801,
                0.02027130914863248,
                0.018826709616285114,
                0.016725265613302173,
                0.018417630574874933,
                0.015322637589185102,
                0.017211155160899275,
                0.02689429709863676,
                0.02173105943832529,
                0.02209324807888201,
                0.01842163103736969,
                0.01419895892211835,
                0.01425217649126971,
                0.0065951193491952656,
                -0.0008778334778101766,
                0.0013360168982747384,
                0.0003939620765563219,
                0.000572807828957836,
                0.00029020582841713554,
                -0.0003202652435616765,
                0.0008712168548538325,
                0.003652034081694015,
                0.0056547265812639195,
                0.008780529781158201,
                0.010814279755813254,
                0.019881710087517972,
                0.011597145363274186,
                0.005652929329418174,
                0.003917778917305069,
                0.00912202535292559,
                0.011751412588332132,
                0.009754147376154397,
                0.013586779158424071,
                0.012710294404908428,
                0.013937821293097436,
                0.012054446934044859,
                0.02006929703999075,
                0.017935801876353488,
                0.013679276747802954,
                0.0053688518096316265,
                0.002347938368419789,
                0.002103374393552778,
                0.0007199618077399659,
                0.00012802258304041216,
                0.001206415286458854,
                9.549898544461142e-05,
                0.0012174186750018882,
                2.023132910828899e-05,
                0.0009722794568401034,
                0.006695428226457333,
                0.01465425053177579,
                0.02162017702181707,
                0.018603026884820094,
                0.025792054096079556,
                0.02714147672292619,
                -0.002734883122989299,
                -0.013958250676564688,
                0.004892984520702025,
                0.0017671229545294074,
                0.0030501509361147957,
                -0.015939938978400157,
                -0.02414252656023318,
                -0.009089065555198271,
                0.0043733393433675535,
                0.026750680263503284,
                0.012646714046784989,
                -0.00403267811287652,
                -0.02092386636649419,
                -0.0019604514504684557,
                0.001669802975954304,
                0.0009982540414639957,
                -0.00031581214374284847,
                0.00014234579137834704,
                0.0012785327660308422,
                6.92388127139708e-05,
                0.0022352576920572098,
                0.004303350942034433,
                0.013032679137137133,
                0.014666780090098832,
                0.018600526087557755,
                0.021348363232850838,
                0.03216782676695132,
                0.020816404562590776,
                0.0057722317076489334,
                0.010194565674804867,
                0.010254971754341341,
                -0.0009584882820250537,
                -0.006454810585949197,
                0.023791497826017527,
                0.012474506484453673,
                0.035394929237196136,
                0.042941006240764724,
                0.04486360870636585,
                0.0270662231586401,
                0.01658422374117977,
                -0.018431412539899023,
                -0.004787989266853021,
                0.0008391120070240735,
                0.0009727352609980246,
                -0.005758648157307275,
                0.0008417681575894199,
                0.0010571724121672952,
                0.0014335803497612586,
                0.002319587623928215,
                0.00755907879845698,
                0.013538542396911967,
                0.010325148941889104,
                0.017534727189363167,
                0.021321377508619586,
                0.018719781310566112,
                0.008435364255241678,
                0.005373083584181711,
                -0.016847233506454687,
                -0.011932260804981316,
                -0.019074748971927426,
                -0.017545736280293257,
                0.016300189503972703,
                0.006687761278655707,
                0.035836941263605364,
                0.052297119624036055,
                0.02513310360857129,
                0.011962643215377792,
                -0.005901810405572964,
                -0.015137856286681121,
                0.007476663471472539,
                0.013750927247302883,
                -0.0002037633947759474,
                -0.0020524909628561634,
                0.0008962093005102408,
                0.00015509760574937564,
                0.0021528122069827955,
                0.0042245876295291755,
                0.006474636879738436,
                0.016109268423601414,
                0.008938153673191418,
                0.013654492814336873,
                0.027239254285924268,
                0.018638590317577978,
                0.0015586675563460254,
                -0.00760332533715665,
                -0.005062040668113026,
                -0.007762254108529624,
                -0.01495367872933748,
                -0.015516171689797338,
                0.002190183046461543,
                0.011890749416159042,
                0.015602272371587981,
                0.0284328104128989,
                0.0035235338778579223,
                0.000682526066615318,
                -0.0035857263168697167,
                0.003485921619005038,
                0.0002900394045287391,
                0.006370021648988513,
                -0.0007443425108141704,
                -5.722314667637577e-05,
                0.0010260836846771643,
                0.000717820839927442,
                0.0027303191911765214,
                0.004006069259502022,
                0.01015206002059194,
                0.01926430188480038,
                0.014369419104152726,
                0.01860556815030968,
                0.011176903316992722,
                0.00881077201961788,
                0.014876677096802453,
                -0.0109736608584467,
                -0.014731070430879664,
                -0.001531933945292411,
                -0.0052041044133907055,
                -0.0005449746427765257,
                -0.01535628511361891,
                -0.030846941031193634,
                -0.008903818082211285,
                -0.013933852505025296,
                0.011226687479328883,
                0.0176305017757238,
                0.009803079239439532,
                0.010039067122179139,
                0.009530037204358804,
                -0.0010907230832502381,
                -0.006215600429497313,
                -0.0010783858970374938,
                -0.0003170013060189188,
                0.0016052094440366467,
                0.0019103719843074404,
                0.0045659473166391185,
                0.008886224444089373,
                0.017937123779604717,
                0.007277085083947479,
                0.0014703295198022473,
                0.0052426773354491574,
                0.006871775879005657,
                0.004487372311624968,
                -0.004564960746519188,
                -0.0005965494712846627,
                4.0746654344146886e-05,
                0.01361478082799168,
                0.011134860207884996,
                -0.021824753209524386,
                -0.03230589057043773,
                -0.03027444647823673,
                0.009208897413728762,
                0.030802812079455795,
                0.03220217676805579,
                0.023177093296862527,
                0.01814091483617363,
                0.01177480903439515,
                -0.014331482098228992,
                -0.025683896911274654,
                -0.005345967707225908,
                4.503277388451815e-05,
                0.0012587211186021923,
                0.00344640054576406,
                0.00609369219683903,
                0.01268734677224617,
                0.014546656373391177,
                0.004987572986022671,
                -0.0015694626984116653,
                0.01695187516167238,
                0.015973182903962102,
                0.005657796332814531,
                0.00994583356150684,
                0.012360580792946219,
                0.029406584674246377,
                0.03590585301837586,
                0.028973307562623105,
                -0.009347830160354769,
                -0.022487154560062044,
                0.003728457018610664,
                0.004650733319575391,
                0.01687285725985076,
                0.03180072772102919,
                0.019607864223643377,
                0.026520909318308028,
                0.024056742042881493,
                0.0062342442758820124,
                -0.011848926866859658,
                -0.0017455657110817698,
                0.0005914680461166098,
                0.0005601267735483836,
                0.0029805827891344365,
                0.006596432941275476,
                0.015090764760807717,
                0.012961441182461883,
                0.015973441788451267,
                0.004327893543854978,
                0.007751944052393527,
                -0.017238093168023154,
                -0.006590028888046142,
                -0.012626933447760558,
                0.0030361108716586644,
                -0.0074937529124532,
                -0.005713555045444764,
                0.006903547908710069,
                0.01160802677106241,
                0.036136510469884295,
                0.03660208009262973,
                0.023402073726706,
                0.007063389515950931,
                -0.0017958339232517272,
                0.01199640177354383,
                0.03339953800321155,
                0.048909830044455135,
                0.02625506725717456,
                0.0004977688058959396,
                -0.0037339532178899022,
                0.0005292340636661089,
                0.0002998085666452959,
                0.002024356039300854,
                0.005337070713531006,
                0.009074141243320214,
                0.008262123703255497,
                0.0068092060113412,
                -0.0006196936108790267,
                -0.015969199477095828,
                -0.024694727403918888,
                -0.021871820628855655,
                -0.010009522111227461,
                0.008881145124852184,
                -0.03159608349153733,
                -0.007028189156900869,
                -0.017712261016984074,
                0.047667403720635784,
                0.03702575190608744,
                0.014286250946300358,
                0.011374832250859059,
                0.014596117779272059,
                0.006339152997560474,
                0.002568839825068431,
                0.005784268826235916,
                0.02625877621758739,
                0.010133703618948829,
                -0.0068319097712398365,
                -0.007449756962569295,
                -0.0007103853865610472,
                0.0008172226856723279,
                0.001405989998341087,
                0.0030253575345129528,
                0.00445642040129285,
                -0.0020890298556736583,
                0.0021261071305829003,
                -0.011279334305597341,
                -0.020191959205416395,
                -0.012721124778902871,
                -0.009387494630491615,
                0.008519705014144372,
                0.013233028270371521,
                -0.017522564466469524,
                0.013365042495714796,
                -0.004112861370196625,
                0.04597701549017888,
                0.004343090920421995,
                0.027649994889772857,
                0.02272633508914088,
                0.03956832460866105,
                0.023134874363500403,
                0.011849325610796662,
                0.0012816129993829222,
                0.0029425298473033288,
                -0.007182903095777926,
                -0.0035609051502867198,
                -0.008662295120753321,
                1.4078332176815695e-05,
                0.0005502218739149762,
                0.0008586550711669049,
                0.0022113706740983403,
                -0.0004055951029853236,
                -0.005790775554292431,
                -0.002686972320879612,
                0.007347566621272372,
                0.003647135288450217,
                0.005523830747412472,
                0.00218669642903118,
                0.00806502609857597,
                0.007985240113022036,
                0.0028181508933571397,
                0.026418817619385884,
                0.027627532824007005,
                0.03927572782667336,
                -0.02404604709792356,
                0.023095663388956512,
                0.034035600121913645,
                0.03692501704768837,
                0.034632398746613856,
                0.016561777985684954,
                0.01864391030713236,
                -0.0053252145977356205,
                -0.013858530560138346,
                -0.004276397933524748,
                -0.010665869847003975,
                -0.0007319702631067532,
                0.0007103504531503862,
                0.0004876710559506735,
                0.0013459392527528757,
                -0.005850018474714605,
                -0.0009210350356640556,
                -0.002436842668621528,
                0.0030068327076594394,
                0.020918131409213753,
                0.029422388071939854,
                0.022777988741361218,
                0.017522012365187332,
                0.014956791275667266,
                0.025196680635246455,
                0.038546436749505086,
                0.036199221168823334,
                0.015224146603905914,
                -0.022853275603406515,
                0.012851476781570687,
                0.038580540605752,
                0.03431075491863004,
                0.01876135849916546,
                0.008809845658430687,
                0.002125958193012509,
                -0.005044189116747451,
                -0.006823698115111407,
                -0.006843487498503585,
                -0.011790028953583878,
                -0.0015568461564294124,
                0.00019588787144041321,
                0.0001835789728748322,
                -0.00029397384194120637,
                -0.00026667803986980945,
                -0.013173055095367403,
                -0.007959962074255303,
                -0.021367398307590716,
                0.014830425089963193,
                0.01876335920566653,
                0.019863412375483745,
                0.00321844250520552,
                0.004009783789368776,
                0.018874598577379664,
                0.032821034890218766,
                0.018787589792298817,
                -0.023928940506591886,
                -0.00848167983435182,
                0.01593375571836731,
                0.006950923228643584,
                0.011552108321097635,
                0.009145996191911919,
                0.0005884550729417083,
                0.006130318187552526,
                0.006479910780152277,
                0.0012951774947216948,
                -0.005270818397031122,
                -0.006551824861857695,
                -0.0014701541495473489,
                0.0007429513634879957,
                0.0008785117246269412,
                0.0030270091642563414,
                0.0023231310203695923,
                -0.017247851062563376,
                -0.005942763502186932,
                -0.005922092347876128,
                -0.003855076741032436,
                0.006489667482399212,
                0.00833750411863123,
                0.0005357456642408608,
                0.009355712263539168,
                0.0149907499053894,
                0.026697697431526484,
                -0.026291495592865588,
                -0.018149211481219847,
                -0.012804814586336175,
                0.00937922878937419,
                0.007429170949154665,
                -0.003256504172542741,
                -0.0007751055680861012,
                -0.003560292860307204,
                0.00986731621757701,
                -0.003647733853098801,
                -0.006947227383802411,
                0.0009321896230750891,
                -0.003970602877945496,
                -0.0018320815745674667,
                0.000600497344442991,
                0.0007875592905063262,
                0.002638868019707564,
                0.005324679544470381,
                -0.006927924276916115,
                0.003200064401207822,
                -0.0067820764445830194,
                -0.01137868733576765,
                -0.005738668923129522,
                -0.009581772129513375,
                0.0032392939215873957,
                -0.018432567964869636,
                0.020619912328510084,
                -0.021527648996541103,
                -0.024139378595152305,
                -0.024055016241140235,
                -0.002273248170282203,
                0.015296950859665712,
                -0.005793578588471951,
                0.001173677182936145,
                0.00489613643818633,
                -0.009252398763260408,
                0.0031335105060661637,
                -0.005471103811704816,
                -0.008716340239544982,
                -0.0025103528073185852,
                -0.005836563199539389,
                -0.0007296092872616825,
                0.0003165358912353064,
                0.0005784510727760594,
                -0.0001133799737730289,
                0.00010867619458384996,
                -0.009335019024045741,
                -0.017061690311234334,
                -0.010857678319842723,
                0.0020707677855427973,
                -0.01231330782123091,
                -0.014076798986168846,
                0.0018566122816726885,
                -0.03376853178015148,
                -0.0072659511453355636,
                -0.0009745095949145905,
                0.004134406396985783,
                0.0053537788107694845,
                -0.01667971455343815,
                -0.004757478034852861,
                -0.018843921456150905,
                -0.007044036052039665,
                0.00808964430033937,
                0.0018877283610966363,
                -0.0041079055890678355,
                -0.013088195590827321,
                -0.007629161678053304,
                -0.001082229705878907,
                -0.002476871934441951,
                0.0006647399707177417,
                0.00028660083028527687,
                0.0005018872715846178,
                0.001859111881530613,
                7.521137750735921e-06,
                -0.012478214346187667,
                -0.016909676510947408,
                -0.005788884304528451,
                0.010852103836575387,
                0.001273842615027897,
                -0.0015572450311028036,
                -0.0009794627769543268,
                -0.009271659750487138,
                0.00579926186918129,
                0.012313429093604717,
                0.006587952380131954,
                0.0063596097621407815,
                0.007975150040452524,
                0.01959107196464951,
                -0.007223177221667053,
                -0.0054567618652219185,
                0.007065654422938063,
                -0.009895824888395747,
                -0.012575580780349932,
                -0.018248931640958987,
                -0.004255229174934862,
                -0.003356664586917435,
                0.0005476524813735991,
                0.00013877917802806,
                0.0004842855171593629,
                0.0002573295373401581,
                0.0003060403496874918,
                -0.0016259048635065758,
                -0.009116131449443463,
                -0.007159526746105026,
                0.004699209227128339,
                0.01419504782436841,
                0.0037082487685431197,
                -0.0023708610068879587,
                0.0005536434684118978,
                -0.023329443328935384,
                -2.0488147787777968e-05,
                0.0030561374207385525,
                -0.00360056403382982,
                0.015775462304548727,
                0.0121667634430551,
                0.004524094341491529,
                -0.022081850846547183,
                -0.0072052270237677315,
                -0.0007494435089915921,
                -0.007338574168666564,
                -0.008912488211712227,
                -0.00824385683674448,
                -0.004748857058210437,
                -0.002082840566257737,
                0.0007056548559796127,
                0.00046553138934739486,
                0.001152488994088766,
                0.0009579879044446271,
                -0.00017638652310756193,
                0.0009994770589370253,
                0.001256483620133295,
                -0.0034182817572599934,
                0.009927701089666627,
                0.02292506976657401,
                0.0010300766144982338,
                0.008071132857149405,
                -0.003765835729686217,
                -0.017962092941210078,
                -0.012267585232376503,
                0.002925137112669252,
                -0.0051865460606503,
                0.004412155322482207,
                0.002405834681278348,
                0.0012559596816323511,
                0.0006392143772255219,
                -0.002161915569514555,
                0.006667958337775245,
                -0.0037641679611820707,
                -0.008718148353954467,
                -0.006868874601995232,
                -0.0055998324307685995,
                -0.002205346446739916,
                -0.00035523859110970975,
                9.04083838027109e-05,
                0.0005045277444630635,
                0.0006361033161642473,
                0.0007086234512660653,
                0.004106913785526659,
                0.011446921894502901,
                0.018672203616731817,
                0.027770498525943432,
                0.02475723606184977,
                0.02047287096766985,
                0.010196762062732732,
                0.028296117908914526,
                0.02587118530399516,
                0.015467448321705891,
                0.009033568292300533,
                -0.006779694641215414,
                0.00858051715994098,
                0.014344819968398065,
                -0.0036972519770030825,
                -0.01396999305540179,
                0.00101588112634919,
                0.004416639225031664,
                -0.005753285169269448,
                -0.010674620532838021,
                -0.006854600553484835,
                -0.005832452720569673,
                -0.0025069720423855166,
                0.0004729110245301029,
                0.0008737824782377774,
                0.001158582921584596,
                0.00040098624956507795,
                0.000865724779511915,
                0.0010063604705311618,
                0.006045854944613406,
                0.010758238987028806,
                0.018069895093377503,
                0.02769599523497504,
                0.035387391922609576,
                0.0417909772131859,
                0.04683551855250341,
                0.046371281608654516,
                0.04166854942396903,
                0.023996187094428304,
                0.02967253112089983,
                0.03363490530867353,
                0.026019636655708014,
                0.013743104598251335,
                0.011321508083608704,
                0.015302663420324023,
                0.0073091069643211794,
                0.005687563270821573,
                0.0009169778949018292,
                -0.0008880609968750113,
                0.0003988544259416403,
                0.0008251168100091483,
                0.0002804694111924754,
                0.0007460679822636818,
                0.0009346159493256882,
                0.0002886062680234025,
                0.0003384974355719296,
                0.0007789526996996689,
                -0.00017573651155785596,
                -0.0012960712097667799,
                0.00200854555260898,
                0.00484929059701984,
                0.010223608708136933,
                0.014942289618508976,
                0.014466079111218543,
                0.019797401388529763,
                0.016850383201444066,
                0.024343321945217582,
                0.02603353228019925,
                0.01889085628950612,
                0.017537902849665103,
                0.015709714592037103,
                0.018985456477353644,
                0.0117665254326146,
                0.006573378715545121,
                0.006848186377012103,
                0.0035709887796522514,
                0.001355266292557877,
                0.0011310610671570295,
                0.0007845050279153493,
                0.00041192622427608795,
                0.0008558927700880369,
                0.0006750554535406599,
                0.0010865874900508803,
                0.00032060772742219067,
                0.00032831837734014835,
                0.00013614071093705476,
                0.0007884512626984556,
                0.0017487164526627113,
                0.001926168763073723,
                0.0018808016992464284,
                0.002623126394835426,
                0.006408745001247433,
                0.0030712645401005426,
                0.0043052681188057865,
                0.007172018301951286,
                0.00582659162378622,
                0.002045618949504807,
                0.0022435747967190487,
                0.004078439352284981,
                0.005087721020210664,
                0.002822441994758357,
                0.00279604977893074,
                0.002660663998358621,
                0.003271135271609612,
                0.0006444772238990428,
                0.00024471734743321374,
                0.0006197242771556438,
                0.0011831767299552661,
                5.560394585334099e-05
            ],
            [
                0.00010816028414483259,
                0.0003137499287051302,
                0.0009114967165380552,
                0.0007832157376854865,
                0.00011898439322981126,
                0.0012321044439602526,
                0.001111534115622317,
                0.0002128251263745743,
                0.0006098565814281738,
                0.0009703453134170151,
                0.0009962583771078093,
                8.943991578989125e-06,
                0.0009065083570769808,
                0.0013113716439589374,
                0.000959863974316972,
                0.001182427407357059,
                0.0001235277112529658,
                0.0010092479409642263,
                0.0012127176297228863,
                0.00013003211936313158,
                0.0003522395111223903,
                0.00030665440273387116,
                0.0010375663526163384,
                0.00012178331259016877,
                0.0009568251663204007,
                0.0003552085465327727,
                0.0002220592865086146,
                0.001201542513753619,
                0.000974932824285096,
                0.00012388299093765863,
                0.0012571464596069551,
                0.0010830931084299198,
                0.0004389918741985465,
                0.0009108553217277308,
                0.002038674200920957,
                0.0034747727924775533,
                0.003353934115746308,
                0.0017386329896021439,
                0.003417475779956706,
                0.004242173253526419,
                0.006518803727902013,
                0.005072496769363387,
                0.000966485158536844,
                0.002579603573461462,
                0.003590666696584802,
                0.004533747022592665,
                0.004158493635282993,
                0.004000967625151593,
                0.0035885294374961184,
                0.0023841049091184513,
                0.0014877940136784275,
                0.0015519376339115545,
                0.0009843426006331364,
                0.00015643558490531636,
                4.903076301982836e-05,
                0.0006598147414273352,
                0.000511644131438097,
                0.00027109004952844177,
                0.0005884366030081116,
                0.00041129481689929857,
                0.0006156022554459464,
                0.0005509822945242044,
                0.001724799977127803,
                0.0060400329732656554,
                0.00589307793160569,
                0.004526314879349605,
                0.006958583577941679,
                0.008902731413306936,
                0.011229048238456014,
                0.00865661788012343,
                0.0003496139063980468,
                -0.0026518166136083377,
                -0.00020808273951439395,
                0.00519158134963349,
                0.00829400765553464,
                0.007063693546975773,
                0.0061852288465967424,
                0.006628242210062299,
                0.0065430217124132625,
                0.0036128443385377235,
                0.0013020858101136612,
                0.0006658428133727785,
                0.00069117901476587,
                0.0005210174305650183,
                0.001053817860973335,
                0.0007402097777857005,
                0.001037335070437975,
                0.0009207348235667037,
                0.0013355076119190897,
                0.0006351876919259168,
                0.0038844699904510595,
                0.007484397399436961,
                0.012057986858248531,
                0.007943047553223335,
                0.007220036952429494,
                0.016782333109781722,
                0.017743470083996033,
                0.02682690810264389,
                0.020004161520359966,
                0.017660231531087735,
                0.01876072194717185,
                0.018352344280598853,
                0.011565066600445392,
                0.006763533844478444,
                0.004815533692617073,
                0.0021719739756061777,
                0.0054032012668071665,
                0.011108365011554043,
                0.0069544851319049295,
                -0.000527082655092528,
                0.00061794865120801,
                0.0009961369617936605,
                0.001081822319351804,
                0.0009459345120903532,
                -0.000284378009789225,
                0.0009235151954522109,
                0.00017255923262499595,
                0.00020000318359750068,
                0.007257954748307767,
                0.008306083483803076,
                0.013829628244129298,
                0.013534891365778486,
                0.010882047579634098,
                0.005611968056368226,
                -0.009553174095150236,
                -0.013757451681779201,
                -0.017634642838665067,
                -0.005383777751837804,
                -0.0025658839246253686,
                0.00843233240948539,
                0.010842260618766992,
                0.01869477997603715,
                0.01569881465798704,
                0.002278404260356612,
                -0.0008557775168105977,
                -0.004156188756731448,
                -0.0039634586427693425,
                -0.001204677244241736,
                0.0012936298369568696,
                0.0017557133922320007,
                0.00099087150649034,
                3.645774559106903e-05,
                0.0006989360440074985,
                0.0007253926600172548,
                0.0031336708618442807,
                0.0018637598843139146,
                0.009842851437296938,
                0.007208320164224671,
                0.014197445137073005,
                0.010625773541320372,
                0.009965086384180939,
                0.006575358648475908,
                -0.005541245641213531,
                -0.011209983972980779,
                -0.009875726406085293,
                -0.015975434844087415,
                -0.023355776479809784,
                0.006374397365379656,
                0.02533623626564048,
                0.03524948047243184,
                0.019340391904823267,
                0.008318471851482467,
                -0.002541945976906906,
                0.00019702452740013663,
                -0.004460900847601414,
                -0.0027606968932709607,
                0.0011882871910488923,
                0.0005884970008701883,
                0.0011552020463307887,
                0.000547407567832355,
                0.0008429199651946293,
                -0.0004238332700316144,
                0.002891455262440657,
                -0.0023444159126882903,
                0.0041609736134131554,
                0.008267959452594367,
                0.00826829812858796,
                0.008311455292356768,
                0.011065869930794697,
                0.006464722593096141,
                -0.0028843947276747926,
                -0.008092746544452764,
                -0.002894208085004131,
                0.0013886427974407936,
                -0.009827205695673757,
                -0.01052208717220204,
                0.0078103237722032025,
                0.01530394821105087,
                0.00465460818420091,
                0.010995379514600204,
                -0.008539499233950146,
                -0.00528392445767815,
                -0.009273803706777271,
                -0.006273677576193911,
                -0.007117586189472277,
                -0.0006206975018372918,
                0.0012402339518604978,
                0.00044048006637182317,
                -0.0011834718692544997,
                -0.0014957220311970795,
                0.003148428974891984,
                0.0032451351190209803,
                0.010424168083502104,
                0.008397696847483134,
                0.00909721998212577,
                0.01664568707303285,
                0.0135195485061086,
                0.009723110698092712,
                0.006688019550249821,
                0.012136819290261298,
                0.009539863919534763,
                0.02191821675739938,
                0.0005799028913119039,
                0.004895101180279503,
                0.01175727291881568,
                0.010586405997330788,
                0.0046438510059349115,
                0.008642219709266551,
                -0.007851344681482625,
                0.004613196843067755,
                0.006806956765710818,
                -0.0037450389625009947,
                -0.004873294309564855,
                -0.0001286331189023289,
                0.0013756739676020237,
                -0.0004278069534383812,
                -0.0013725653801013123,
                0.0015307247627060862,
                0.002016300128773912,
                0.0002152951591116329,
                0.012595723038831644,
                0.011151547821638345,
                0.012621144831634347,
                0.013267080107794232,
                0.003957034723620722,
                -0.0016192565756200893,
                0.000525149418362678,
                0.01032132095218992,
                0.018364637462447337,
                0.031348656428313894,
                0.04287838401766488,
                0.02505941019541252,
                0.01190076647117176,
                0.01748616627863438,
                0.012865965544854302,
                0.013685815287977401,
                0.001008533739058994,
                0.010753533943405608,
                0.00455647294205148,
                -0.0032453563201112518,
                0.0006359878814817918,
                0.001479333815277439,
                -7.14742235892258e-05,
                -0.0002450959028925281,
                4.950457526089776e-05,
                0.00518055671456333,
                -0.0020081248445303975,
                0.002760786903865097,
                0.00996972225886716,
                0.0037494210107794582,
                0.011458895584368247,
                0.015642061322215763,
                0.012696154110941792,
                -0.0041703166601835834,
                0.003170734346917431,
                0.02500118190183687,
                0.036363008285765115,
                0.030963765509704845,
                0.019259457048773486,
                0.016632346005428397,
                0.011131162875212602,
                0.021666948984345184,
                0.00921844269683543,
                -0.0012840044543994472,
                0.0029052845638090196,
                0.013435568237698724,
                0.005494048157858646,
                -0.007385003002154533,
                -0.0006283731370288376,
                0.0009410941203639654,
                0.0004558488449165624,
                -0.0004954216426961425,
                0.0022952765039425367,
                0.0017015056744969458,
                -0.003959521832197682,
                -0.000645709113880359,
                3.71213270721893e-05,
                -0.007065735923597973,
                0.009256797959482501,
                0.007713658200607832,
                -0.006762850166789974,
                0.0052443477878441475,
                0.014120457947262667,
                0.00819125430926759,
                0.03922960673392332,
                0.010674002783049107,
                -0.008089129610220997,
                -0.0084530835113761,
                0.005906673016001104,
                -0.0016915521088889539,
                -0.0013301437879795054,
                0.0054085151603045405,
                0.012350209157655704,
                0.017709457054031444,
                -0.004370240371051735,
                -0.02617502306780703,
                -0.00534084762217648,
                -0.00030508836601275127,
                0.0008110993920275965,
                -0.0003392015398586026,
                0.0035295272208648414,
                0.0002460446028499662,
                -0.004489190804232771,
                -0.0008619773213174895,
                0.00034096911723923746,
                0.010518084181926086,
                0.020006069711194004,
                0.00254485499932636,
                -0.010847132457563172,
                0.0022132668594924457,
                -0.0042267621007035395,
                -0.0036373764501877177,
                0.008253720929236086,
                -0.022028734723566434,
                -0.02006777121065283,
                -0.012767061058265979,
                -0.01797405764400863,
                0.0010397501346032037,
                0.016320114586533995,
                0.023987889283115436,
                0.031132404389380065,
                0.033839500878622114,
                0.014154922106694653,
                -0.010913689245978358,
                -0.004417017222078478,
                0.0010599186058549638,
                0.00012975786655455114,
                0.0011549848818933521,
                0.0016614713842273323,
                0.0003404620099740987,
                0.006270678848830624,
                0.012232362054561456,
                0.014043903183465437,
                -0.0001476380128602752,
                -0.001039365057523539,
                0.009050520674264472,
                -0.006716420209311148,
                0.0007133864613446823,
                -0.024229394574247724,
                -0.008544722305392,
                0.0004652417259848363,
                -0.029403580081269788,
                -0.01254108540133754,
                0.01289948044611581,
                0.000846930009052208,
                0.01380996839785178,
                0.0023440464826126467,
                0.01674666252339492,
                0.045726977047814504,
                0.06562144626339103,
                0.04346841056556582,
                0.005403096302867418,
                -0.0015511153091814123,
                0.0009390474987735297,
                0.0006354727570026745,
                0.00101736226147565,
                0.0002987563333787349,
                0.0037853164304021093,
                0.013813237712378027,
                0.0072581704063529335,
                -0.0033933748909801952,
                0.0020573221487189567,
                -0.0019334991463367457,
                0.00914218568234487,
                0.01941314904010001,
                0.0021637230230702946,
                -0.004100030902831694,
                0.03465729374115074,
                0.0038503029475580324,
                -0.001616663086248733,
                -0.00335038668674761,
                -0.007242564951783279,
                0.0022659962510233824,
                0.012538018146643206,
                -0.01056638159242611,
                -0.00020126919405186528,
                0.017116550143561622,
                0.04232836449824345,
                0.032352071427262256,
                0.007070922474832687,
                -9.88185223765019e-05,
                0.000746321781311205,
                0.0007766052455686019,
                0.0004244732509194585,
                -0.00028384203355718163,
                0.0005998902820178995,
                0.004671173697663863,
                0.006543172556346693,
                0.010325755908522196,
                0.016979753422212748,
                0.009461013457907157,
                0.00807130518810732,
                0.014699574478532597,
                0.026589439367077722,
                0.029233559411593675,
                0.054466853384624404,
                -0.028189459139282978,
                0.008213730458187966,
                -0.030301586406271994,
                -0.014770657111779889,
                0.007637889983370219,
                -0.005072059974446384,
                0.012559486893193727,
                0.009613846442494547,
                0.007208758049973021,
                0.010579186350068834,
                0.014791233848609406,
                0.009570830405525142,
                -0.0002251557065077433,
                0.0008874085602396266,
                0.0007750211308954635,
                0.0007991191062703184,
                -0.001306176788800219,
                -0.008331002761275045,
                0.00642006799692618,
                0.023405665266826466,
                0.011271959819464437,
                0.028483111752703297,
                0.012545941528483841,
                0.003455745172673437,
                0.014440931008596116,
                0.016034372592995498,
                0.041921505059029654,
                0.01568475605837022,
                -0.024815026577338327,
                -0.001269560968287291,
                -0.03001816476559642,
                -0.008609241166297488,
                0.02206762842574751,
                0.013784028843989013,
                0.02517486206676027,
                0.010456830269522483,
                0.0013326060712152983,
                0.0028802188970304056,
                0.01579896402188003,
                0.012876098979290486,
                -0.0016946949038328682,
                1.9578799566521636e-05,
                0.0007127850304086596,
                0.0007351086077237787,
                -0.00128078613650655,
                -0.009330211849591466,
                0.012262264368779849,
                0.023886889837047162,
                0.01208467583351427,
                0.01680628157586477,
                0.018804745329589135,
                0.004798789387082977,
                0.016091415096358436,
                0.041926775264673616,
                0.01843014069841375,
                -0.012787910375900394,
                0.005897556491220748,
                0.0064376343342457945,
                -0.020203835649315393,
                -0.0019407550184140064,
                0.02358040207010063,
                0.002605827101930939,
                0.003536353210247494,
                -0.004100315894157076,
                -0.0023314195467098483,
                -0.000563246886370999,
                0.01052493082480695,
                0.01373532291708029,
                -0.00032617179008868506,
                -0.0008831065378219441,
                0.0011113450079559847,
                0.0002486646935858298,
                -0.001289740514242462,
                -0.0075433301559635225,
                -0.0004156383257623904,
                0.008261782386813804,
                0.008652869573181565,
                0.023393967128897537,
                0.012662928880059763,
                0.01201584415333445,
                0.025993973792017896,
                0.015297997020921874,
                0.004941945309057877,
                -0.011202035787584127,
                0.013686583872732019,
                -0.008090753682336837,
                -0.022315829414995308,
                0.003977641212014469,
                -0.005073621084683435,
                0.006817146610671309,
                0.006320992331243078,
                0.0021388574498366723,
                0.008444339755244024,
                0.002373713155281163,
                0.010843720767849674,
                0.009564291497578105,
                0.0008674190551536817,
                0.0010733045506436671,
                0.0004884089920252189,
                0.0013413722042915173,
                0.0004229692641151425,
                -0.009651891962270976,
                -0.0021250014063080944,
                0.0029074443496032707,
                0.016562309175909604,
                0.014818103153360847,
                0.01231857353187596,
                0.008913184393602227,
                0.02258547212316554,
                0.003656812860708856,
                -0.015412281264584236,
                -0.014115811576142829,
                -0.0005991247044865493,
                0.002823568941619916,
                -0.023743265656453592,
                0.004849671065869784,
                0.0027166418476316447,
                0.0016877284326415661,
                -0.01029441580039777,
                -0.002265024354134676,
                0.016630294336013755,
                0.013416442891320773,
                0.011448758709015584,
                0.005526986130578463,
                -0.0009147692342209674,
                -0.0006339352884954917,
                0.001046478524776888,
                0.0008093498829192617,
                0.0017541546398605963,
                -0.006075193881876257,
                -0.006259408142083154,
                0.010615792029124865,
                0.021811650589385143,
                0.02930996018607407,
                0.020560704985060907,
                0.006211260926558382,
                0.00855835271615129,
                -0.01750978864717034,
                0.004649503782973496,
                -0.01651987717273108,
                -0.0021214977515002812,
                -0.012998554278129779,
                -0.02470058809660778,
                -0.0064483692925002495,
                0.00036294247636060536,
                0.01033008342919163,
                0.00033713268060199926,
                0.002849046839688148,
                0.020385866848897295,
                0.010892770547634557,
                0.006822826279476259,
                0.0004893768476195327,
                -0.001311641972282412,
                0.0001852584641326353,
                0.0009487784878883376,
                0.0011226246931729568,
                0.0020583582060884884,
                0.00045076919880287987,
                0.009181403844786247,
                0.018296663757019226,
                0.019724849570729647,
                0.03273331650955013,
                0.017835104519204083,
                0.008863354682970774,
                0.013242925237177208,
                -0.010092311596830416,
                -0.003692893807195108,
                0.010287271263960967,
                0.006729927961066015,
                -0.0032270105737814973,
                -0.021597689282455035,
                -0.005891052873187971,
                -0.004263328238985812,
                0.00747561408881792,
                0.008944400532762072,
                0.013487456824877469,
                0.00920049180251466,
                0.0035384713141434956,
                0.0021650286743534336,
                0.0008414797163838599,
                0.00014995833082627268,
                0.0006782205643124505,
                0.000506775127807253,
                0.00043001389041726393,
                0.0011932600117956973,
                0.00614095424819532,
                0.006663776927818432,
                0.004232307239131491,
                0.02486228187392141,
                0.03205321722728786,
                0.021101382158224852,
                0.0280950681366928,
                0.021299704926423746,
                0.013317677967345287,
                0.00811218741888236,
                0.005690990527127679,
                0.005819792377119742,
                0.00607057446417176,
                0.002906720316158248,
                -0.004687825786574404,
                -0.007067135123847835,
                -0.014972285831625432,
                -0.0009645053199034358,
                -0.0019816218599751877,
                -0.0027266757218180966,
                -0.0018560181622929715,
                0.0014658855468881072,
                -0.00027244681252749936,
                0.0015374448366508534,
                0.0010253195239854546,
                4.977249321754531e-05,
                0.000683476884531755,
                0.0012790223455194914,
                0.005878842918537704,
                0.001990875912840507,
                0.0020846178919983233,
                0.015568791644705817,
                0.014811982441276926,
                0.03173030551161382,
                0.03599878668200638,
                0.028587411619197936,
                0.01464181062637692,
                0.021741774462861845,
                0.02241351856700741,
                0.00829380856976488,
                0.004937619494838811,
                0.0025091972403126226,
                -0.0015523686666954264,
                -0.018082268098054646,
                -0.020864825890548878,
                -0.008097538723055102,
                -0.007581630502256611,
                0.0006334730246460989,
                0.004693346642512955,
                0.00035034935877764807,
                0.0005143049329096101,
                0.0007195192993332229,
                0.0010496543624729793,
                0.0006514006469105751,
                0.0008139744870055279,
                0.0009043389732169756,
                0.0017147620992387803,
                -0.007388458679778329,
                -0.007971629805822606,
                -0.004296074557785217,
                0.0026948232336345083,
                0.01429700408196577,
                0.01723966161260595,
                0.009069971457671966,
                -0.00856520521074946,
                0.00032915269645036725,
                -0.002772340679626275,
                -0.011735578643058976,
                -0.019467552795848473,
                -0.01305335842621699,
                -0.0064035574987945385,
                -0.010020605085008365,
                -0.009262903094605245,
                -0.008003498070270926,
                0.0008638748475488317,
                0.009170044532905455,
                0.007818608791115097,
                0.0004144540149624355,
                0.00024708552882327995,
                -0.00016655554155550788,
                0.0009256194716951049,
                0.0012725249902680671,
                0.0006071574949963116,
                0.0005679836625724099,
                -0.0006399463342982745,
                -0.0021108475652624123,
                -0.009120249942701658,
                0.002342315862880042,
                0.010467457037736405,
                0.017642469027436318,
                0.006329243699535547,
                0.015236217696843829,
                -0.003682612391977925,
                0.00645809156582772,
                -0.0007035199880829136,
                -0.01747265043229864,
                -0.012852637780599363,
                -0.009290720994000941,
                -0.0166887745012021,
                -0.003597750320362708,
                -0.001209696511127452,
                0.0008869331526506702,
                -0.00048050789284777225,
                0.0015527920380976287,
                0.0056684994819896925,
                -0.00036728080554180914,
                -0.00044722133024483666,
                1.4917857021856146e-05,
                0.00042196047926497756,
                0.0012803807113366762,
                0.0009688859763551143,
                0.00011542408105438427,
                0.0010249928646942198,
                -0.0002812818045279297,
                0.004482896957502658,
                0.010304101628978931,
                0.010311318115059833,
                0.008846138018875665,
                0.006056103024768488,
                0.007164626377531511,
                0.002974726260371766,
                -0.006526275070796764,
                -0.007019871773469864,
                -0.0012095119361355765,
                -0.009016211456410905,
                -0.003176947509862401,
                0.002891339916417421,
                0.0030933515764701006,
                0.008824552219503037,
                0.008155687593904361,
                0.0014735436388170955,
                -0.004004606269837714,
                -0.00011273337322347352,
                0.00012295883069830232,
                0.00031887881847157034,
                0.0005569507490260674,
                0.0012131995927785293,
                0.0010170783838329182,
                0.0008847764945360084,
                0.0003538070465173052,
                0.0010695638004718671,
                0.0028140694954281813,
                0.006614646425457388,
                0.01088804056342539,
                0.010772785337062158,
                0.012553894860272263,
                0.014991106557112305,
                0.01700159952413712,
                0.02250354225991765,
                0.029599081472871228,
                0.024896816589493064,
                0.03561202896826686,
                0.020962405815375233,
                0.016827323121613943,
                0.021045705761915636,
                0.018189198290537657,
                0.014184662500480182,
                0.00987575950869742,
                0.004774118888260147,
                -9.115701706991552e-05,
                0.0003251792686232739,
                0.0004240106231592096,
                0.0011938906852731433,
                0.0012055443526270498,
                0.0010582625137639141,
                0.00033091822334328726,
                0.0006258768501945573,
                0.0009901090810162335,
                6.664358165000697e-05,
                0.00017339609956956196,
                -0.00012200858688304599,
                0.0009661883531035632,
                0.002567591671775139,
                0.002346517471600032,
                0.0009274051250405519,
                0.0003337499668434959,
                0.0016267315418858521,
                0.0029190876061449787,
                -0.0005185950361339547,
                0.004441135886424978,
                0.002949492238440393,
                0.002795562263139594,
                0.002205536150995604,
                0.002980369492516252,
                0.003002000715989302,
                0.0019094657692353225,
                0.0013992345644995643,
                -0.0013353867171825358,
                -0.0006144453439638146,
                0.000743246756749067,
                0.0010813256589606015,
                0.0002906255179588381,
                0.0010446788844645067
            ],
            [
                0.001010462717035976,
                0.00021481684565632686,
                0.0008215883727022213,
                6.002791485306353e-05,
                0.0008406936958508755,
                0.000530344428192268,
                0.00012667149709974732,
                0.0010699940156519172,
                0.0005929075307963052,
                0.0012094211483931559,
                0.0005902507558883518,
                0.0010755046059481796,
                0.0008240917409324754,
                0.0014107289199606313,
                0.00042383489411556197,
                0.0006309648776157751,
                0.00010352726177676369,
                1.8972859772441763e-05,
                0.0002724733938713886,
                4.7930724258839205e-05,
                0.0003449906750913776,
                0.00041257288794586104,
                0.0009419832781493502,
                3.717285819881928e-05,
                0.0011933727260428123,
                0.0011534259748860521,
                5.222272989725649e-05,
                0.0006552664572656819,
                0.0009533986089171302,
                0.0003428482484527714,
                0.00041859231620398847,
                0.0006825083004269406,
                0.0005582625505344,
                0.0012533392972918717,
                0.001603052060170886,
                0.001719315398668312,
                0.0017101149165164157,
                0.0010353636722030028,
                0.0007570201587360616,
                0.0008486313186284081,
                0.001751598228685417,
                0.0011430839880137195,
                -0.0006127204720214106,
                -0.001183911920651486,
                0.005179896764195075,
                0.003115381549402658,
                0.0009343461944396023,
                0.000928098759041968,
                0.0012376598227377142,
                0.001187986712257763,
                0.0008620673131801419,
                0.00029785084550115043,
                0.00027523128336894037,
                4.140111492004514e-06,
                0.00015296633887857666,
                0.00018725098388555666,
                0.0011575660869747333,
                0.00020518906937250898,
                0.0008506731583907113,
                0.00085913087209767,
                0.0005796263920450086,
                0.0013859474736877234,
                0.001696251750782595,
                0.0040615495087401995,
                0.00549977944689415,
                0.005893441152798892,
                0.004246626639077149,
                0.0006995473576900496,
                0.0035685224813184293,
                0.00026942061383326897,
                -0.004652443680758474,
                -0.00922295772696949,
                -0.004084385554155746,
                0.0003285661325601116,
                -0.00453998631212154,
                -0.00823689039354212,
                -0.004081650737062179,
                -0.0023110697201579322,
                -0.0011380023861901605,
                0.0008430714571022386,
                0.001746786674907733,
                0.0015194030361534252,
                0.0007431405208850566,
                5.6848618401099075e-05,
                0.0011781803954434488,
                0.0008961068597636387,
                8.824413714227795e-05,
                0.0011549815315175518,
                0.0013182639432663484,
                0.0026262074113092893,
                0.004386740838961971,
                0.005219517327392197,
                0.011481964509448467,
                0.016700111469983576,
                0.013487590923144874,
                0.017668748424383512,
                0.012371169164724336,
                0.003146193691985098,
                0.0017209475442815283,
                -0.006665679954320611,
                0.001954488655142223,
                0.010365969587325519,
                0.007582203272439973,
                -0.001381220889775203,
                -0.00375301913137579,
                -0.006434897042292483,
                -0.0030088264398795417,
                -0.00018682094728074677,
                0.0012455884132107845,
                0.0008317251806545373,
                0.0005744187269136099,
                0.001192957901026868,
                0.00030040203018035785,
                0.0011435950880675997,
                0.000705745544917627,
                -0.00012644902412801146,
                -0.00029207863945763905,
                0.0051819659152686085,
                0.008014674212198121,
                0.00852389561223349,
                0.009517069551476092,
                0.015859001504875615,
                0.019083508948284346,
                0.018385912700975254,
                0.009824923554962806,
                -0.005282838744759292,
                -0.008494666180021159,
                -0.013880256032058315,
                0.0015065150381714581,
                0.006777543512718035,
                0.0068224525827859685,
                -0.006643257520791192,
                -0.012614847839932115,
                -0.020042536066329993,
                -0.015328764668564848,
                -0.014416050120230237,
                -0.002973511779960239,
                0.002109776913591747,
                0.0008591663455539159,
                0.0010104556632359201,
                0.0002853949216899522,
                0.000444996768052433,
                0.0005682555567642616,
                0.000914084550793325,
                0.0021429063951822684,
                0.003891444838982172,
                0.0027350360361867504,
                0.0063073141376767256,
                0.013230065479707837,
                0.011804169380950783,
                0.017848103222285163,
                0.014037199541013484,
                0.004560194054629187,
                -0.00822900290939951,
                -0.018077130524545876,
                -0.008238145243219013,
                -0.0035896284329903117,
                -0.006538198066083626,
                -0.0045432237839345465,
                -0.0003120181611295642,
                -0.0005969544449633218,
                -0.0006346622704646598,
                -0.0057774626886677016,
                -0.018704656387042152,
                -0.0104088236631522,
                0.0028178458898861034,
                0.001795528081672646,
                0.001196607569676443,
                6.245124664407324e-05,
                0.00016050432203074664,
                0.00026199189002741515,
                0.0023047475733831138,
                0.0012781058363863335,
                0.002591823900680722,
                0.010029905275147091,
                0.013536066756145038,
                0.015382384474840652,
                0.019048196417336856,
                0.013841497281688585,
                0.00190821403264385,
                0.0012432236399404514,
                0.005325709760269187,
                0.001649719744589945,
                -0.00040606780904877776,
                -0.019655608329247985,
                -0.03805119277285758,
                -0.031042256446565022,
                -0.026098269111311963,
                -0.022396908172996128,
                -0.017696045967507498,
                -0.017380467420219117,
                -0.02604504789573269,
                -0.00951896758999749,
                0.0011927717621264382,
                0.0007270646018276041,
                0.0016089341241440518,
                0.0010246567737230738,
                0.0011248671706794269,
                0.001361424265375647,
                0.0020816149651032493,
                0.004701024354661254,
                0.00430955519229375,
                0.01169829584001363,
                0.012682799169284891,
                0.022254069009276043,
                0.013695025539804262,
                -0.008353923403694612,
                -0.017961931384727917,
                -0.022570753083237822,
                -0.0012030105890869205,
                0.0016209134881218592,
                0.002251138688896979,
                -0.02103803469941211,
                -0.04925600349275845,
                -0.039214803049552535,
                -0.034476228607084575,
                -0.03517125337271565,
                -0.024368303223493315,
                -0.02004924887417754,
                -0.030261782956522466,
                -0.011059921864875215,
                0.000965896988542121,
                1.1120378919429422e-05,
                0.0010725177288323237,
                0.0006284920888069492,
                0.0009810324837269634,
                0.00023458200028705955,
                -0.00011838153345532922,
                0.00397292250406738,
                0.005088913595400996,
                0.006608891226641394,
                0.007155277915288922,
                0.014364176551354229,
                0.014068918918846903,
                0.0007885009765079373,
                -0.009728745726748006,
                -0.014974250319777997,
                -0.000840739811660561,
                -0.006869284455829324,
                -0.006022877855467203,
                -0.009413633216454484,
                -0.030590632785569016,
                -0.03156835126882432,
                -0.018735796092277143,
                -0.021989899739802518,
                -0.010849768813483682,
                -0.003500918006662143,
                -0.014856645644609832,
                -0.013290973730334818,
                0.0023160272306664864,
                0.0033924276277524233,
                0.0012746592443558106,
                0.0009738990761003451,
                0.0007080108412276935,
                -0.0011261063241500946,
                -1.9978684626646872e-05,
                0.004678211414737007,
                0.0052946502873436035,
                0.010432658329339662,
                0.017790535524610233,
                0.012114454599510984,
                0.012012624756398325,
                0.0037643607988236166,
                -0.004959902716756668,
                0.0041911477434797,
                -0.012022143348539058,
                -0.014256746982970714,
                -0.0048713197775900625,
                0.006980628647181394,
                0.019257460538644074,
                0.011953255941784674,
                0.00890769174945587,
                0.0020064432748440907,
                -0.005448337380133102,
                0.0102484710571054,
                -0.0020077894825318867,
                -0.006435910195468982,
                0.002884523115131421,
                0.0028788544818401074,
                0.0014280437687042207,
                0.0009578447493829897,
                0.0004270012587996316,
                -0.0008279670337856729,
                0.0028114127139019307,
                0.0060679883303139245,
                0.019124129036402704,
                0.028333883773272235,
                0.011312339135980183,
                0.0029714927412608874,
                0.00275492108680838,
                0.003905891835825285,
                4.476121416106589e-05,
                -0.009559610016554435,
                -0.024153015638387357,
                -0.013772746435365411,
                -0.013375403675869193,
                0.020268654006838444,
                0.032779374332529594,
                0.03484025104049445,
                0.019211930894954904,
                0.01441075116575244,
                0.005605495168773422,
                0.009024969722165627,
                0.012073018061467721,
                0.001559547430159483,
                0.002476107504794877,
                0.0037338227442210155,
                0.0005377181799878807,
                0.00048296939269723717,
                -0.00024109080276276234,
                -0.0012114439626543761,
                0.001770084364002381,
                0.00732828505411397,
                0.010377246700534847,
                -0.0002408371818347722,
                -0.016548309939857824,
                -0.01746695563376622,
                -0.00990342367884067,
                -0.024577195511720194,
                -0.020362173005376485,
                -0.04066834075709982,
                -0.04247144150366592,
                -0.024367310825981793,
                -0.016440455967429216,
                0.016833918743408557,
                0.018911141520420685,
                0.0197345197113643,
                0.008484021085301727,
                0.0027893492482422206,
                0.0022946241888753623,
                0.01074305677199282,
                0.01367151259359183,
                0.011317887230790588,
                0.006688300461332757,
                0.0018246885470372478,
                0.0003772928526100588,
                0.0007079723256414899,
                -0.0003372832090699925,
                -0.0011840635171035823,
                -0.000382047915063021,
                -0.0015810346157665602,
                -0.015094263984705567,
                -0.03338025544363571,
                -0.04205867064943867,
                -0.03144896545425345,
                -0.02381063856182526,
                -0.024365001293156576,
                -0.012944545084160094,
                -0.03270904172338741,
                -0.009175381616851778,
                -0.01034982772867567,
                -0.00695126566831421,
                0.010493570622210338,
                -0.0007998324540477344,
                -0.015316558551799161,
                -0.009648561214792777,
                -0.0019030997749470227,
                -0.0011673899212635182,
                0.004147184977486287,
                0.0013490519982676523,
                0.011140518246103194,
                0.007658735679391663,
                0.006960912440336803,
                0.0010431331546439334,
                0.0005067797467446726,
                -0.000931905556926881,
                -0.000436987822217936,
                -1.0006868421058062e-05,
                -0.014749084845662954,
                -0.02978803932524773,
                -0.03590530490976565,
                -0.032021678666096134,
                -0.01862799333407728,
                -0.0016957002266586624,
                0.010151273307479126,
                0.03290179649813683,
                0.01957728149619047,
                0.047588963976681393,
                -0.0017982714872583952,
                0.004575416756609377,
                -0.004906065117936411,
                -0.027459842203032755,
                -0.026437713898943865,
                -0.015768813015798452,
                -0.0003742436956401397,
                0.00040446223549027134,
                0.005500448059534537,
                0.007831177646150666,
                0.013686990785483025,
                0.012511925965934622,
                0.010409444090625879,
                0.0027178744775754435,
                0.0007585448878878881,
                -0.0004241908767760507,
                -0.0005852581814178323,
                -0.0009005109578753641,
                -0.0175390946655066,
                -0.027211933639874474,
                -0.011995966362229264,
                -0.00408932720232489,
                0.004315684506390133,
                0.01420324876607501,
                0.026544218832292032,
                0.03517356669535306,
                0.02396529585235854,
                0.037107345074126954,
                -0.006096712427783908,
                0.009291008718878124,
                -0.007349561211567778,
                -0.024838539371412553,
                -0.010482222294591871,
                -0.015937948030695554,
                0.0004316723189873447,
                0.010375565906345419,
                0.010291474160163603,
                0.004191669882939349,
                0.004941124543718554,
                0.01122182689423194,
                0.011865610325723665,
                0.0014025445331283446,
                0.0008249968946960923,
                0.00013453226847678703,
                -0.00011116030890013717,
                0.0011095959469140852,
                -0.008204920955248716,
                -0.0016600371873511054,
                0.0009578315359654801,
                -0.007271021779673159,
                -0.002357034715346791,
                0.0014954725542213616,
                0.015156638623761466,
                0.019085393693964826,
                0.015297531484848508,
                0.018804460741355625,
                -0.011299411836132775,
                0.014742168038560597,
                -0.0028337842510283784,
                0.001988751480632556,
                0.005926169672279933,
                0.013479320778078846,
                0.016810977379686558,
                0.01203466969311853,
                0.003350834712805042,
                0.0017638280476941657,
                0.013814475234961553,
                0.017508551012901073,
                0.01284497278926015,
                0.0018323944465140393,
                0.0003013975806222333,
                0.0007840476104724869,
                0.0003307120076786648,
                0.008914635817003764,
                0.004434323956734631,
                0.0038116330516973504,
                0.008197504123003935,
                -0.0072699911655876,
                -0.009700606651457862,
                -0.0041796380367968445,
                6.217037700158676e-05,
                0.014723566777782098,
                0.026407377404676056,
                0.012008471096618348,
                -0.0013554251876871468,
                0.0047940702335152255,
                0.00538000564532263,
                0.023825140643098625,
                0.014284204442606644,
                0.016631785300279967,
                0.010448328872280602,
                0.007774071089041337,
                0.013704430607171431,
                0.008305825039276526,
                0.011177400282561577,
                0.020318475456048604,
                0.016740739108716374,
                0.003095964221887191,
                0.000647026923442195,
                0.0007416109913673969,
                0.0019932247250137873,
                0.007181269483502264,
                0.006550806060634451,
                0.010484674642346111,
                0.013271894399875698,
                0.0032169344261663525,
                0.006671273221826031,
                -0.013195028240534572,
                -0.01259806626656723,
                0.006470951383673279,
                0.01125110637485581,
                0.0008144213917467694,
                -0.004622819507510237,
                0.006210458547863345,
                0.01234421537693357,
                0.01551513263366554,
                0.007761621777019603,
                0.010831283949453102,
                0.008896239930706642,
                0.003766541247786632,
                0.0047951228777866626,
                -0.0020537888271469715,
                0.005984607113809772,
                0.015737509200552516,
                0.008121441954367533,
                0.001662765391654991,
                7.989984245450369e-05,
                0.0005250501263035385,
                -0.001096769464270326,
                0.0022320561760433193,
                0.004188827131895267,
                0.013379179407677237,
                0.024476146856532374,
                0.026126885173536958,
                0.01339874023727563,
                -0.007460020423741184,
                0.0004266860235643447,
                -0.005916043280980584,
                -0.002663177033076381,
                -0.010817813844570512,
                -0.0050692201357317584,
                0.012539273891596333,
                0.02959857208466583,
                0.017515310245524905,
                0.0030711537968635626,
                -0.005199583306472432,
                -0.005291520341790485,
                0.000672403244669254,
                0.006466734647938283,
                0.008468246392819402,
                0.010128380319367782,
                0.009249061013382657,
                0.003095635171868672,
                0.00171738971065194,
                0.0003832536116028862,
                4.40206788677432e-05,
                -0.002458251092375113,
                -0.008201979861244095,
                -0.0018214368016112074,
                0.014591742743791089,
                0.01862118862566865,
                0.01798665739916976,
                0.006022200922373606,
                -0.004367030967017708,
                -0.0016882367578066597,
                0.0034857559787543004,
                -0.0030208417830774334,
                -0.016972716389321067,
                -0.011040906307189707,
                0.012892943458312229,
                0.016250269348206135,
                0.017573607612255775,
                -0.0011227271076980896,
                -0.0116491480169717,
                -0.003417079697888559,
                0.0008671159591867224,
                0.007715418209569373,
                0.010183960295244125,
                0.007749185642855843,
                0.007430210811796557,
                0.004301710561856789,
                0.0011893692143705838,
                0.0010768612173939487,
                0.00073743187664026,
                -0.00015946083079388366,
                -0.0023553715133469485,
                0.0015818434027150491,
                0.01484811123069166,
                0.005395542425089199,
                0.010529731439265694,
                -0.0010143573915369355,
                -0.004098661151677168,
                -0.0008485875059782597,
                0.0063069779793981234,
                -0.00105780505709255,
                -0.003940323858297975,
                0.002878629732450882,
                0.018056366897161488,
                0.003685712291305757,
                -0.008896223536755685,
                0.0056807567468865425,
                0.0012910577754234314,
                0.005385980839368585,
                0.0013238072600899016,
                0.0034473128605928757,
                0.010855630544393124,
                0.00842933369632055,
                0.0043230385626736555,
                0.0017250656664547998,
                0.0011327430790204769,
                0.0008839862469571007,
                0.0008296535323215663,
                0.001859393936394647,
                -0.00042805972102647,
                -0.0031037848623777413,
                -0.00718337553907939,
                -0.00046691055923107704,
                0.008256121674807214,
                -0.001271779685440828,
                0.005929909226357024,
                0.0033778383468527806,
                0.004641859978170753,
                0.006808836510685774,
                0.014348548090401047,
                0.008099027550447715,
                -0.008051164705296134,
                0.0015991796791545252,
                -0.009484810229588601,
                -0.009188605030466932,
                0.0019157835150101204,
                -0.0013916911981901724,
                -0.0029611151578886447,
                0.005893766167622413,
                0.005781475802189242,
                0.000512669136235106,
                0.0033159359194426755,
                0.0013454783577818506,
                0.0008416725649771092,
                0.0001254229353551937,
                6.779791206957811e-06,
                0.002463130926277338,
                0.003518756820332359,
                -0.002101066249655269,
                -0.01971054791854369,
                -0.015275133550444374,
                -0.010367754883659763,
                -0.008485083203761718,
                -0.005955147797105061,
                0.01311998825651235,
                0.025030786640868417,
                0.021405165038499353,
                0.01146293045846837,
                0.0053286465005604735,
                -0.01058525276035494,
                -0.015108552466622375,
                -0.02617321767054172,
                -0.019178495857778588,
                -0.01706379374194571,
                -0.004781154596753285,
                0.003991108914275587,
                0.007643373651120901,
                0.0021983919381952533,
                -0.000337331321277864,
                0.001299221500719739,
                0.00015551157540633342,
                0.0008591655581702423,
                0.0006628959293458943,
                0.0007242071789971769,
                0.0009189043268277028,
                0.002939133960804412,
                -0.0006454416291927801,
                -0.017571972386539545,
                -0.025525295227481926,
                -0.023292323855376,
                -0.023469034326051554,
                -0.02518225101837328,
                -0.021976142874638654,
                -0.02331265095978959,
                -0.03092499196284686,
                -0.015712202229835465,
                -0.006131917552242052,
                -0.011709807049990261,
                -0.018256521232434274,
                -0.025220118705558615,
                -0.005638271409383268,
                -0.0032307404887793826,
                0.003083629077189649,
                0.01587891963208717,
                0.01361046223566295,
                0.006766629980007062,
                0.004008788874691519,
                0.0019654418515918834,
                0.000538731210286243,
                0.0004115340795305596,
                0.001242025452732943,
                0.0008964385689365782,
                0.0012908032727938627,
                0.00015900895320369022,
                -0.0037258432062650857,
                -0.011969054165642777,
                -0.020418923480545872,
                -0.018218857202086186,
                -0.021696671276758835,
                -0.030534945015295405,
                -0.03343058347101947,
                -0.03280740318226186,
                -0.022367355951496838,
                -0.005976934930849164,
                0.010404184118060319,
                0.009796678059999571,
                0.007687813072382448,
                0.010693967966812334,
                0.01351054369524956,
                0.00610596942356501,
                0.008538611329885041,
                0.010372818620548582,
                0.011980437929424086,
                0.004290212632750431,
                0.005496274406141703,
                0.0032145147679397404,
                0.0010079138270832435,
                0.0012042045949056653,
                0.0007381207769641671,
                0.0006579630853903694,
                0.0003937099987317513,
                9.205881192469568e-05,
                -0.0018778327867325743,
                -0.004073990466069607,
                -0.006517301211382504,
                -0.009379735196922182,
                -0.013192658454008112,
                -0.012147431881579752,
                -0.0035082312481523785,
                -0.00504656911750384,
                0.001436331555074418,
                0.009719779983285503,
                0.018385851973255322,
                0.019120038973605626,
                0.01622598838959655,
                0.01807777718099018,
                0.012282820366756103,
                0.00900026851666373,
                0.005572535633368171,
                0.0026951037631100503,
                0.001065536588114433,
                -0.001318313701423623,
                0.0011040312274844747,
                0.0008335318455963492,
                0.0009526422962787066,
                0.0008820827668557825,
                0.0003540936129363308,
                5.739940212418921e-05,
                0.0008049343362352476,
                0.001093467232235566,
                0.0006774064114912139,
                0.0008293405916943365,
                0.00032758654171305044,
                0.00021776384631810915,
                0.00024451331446764503,
                0.002677733003394126,
                0.003414210734815461,
                0.003959430218461996,
                0.008063128353045861,
                0.012117055984980607,
                0.014150269050380014,
                0.008912259123251772,
                0.006522378695796797,
                0.0053683333578051886,
                0.005382026884898577,
                0.004599350987411839,
                0.0019349906382651338,
                0.0022551381278119874,
                0.0007830230596415728,
                0.001440844580746757,
                0.0005812706814204634,
                0.001205655845095335,
                0.0012767934653720547,
                0.00043117823556869785,
                0.0004797553567829147,
                0.0006116189328934852,
                3.190797689828011e-05,
                0.0008338489697192398,
                0.0006622369685433402,
                0.0008154082731809334,
                0.0005267379912539841,
                3.6125501279030747e-05,
                0.0008093112045660478,
                0.0011223662605161144,
                2.5812739198196163e-05,
                0.0006744285572793106,
                0.0006776027789930717,
                -1.8980155944896446e-05,
                0.00193534997799911,
                0.0014408989320322354,
                0.0009518956909512228,
                0.0011691104364752384,
                0.0005294158784747991,
                0.0005630259465873791,
                7.31838551730965e-05,
                0.00011227218865628314,
                0.00015161630960186517,
                0.0006956512598992744,
                5.197052309444793e-07,
                0.0005608056632728771,
                0.0005430073277755416,
                0.0005371312325494113
            ],
            [
                0.0004855892860741932,
                0.0005384477682180702,
                0.0009683094681181055,
                0.0009653446428570965,
                0.0011500667011115644,
                0.001000217445016378,
                0.0005178405876468173,
                0.0005377320111997029,
                0.0005557067326237118,
                0.0011625509223370297,
                0.0006407598082057353,
                0.001250516006569677,
                0.0009394666911648373,
                0.00020566462072492335,
                0.0008062223750247436,
                0.00017627287049913094,
                0.0005803310281800995,
                6.874110480198114e-05,
                4.194524152343251e-05,
                0.00014505856733223416,
                0.001203345715482101,
                0.000162491496948002,
                0.0006900955994121535,
                0.00022487248970768902,
                0.0003590191028540032,
                0.0008812715809781683,
                0.0009415776682052605,
                0.00035953880808494543,
                0.0001607242187248386,
                0.0002032319704546021,
                0.0008966700406343566,
                0.0006463135047990242,
                0.0007393495536198344,
                0.0005511549940754452,
                -0.0015970948924088422,
                -0.0031712079239542535,
                -0.0029575423037679007,
                -0.0006190353115251835,
                -0.0012270283977359085,
                -0.0021170052297877434,
                -0.0026149366936719784,
                -0.0019282700387411597,
                -0.0006721649161376511,
                -0.003586029548556895,
                -0.0025321983553735316,
                -0.0031518554950284417,
                -0.002962475142481771,
                -0.003951615104219384,
                -0.002541273362701723,
                -0.0014533984168096851,
                -0.0007553671471673056,
                0.0002077541794397811,
                0.0008658748839043568,
                0.00109251007592313,
                0.0006065216317678412,
                0.0012248939867583637,
                0.0006924286313751022,
                0.0002667462744469123,
                0.0002885422719027451,
                0.0007480141831338449,
                0.0003576883494834983,
                0.0011233571372985876,
                -0.002415505143157267,
                -0.004739725816681945,
                -0.006716501794596046,
                -0.003130391845801553,
                -0.004129569026246217,
                -0.004501639334167441,
                -0.003993332444125371,
                0.0020349353279766197,
                0.0025831458097277976,
                -0.0016306289651928227,
                -0.007241647342906886,
                -0.007621107445541867,
                -0.009524932823798755,
                -0.00786231614565871,
                -0.006307986524778722,
                -0.0050772554112016996,
                -0.004186647559871846,
                -0.0016690685280800802,
                0.000129969652852376,
                0.0015820485729343577,
                0.0011595873136994142,
                0.0009960984934630766,
                0.0010629552986534854,
                0.00048475591994105765,
                0.0009061415596357475,
                -5.940847397979555e-05,
                0.00012866177300611817,
                0.0003252299666829765,
                -0.006006848547998631,
                -0.009037192826385203,
                -0.01418946395383793,
                -0.015377781362674446,
                -0.010233352477245345,
                -0.005253653413480296,
                -0.004105746859128648,
                0.002119545302416982,
                0.010783927912089292,
                0.015350297384110204,
                0.023260572063858134,
                0.015641426580980927,
                0.008267603129663166,
                0.0065106560555184215,
                -0.005461021066901096,
                -0.005904112050743525,
                -0.004341703387800486,
                -0.003958985631734443,
                -6.976551168673945e-05,
                0.0005297448311347986,
                -8.851900648767595e-05,
                9.459430334292394e-05,
                0.0005827553110734499,
                0.0011862405977579318,
                0.0010686062872562322,
                0.00016285393430136473,
                -0.0004434794917825273,
                -0.0015833098600568061,
                -0.004973170144264205,
                -0.004918654168042205,
                -0.006279724729799566,
                -0.0025773580931248924,
                -0.0009229374391864336,
                0.001962315145930649,
                0.0033164229386323505,
                0.01896558467626621,
                0.012386414984646014,
                0.019459666860087006,
                0.027683654679856937,
                0.02022029275206476,
                -0.0018306879868583128,
                0.004699361714629211,
                0.014050497064698993,
                0.006737629054218316,
                0.005953341549323873,
                0.00539232951398472,
                -0.0003133241266426284,
                0.00040928680661231635,
                0.00047849812633767713,
                5.266424476263602e-05,
                0.0004481057097816772,
                0.000655961465455463,
                2.844965809331977e-05,
                0.001095697682547315,
                -0.002380728135377311,
                -0.0001762957334772941,
                -0.006783379910975149,
                -0.0008537014973904076,
